<?xml version="1.0"?>
<opencv_storage>
<opencv_ml_knn>
  <format>3</format>
  <is_classifier>1</is_classifier>
  <default_k>3</default_k>
  <samples type_id="opencv-matrix">
    <rows>120</rows>
    <cols>4</cols>
    <dt>f</dt>
    <data>
      -4.20448089e+37 -1.75929427 -2.61829211e-19 1.93685782
      1.122655e-32 -1.91055083 -1.17995971e+21 -1.91412199 5.6282071e+10
      -1.85017025 -5.34128124e-11 1.82516348 1.122655e-32 -1.91055083
      -1.17995971e+21 -1.91412199 2.18520153e-32 2.03121042
      -2.08589168e-13 -1.49991512 -3.54574715e-34 1.9164269
      -2.57568683e-33 1.93099439 2.03734357e-23 -1.8928771
      -6.02070165e+17 1.46289062 1.122655e-32 -1.91055083 690266.688
      -1.93055618 -2.87265898e-13 -1.54867387 0.000138845615 1.96578324
      1.65080492e-36 -1.89633441 2.23480399e+36 -1.89768791
      2.00264016e-23 -1.70800483 -1.26513925e+27 -1.88132107 56769.1758
      1.68234932 3.29700587e+16 0.862190247 5.6282071e+10 -1.85017025
      0.000138845615 1.96578324 1.122655e-32 -1.91055083 2.23480399e+36
      -1.89768791 5.7183019e+10 1.91004252 -8.14544639e-24 1.66892409
      9.25228779e+35 1.88799405 -2.57568683e-33 1.93099439
      3.03711445e+27 1.79362524 -6.02070165e+17 1.46289062
      -2.58290642e+25 1.87255526 2.945758e-29 1.82264769 5.7183019e+10
      1.91004252 -6.02070165e+17 1.46289062 -254.53418 1.78725672
      1.30744996e+10 1.6980859 -7.52141123e+26 1.98577237 3.43767686e+33
      -1.77194083 -3.54574715e-34 1.9164269 -1.0389174e+18 1.85551584
      8.12660407e-26 1.71608269 -5.34128124e-11 1.82516348
      -3.80355363e+21 1.85833883 -2.57568683e-33 1.93099439
      3.03711445e+27 1.79362524 -8.14544639e-24 1.66892409
      2.59789318e+12 1.71078217 1.30744996e+10 1.6980859 -60.3074036
      1.94033444 -2.08589168e-13 -1.49991512 -5.25019731e-38 1.90221047
      -0.00809700694 1.89812613 -4.20448089e+37 -1.75929427
      -7.33493166e+10 1.99470854 1.65080492e-36 -1.89633441
      3.52490046e-26 -1.88125384 2.10911593e+20 -1.87773108
      -2.08589168e-13 -1.49991512 1.40533174e-34 -1.90344262
      -1.17995971e+21 -1.91412199 5.6282071e+10 -1.85017025
      2.10055333e+37 1.76731277 1.65080492e-36 -1.89633441
      6.29472125e+17 -1.85463941 7.08826955e-11 2.01606441
      -2.08589168e-13 -1.49991512 -1.3666818e-24 1.95196795
      -0.00809700694 1.89812613 -2.16904113e-32 -1.92316902
      -8.14544639e-24 1.66892409 1.40533174e-34 -1.90344262
      -1.17995971e+21 -1.91412199 -2.87265898e-13 -1.54867387
      3.43767686e+33 -1.77194083 56.6831093 1.56910157 1.87086812e-06
      1.50822592 6.58612365e-08 1.97062647 -1.90163918e-31 -1.67818022
      -2.46995682e-30 1.93064332 2.945758e-29 1.82264769 239.349304
      -1.93831503 -6.02070165e+17 1.46289062 1.122655e-32 -1.91055083
      -1.17995971e+21 -1.91412199 -4.79107064e-18 1.56482959
      -5.34128124e-11 1.82516348 2.59789318e+12 1.71078217
      3.07698063e+32 1.75691116 -2.26713043e+11 -1.908023
      -5.34128124e-11 1.82516348 -2.91937651e+37 -1.88211787
      -1.17995971e+21 -1.91412199 5.6282071e+10 -1.85017025
      -2.61829211e-19 1.93685782 1.122655e-32 -1.91055083 3.52490046e-26
      -1.88125384 -5.32698826e+19 1.87975049 2.10055333e+37 1.76731277
      9.25228779e+35 1.88799405 -0.00809700694 1.89812613
      -2.67525268e+36 1.7633332 -5.87384856e-36 -1.91024649 -1796223.25
      1.80147314 -1.0389174e+18 1.85551584 -4.79107064e-18 1.56482959
      -2.08589168e-13 -1.49991512 -0.0395026281 1.77304029 2.945758e-29
      1.82264769 5.6282071e+10 -1.85017025 0.000138845615 1.96578324
      -2.91937651e+37 -1.88211787 3.52490046e-26 -1.88125384
      8.12660407e-26 1.71608269 -1.90163918e-31 -1.67818022
      0.00125344656 1.65391648 1.87086812e-06 1.50822592 -5.05524353e-24
      -1.33502424 -8.41313357e-15 -1.82979155 -1.23478211e+10 1.81568956
      -1.0389174e+18 1.85551584 -2.59942482e-07 -1.96860695
      -1.90163918e-31 -1.67818022 9.33888132e-31 -1.91765904
      -1.17995971e+21 -1.91412199 6.74241036e-08 1.65549874
      -2.08589168e-13 -1.49991512 -254.53418 1.78725672 2.945758e-29
      1.82264769 2.18520153e-32 2.03121042 3.43767686e+33 -1.77194083
      -1.07408966e-22 1.95907617 1.51184348e+13 1.88169205
      1.63639743e-05 -1.64742088 -2.08589168e-13 -1.49991512
      2.59789318e+12 1.71078217 1.30744996e+10 1.6980859 -2.59942482e-07
      -1.96860695 -2.08589168e-13 -1.49991512 7.80568754e-29 -1.92476726
      -1.17995971e+21 -1.91412199 2.00264016e-23 -1.70800483
      3.18801305e-21 -1.93917191 -1.00997403e-30 -1.25844479
      -4.36526307e-07 -1.6305964 -0.0156169794 1.3873235 -8.14544639e-24
      1.66892409 -0.0395026281 1.77304029 2.945758e-29 1.82264769
      -5.32698826e+19 1.87975049 -6.02070165e+17 1.46289062 56769.1758
      1.68234932 -1.19349727e-06 1.63234937 -4.20448089e+37 -1.75929427
      -5.34128124e-11 1.82516348 1.122655e-32 -1.91055083 3.52490046e-26
      -1.88125384 1.63639743e-05 -1.64742088 3.43767686e+33 -1.77194083
      -254.53418 1.78725672 1.51184348e+13 1.88169205 5.7183019e+10
      1.91004252 -6.02070165e+17 1.46289062 -1.23478211e+10 1.81568956
      -2.57568683e-33 1.93099439 -5.32698826e+19 1.87975049
      2.10055333e+37 1.76731277 9.25228779e+35 1.88799405 9.1973084e+13
      1.96386266 2.00264016e-23 -1.70800483 3.18801305e-21 -1.93917191
      -7.5541845e-10 1.18803585 2.67183594e-07 -1.50471997
      -4.20448089e+37 -1.75929427 -2.08589168e-13 -1.49991512
      2.59789318e+12 1.71078217 1.30744996e+10 1.6980859 -3.33665193e+18
      1.82391715 -8.14544639e-24 1.66892409 -1.23478211e+10 1.81568956
      1.51184348e+13 1.88169205 -5.05524353e-24 -1.33502424
      -8.41313357e-15 -1.82979155 -1.23478211e+10 1.81568956
      -1.0389174e+18 1.85551584 8.12660407e-26 1.71608269 935105408.
      -1.99702263 2.59789318e+12 1.71078217 1.30744996e+10 1.6980859
      6.74241036e-08 1.65549874 -2.08589168e-13 -1.49991512
      1.20295826e+20 1.73921502 -1.19349727e-06 1.63234937
      3.03711445e+27 1.79362524 -8.14544639e-24 1.66892409
      -5.43718773e+17 1.84412241 -2.57568683e-33 1.93099439
      2.10911593e+20 -1.87773108 -5.34128124e-11 1.82516348 1.122655e-32
      -1.91055083 -1.17995971e+21 -1.91412199 239.349304 -1.93831503
      -8.14544639e-24 1.66892409 9.33888132e-31 -1.91765904
      -1.17995971e+21 -1.91412199 2.03734357e-23 -1.8928771
      -6.02070165e+17 1.46289062 1.122655e-32 -1.91055083 690266.688
      -1.93055618 -5.05524353e-24 -1.33502424 3.43767686e+33 -1.77194083
      -1.23478211e+10 1.81568956 -1.57613827e+29 1.94742846
      1.63639743e-05 -1.64742088 -8.41313357e-15 -1.82979155
      2.66969728e-11 1.62548363 1.87086812e-06 1.50822592 -0.0156169794
      1.3873235 -2.08589168e-13 -1.49991512 -1.23478211e+10 1.81568956
      2.945758e-29 1.82264769 -4.79107064e-18 1.56482959 -1.90163918e-31
      -1.67818022 2.59789318e+12 1.71078217 1.30744996e+10 1.6980859
      2.10911593e+20 -1.87773108 2.10055333e+37 1.76731277
      9.33888132e-31 -1.91765904 -1.17995971e+21 -1.91412199
      2.03734357e-23 -1.8928771 -6.02070165e+17 1.46289062 1.122655e-32
      -1.91055083 690266.688 -1.93055618 -2.67525268e+36 1.7633332
      -8.41313357e-15 -1.82979155 -254.53418 1.78725672 2.945758e-29
      1.82264769</data></samples>
  <responses type_id="opencv-matrix">
    <rows>120</rows>
    <cols>1</cols>
    <dt>f</dt>
    <data>
      0. 0. 0. 0. 2. 0. 0. 0. 0. 0. 1. 0. 0. 0. 2. 0. 2. 0. 1. 0. 2. 0.
      2. 0. 1. 0. 2. 0. 0. 0. 0. 0. 0. 0. 2. 0. 0. 0. 1. 0. 2. 0. 0. 0.
      1. 0. 0. 0. 0. 0. 2. 0. 2. 0. 2. 0. 0. 0. 1. 0. 2. 0. 0. 0. 2. 0.
      2. 0. 1. 0. 0. 0. 1. 0. 1. 0. 1. 0. 0. 0. 2. 0. 2. 0. 2. 0. 1. 0.
      1. 0. 2. 0. 2. 0. 1. 0. 1. 0. 2. 0. 0. 0. 0. 0. 0. 0. 2. 0. 1. 0.
      2. 0. 1. 0. 0. 0. 0. 0. 2. 0.</data></responses></opencv_ml_knn>
</opencv_storage>
