<?xml version="1.0"?>
<opencv_storage>
<opencv_ml_nbayes>
  <format>3</format>
  <var_count>4</var_count>
  <var_all>4</var_all>
  <cls_labels type_id="opencv-matrix">
    <rows>3</rows>
    <cols>1</cols>
    <dt>i</dt>
    <data>
      0 1 2</data></cls_labels>
  <count>
    <_ type_id="opencv-matrix">
      <rows>1</rows>
      <cols>4</cols>
      <dt>i</dt>
      <data>
        81 81 81 81</data></_>
    <_ type_id="opencv-matrix">
      <rows>1</rows>
      <cols>4</cols>
      <dt>i</dt>
      <data>
        16 16 16 16</data></_>
    <_ type_id="opencv-matrix">
      <rows>1</rows>
      <cols>4</cols>
      <dt>i</dt>
      <data>
        23 23 23 23</data></_></count>
  <sum>
    <_ type_id="opencv-matrix">
      <rows>1</rows>
      <cols>4</cols>
      <dt>d</dt>
      <data>
        -1.8174627062086733e+38 -12.724477648735046
        4.648098208943952e+37 49.638404369354248</data></_>
    <_ type_id="opencv-matrix">
      <rows>1</rows>
      <cols>4</cols>
      <dt>d</dt>
      <data>
        -4.2044808885936286e+37 3.4612406492233276
        3.4376755914586307e+33 -11.125732779502869</data></_>
    <_ type_id="opencv-matrix">
      <rows>1</rows>
      <cols>4</cols>
      <dt>d</dt>
      <data>
        -5.3505053525489235e+36 29.16387951374054 4.2024817272722917e+37
        -11.872712850570679</data></_></sum>
  <productsum>
    <_ type_id="opencv-matrix">
      <rows>4</rows>
      <cols>4</cols>
      <dt>d</dt>
      <data>
        7.0104178552308039e+75 3.3704026756490686e+38
        3.8877777205123131e+58 -1.2587946080182407e+38
        3.3704026756490686e+38 271.65293511738986
        -8.6813671880122611e+37 145.54371909130947
        3.8877777205123131e+58 -8.6813671880122611e+37
        8.9245355483551694e+74 6.5765313466455867e+37
        -1.2587946080182407e+38 145.54371909130947
        6.5765313466455867e+37 263.33251851720041</data></_>
    <_ type_id="opencv-matrix">
      <rows>4</rows>
      <cols>4</cols>
      <dt>d</dt>
      <data>
        1.7677659545102966e+75 7.3969191428832127e+37
        3.2072206969979857e+37 6.3063644700689384e+37
        7.3969191428832127e+37 45.524761042705833
        -5.3238381541940217e+33 22.9986731309357 3.2072206969979857e+37
        -5.3238381541940217e+33 1.1817622170390272e+67
        -6.0913575933765574e+33 6.3063644700689384e+37 22.9986731309357
        -6.0913575933765574e+33 47.099903926650953</data></_>
    <_ type_id="opencv-matrix">
      <rows>4</rows>
      <cols>4</cols>
      <dt>d</dt>
      <data>
        1.4313953792303201e+73 -9.4347237324461058e+36
        -2.5878560573731419e+60 1.000554678945224e+37
        -9.4347237324461058e+36 72.370537729847214 7.897387937567773e+37
        1.6780266417616332 -2.5878560573731419e+60 7.897387937567773e+37
        8.8246490424737644e+74 7.4222328777321882e+37
        1.000554678945224e+37 1.6780266417616332 7.4222328777321882e+37
        64.78134265495251</data></_></productsum>
  <avg>
    <_ type_id="opencv-matrix">
      <rows>1</rows>
      <cols>4</cols>
      <dt>d</dt>
      <data>
        -2.2437811187761398e+36 -0.15709231665104995
        5.7383928505480891e+35 0.6128198070290648</data></_>
    <_ type_id="opencv-matrix">
      <rows>1</rows>
      <cols>4</cols>
      <dt>d</dt>
      <data>
        -2.6278005553710178e+36 0.21632754057645798
        2.1485472446616442e+32 -0.69535829871892929</data></_>
    <_ type_id="opencv-matrix">
      <rows>1</rows>
      <cols>4</cols>
      <dt>d</dt>
      <data>
        -2.326306675021271e+35 1.26799476146698 1.8271659683792572e+36
        -0.51620490654655127</data></_></avg>
  <inv_eigen_values>
    <_ type_id="opencv-matrix">
      <rows>4</rows>
      <cols>1</cols>
      <dt>d</dt>
      <data>
        1.2112926913313905e-74 9.260485794587079e-74 0.20150871092994091
        0.98463694008212077</data></_>
    <_ type_id="opencv-matrix">
      <rows>4</rows>
      <cols>1</cols>
      <dt>d</dt>
      <data>
        9.0509719109296948e-75 1.3599544388223423e-66
        0.25664597922508903 0.96052841497940444</data></_>
    <_ type_id="opencv-matrix">
      <rows>4</rows>
      <cols>1</cols>
      <dt>d</dt>
      <data>
        2.7302088760726331e-74 1.6990125964301152e-72
        0.39935853276618882 0.94885431971236844</data></_></inv_eigen_values>
  <cov_rotate_mats>
    <_ type_id="opencv-matrix">
      <rows>4</rows>
      <cols>4</cols>
      <dt>d</dt>
      <data>
        0.99983490196411184 4.6482390978245817e-38 0.01817054799434048
        -2.0928016632411011e-39 -0.018170547994340501
        -9.8513232575971541e-38 0.99983490196411207
        4.3452742132475914e-38 -5.2691305234960962e-17
        -0.72452450414925518 -9.5758798654600393e-19
        -0.68924904271770726 -9.8329230486896762e-17
        -0.68924904271770737 -1.7869910305338166e-18 0.72452450414925529</data></_>
    <_ type_id="opencv-matrix">
      <rows>4</rows>
      <cols>4</cols>
      <dt>d</dt>
      <data>
        0.99999999998514433 5.0121049130741712e-38
        5.4508126050040889e-06 2.0411412685327787e-38
        -5.4508126050040897e-06 -5.9115151011878604e-34
        0.99999999998514444 -3.5225797064674738e-34 2.2827457016181e-23
        -0.70258364203322254 -4.1878994171040241e-18
        -0.71160117056349226 2.9778252838895126e-22 -0.71160117056349215
        -5.4630850401031851e-17 0.70258364203322266</data></_>
    <_ type_id="opencv-matrix">
      <rows>4</rows>
      <cols>4</cols>
      <dt>d</dt>
      <data>
        0.012331461276487255 3.1834230435278076e-38 0.99992396464070532
        1.1913362820470508e-37 -0.99992396464070532
        2.2912444874592832e-37 0.012331461276487389
        -4.6802063649762635e-37 9.2214059791866662e-30
        0.57936857957295773 -6.363151186488809e-31 0.81506567158948207
        2.9373234385828864e-29 0.81506567158948195
        4.1629115732867238e-30 -0.57936857957295773</data></_></cov_rotate_mats>
  <c type_id="opencv-matrix">
    <rows>1</rows>
    <cols>3</cols>
    <dt>d</dt>
    <data>
      339.98255408754824 323.55450413857608 335.61339389141705</data></c></opencv_ml_nbayes>
</opencv_storage>
