<?xml version="1.0"?>
<opencv_storage>
<opencv_ml_nbayes>
  <format>3</format>
  <var_count>30</var_count>
  <var_all>30</var_all>
  <cls_labels type_id="opencv-matrix">
    <rows>2</rows>
    <cols>1</cols>
    <dt>i</dt>
    <data>
      0 1</data></cls_labels>
  <count>
    <_ type_id="opencv-matrix">
      <rows>1</rows>
      <cols>30</cols>
      <dt>i</dt>
      <data>
        369 369 369 369 369 369 369 369 369 369 369 369 369 369 369 369
        369 369 369 369 369 369 369 369 369 369 369 369 369 369</data></_>
    <_ type_id="opencv-matrix">
      <rows>1</rows>
      <cols>30</cols>
      <dt>i</dt>
      <data>
        87 87 87 87 87 87 87 87 87 87 87 87 87 87 87 87 87 87 87 87 87
        87 87 87 87 87 87 87 87 87</data></_></count>
  <sum>
    <_ type_id="opencv-matrix">
      <rows>1</rows>
      <cols>30</cols>
      <dt>d</dt>
      <data>
        -1.3763979176414699e+38 -302.53205674886703 .Nan
        -225.39520084857941 .Nan -274.32055026292801 .Nan
        -322.40498268604279 .Nan -210.39117532968521 .Nan
        -287.20970702171326 .Nan -232.77707976102829 .Nan
        -334.63464546203613 .Nan -245.28844314813614 .Nan
        -111.77244156599045 .Nan -297.55327552556992
        4.2514682788748186e+38 -117.11332046985626 .Nan
        -280.56542503833771 1.1190575370442699e+39 -284.74673080444336
        -3.5654051917738656e+38 -152.73509222269058</data></_>
    <_ type_id="opencv-matrix">
      <rows>1</rows>
      <cols>30</cols>
      <dt>d</dt>
      <data>
        -8.3847013568906637e+36 88.93617832660675 .Nan
        65.027610898017883 7.7220709749149459e+35 92.821255326271057
        -3.8406228694804415e+37 77.084474682807922
        -1.461729305459803e+38 64.99319589138031 8.0644700242504174e+36
        88.419117569923401 -4.4681671621771279e+38 114.23286736011505
        -8.4389625968923992e+36 129.72813355922699
        -3.7758873460860766e+38 33.5182865858078 5.922924879610037e+38
        -10.318419694900513 3.7177052783965891e+37 45.735232770442963
        .Nan -21.407810568809509 1.5610833370313998e+38
        43.773374676704407 2.0920900666529166e+37 42.75829154253006 .Nan
        -41.527901768684387</data></_></sum>
  <productsum>
    <_ type_id="opencv-matrix">
      <rows>30</rows>
      <cols>30</cols>
      <dt>d</dt>
      <data>
        2.2606352370434444e+77 8.3204320301168544e+38 .Nan
        -3.1766219490259245e+38 .Nan 9.3274558446507433e+38 .Nan
        1.11986362442677e+39 .Nan -2.6492502293510221e+38 .Nan
        3.4963744605109531e+38 .Nan -3.7049647086096478e+38 .Nan
        1.0175736764746247e+39 .Nan -2.7491303979949591e+38 .Nan
        -9.4060194011681496e+38 .Nan 8.2192404492060527e+38
        9.6988437228374271e+72 -2.6450140892399937e+38 .Nan
        1.385418772888053e+38 7.6372041225082885e+72
        -9.1673158367345436e+38 1.7159286739392719e+75
        -2.8835858527052169e+38 8.3204320301168544e+38
        1123.5565299368313 .Nan 702.6806519872614 .Nan
        884.85830786921088 .Nan 671.93975892729975 .Nan
        616.92365441462721 .Nan 477.76511094468674 .Nan
        418.72218240162476 .Nan 577.01674851721862 .Nan
        302.52053920322396 .Nan 220.64115990657177 .Nan
        738.06363762660203 2.3466473983876907e+39 407.99668547856777
        .Nan 658.05443360033541 -9.3351593977553943e+38
        557.67421766691655 -3.0826919565056875e+38 359.69701429107329
        .Nan .Nan .Nan .Nan .Nan .Nan .Nan .Nan .Nan .Nan .Nan .Nan .Nan
        .Nan .Nan .Nan .Nan .Nan .Nan .Nan .Nan .Nan .Nan .Nan .Nan .Nan
        .Nan .Nan .Nan .Nan -3.1766219490259245e+38 702.6806519872614
        .Nan 1129.6390882857513 .Nan 629.13557538892883 .Nan
        378.99232032332202 .Nan 480.55897940993259 .Nan
        391.55097967604911 .Nan 294.88675131863857 .Nan
        441.74635920355217 .Nan 330.46655391643822 .Nan
        201.97804936322956 .Nan 554.83787564747342
        2.1793459248610718e+39 686.62790813102254 .Nan
        548.08254925961012 -7.2473235249605439e+37 362.36482394623289
        6.0836660956781935e+38 365.15875976993851 .Nan .Nan .Nan .Nan
        .Nan .Nan .Nan .Nan .Nan .Nan .Nan .Nan .Nan .Nan .Nan .Nan .Nan
        .Nan .Nan .Nan .Nan .Nan .Nan .Nan .Nan .Nan .Nan .Nan .Nan .Nan
        9.3274558446507433e+38 884.85830786921088 .Nan
        629.13557538892883 .Nan 1124.9937183354371 .Nan
        601.70594270413665 .Nan 456.37315665973341 .Nan
        592.72085153349792 .Nan 431.55646150032021 .Nan
        694.30080817250803 .Nan 398.37394615654341 .Nan
        302.29245980654656 .Nan 717.24959788683793
        1.1123691029816187e+39 419.06178497597966 .Nan
        798.10547140958556 -8.5238746257167279e+38 527.18222891348387
        -8.2887320137407495e+38 290.77601290587631 .Nan .Nan .Nan .Nan
        .Nan .Nan .Nan .Nan .Nan .Nan .Nan .Nan .Nan .Nan .Nan .Nan .Nan
        .Nan .Nan .Nan .Nan .Nan .Nan .Nan .Nan .Nan .Nan .Nan .Nan .Nan
        1.11986362442677e+39 671.93975892729975 .Nan 378.99232032332202
        .Nan 601.70594270413665 .Nan 1102.3759731661428 .Nan
        372.87115415758626 .Nan 274.77246682153509 .Nan
        289.46528369664014 .Nan 366.11475363319749 .Nan
        135.76080713287308 .Nan 127.63804862504743 .Nan
        363.3799674209917 1.6245698707689956e+38 64.001961789468893 .Nan
        337.47683217287448 4.8552203256211407e+38 554.02335846896915
        1.6842313269522925e+38 128.38727711026326 .Nan .Nan .Nan .Nan
        .Nan .Nan .Nan .Nan .Nan .Nan .Nan .Nan .Nan .Nan .Nan .Nan .Nan
        .Nan .Nan .Nan .Nan .Nan .Nan .Nan .Nan .Nan .Nan .Nan .Nan .Nan
        -2.6492502293510221e+38 616.92365441462721 .Nan
        480.55897940993259 .Nan 456.37315665973341 .Nan
        372.87115415758626 .Nan 1116.5377081080076 .Nan
        314.47878644559989 .Nan 230.37722199693485 .Nan
        318.55113553413162 .Nan 292.09065746492195 .Nan
        522.65154659964264 .Nan 488.93307388989831
        2.2262926476181837e+39 301.83856340273474 .Nan
        377.95360502345716 -1.3963001234845996e+39 339.82244702001441
        -3.0101413139378404e+38 584.65502656640831 .Nan .Nan .Nan .Nan
        .Nan .Nan .Nan .Nan .Nan .Nan .Nan .Nan .Nan .Nan .Nan .Nan .Nan
        .Nan .Nan .Nan .Nan .Nan .Nan .Nan .Nan .Nan .Nan .Nan .Nan .Nan
        3.4963744605109531e+38 477.76511094468674 .Nan
        391.55097967604911 .Nan 592.72085153349792 .Nan
        274.77246682153509 .Nan 314.47878644559989 .Nan
        1135.4281756764919 .Nan 560.77484008430679 .Nan
        1016.3602009090599 .Nan 873.63537457462962 .Nan
        440.10060008250628 .Nan 626.61743211633188
        -9.6771298282958086e+38 456.0151811815573 .Nan
        793.15966899017701 -1.8868407331915785e+39 457.42501839980423
        8.4972956391608104e+38 217.8013145960592 .Nan .Nan .Nan .Nan
        .Nan .Nan .Nan .Nan .Nan .Nan .Nan .Nan .Nan .Nan .Nan .Nan .Nan
        .Nan .Nan .Nan .Nan .Nan .Nan .Nan .Nan .Nan .Nan .Nan .Nan .Nan
        -3.7049647086096478e+38 418.72218240162476 .Nan
        294.88675131863857 .Nan 431.55646150032021 .Nan
        289.46528369664014 .Nan 230.37722199693485 .Nan
        560.77484008430679 .Nan 1160.0021107905809 .Nan
        608.59241433950979 .Nan 390.99786399105506 .Nan
        324.7920189301982 .Nan 548.54682395378472
        -2.9412490748949327e+37 309.33070835454259 .Nan
        617.57487907532231 -8.3976644324840576e+38 505.34524328287318
        9.9982761918172477e+38 229.66550219164031 .Nan .Nan .Nan .Nan
        .Nan .Nan .Nan .Nan .Nan .Nan .Nan .Nan .Nan .Nan .Nan .Nan .Nan
        .Nan .Nan .Nan .Nan .Nan .Nan .Nan .Nan .Nan .Nan .Nan .Nan .Nan
        1.0175736764746247e+39 577.01674851721862 .Nan
        441.74635920355217 .Nan 694.30080817250803 .Nan
        366.11475363319749 .Nan 318.55113553413162 .Nan
        1016.3602009090599 .Nan 608.59241433950979 .Nan
        1140.254935177612 .Nan 800.89106067047953 .Nan
        375.09598036316413 .Nan 743.11993231084534
        -1.1230563136873421e+39 519.03142007045619 .Nan
        893.8643971026986 -1.9341163729436781e+39 557.86684193130634
        2.2239841379892159e+38 234.58833013017914 .Nan .Nan .Nan .Nan
        .Nan .Nan .Nan .Nan .Nan .Nan .Nan .Nan .Nan .Nan .Nan .Nan .Nan
        .Nan .Nan .Nan .Nan .Nan .Nan .Nan .Nan .Nan .Nan .Nan .Nan .Nan
        -2.7491303979949591e+38 302.52053920322396 .Nan
        330.46655391643822 .Nan 398.37394615654341 .Nan
        135.76080713287308 .Nan 292.09065746492195 .Nan
        873.63537457462962 .Nan 390.99786399105506 .Nan
        800.89106067047953 .Nan 1133.9760505692843 .Nan
        365.39774627113309 .Nan 464.20635507149859
        -4.301620894912266e+38 510.09012880470061 .Nan
        623.03682591738789 -1.990849896126137e+39 297.97844272048496
        2.6127143676848678e+38 256.14959597542565 .Nan .Nan .Nan .Nan
        .Nan .Nan .Nan .Nan .Nan .Nan .Nan .Nan .Nan .Nan .Nan .Nan .Nan
        .Nan .Nan .Nan .Nan .Nan .Nan .Nan .Nan .Nan .Nan .Nan .Nan .Nan
        -9.4060194011681496e+38 220.64115990657177 .Nan
        201.97804936322956 .Nan 302.29245980654656 .Nan
        127.63804862504743 .Nan 522.65154659964264 .Nan
        440.10060008250628 .Nan 324.7920189301982 .Nan
        375.09598036316413 .Nan 365.39774627113309 .Nan
        1162.0234452317898 .Nan 544.19991170226047
        1.7374429061830377e+39 400.60592777944123 .Nan
        535.64350189751531 -1.5969096022628524e+39 533.3432081773517
        -9.803664835065399e+38 593.69468917556424 .Nan .Nan .Nan .Nan
        .Nan .Nan .Nan .Nan .Nan .Nan .Nan .Nan .Nan .Nan .Nan .Nan .Nan
        .Nan .Nan .Nan .Nan .Nan .Nan .Nan .Nan .Nan .Nan .Nan .Nan .Nan
        8.2192404492060527e+38 738.06363762660203 .Nan
        554.83787564747342 .Nan 717.24959788683793 .Nan
        363.3799674209917 .Nan 488.93307388989831 .Nan
        626.61743211633188 .Nan 548.54682395378472 .Nan
        743.11993231084534 .Nan 464.20635507149859 .Nan
        544.19991170226047 .Nan 1132.8219268555129 2.545081610300605e+39
        685.16343199897597 .Nan 986.92528056301035
        -1.9635519517287371e+39 752.6677297474215
        -3.0271274021115012e+38 581.0374564766621 9.6988437228374271e+72
        2.3466473983876907e+39 .Nan 2.1793459248610718e+39 .Nan
        1.1123691029816187e+39 .Nan 1.6245698707689956e+38 .Nan
        2.2262926476181837e+39 .Nan -9.6771298282958086e+38 .Nan
        -2.9412490748949327e+37 .Nan -1.1230563136873421e+39 .Nan
        -4.301620894912266e+38 .Nan 1.7374429061830377e+39 .Nan
        2.545081610300605e+39 3.8522298118853099e+77
        2.4400859238552178e+39 .Nan 1.8196842693469806e+39
        -6.3097819510288065e+75 2.1648089207922598e+39
        5.0966406211086677e+74 1.9467586757756087e+39
        -2.6450140892399937e+38 407.99668547856777 .Nan
        686.62790813102254 .Nan 419.06178497597966 .Nan
        64.001961789468893 .Nan 301.83856340273474 .Nan
        456.0151811815573 .Nan 309.33070835454259 .Nan
        519.03142007045619 .Nan 510.09012880470061 .Nan
        400.60592777944123 .Nan 685.16343199897597
        2.4400859238552178e+39 1156.5395526010041 .Nan
        689.36582783657639 -1.6456500032463101e+39 394.13274759988633
        1.6415261250352035e+38 523.71521987772178 .Nan .Nan .Nan .Nan
        .Nan .Nan .Nan .Nan .Nan .Nan .Nan .Nan .Nan .Nan .Nan .Nan .Nan
        .Nan .Nan .Nan .Nan .Nan .Nan .Nan .Nan .Nan .Nan .Nan .Nan .Nan
        1.385418772888053e+38 658.05443360033541 .Nan 548.08254925961012
        .Nan 798.10547140958556 .Nan 337.47683217287448 .Nan
        377.95360502345716 .Nan 793.15966899017701 .Nan
        617.57487907532231 .Nan 893.8643971026986 .Nan
        623.03682591738789 .Nan 535.64350189751531 .Nan
        986.92528056301035 1.8196842693469806e+39 689.36582783657639
        .Nan 1152.5651558717609 -1.1001934291421168e+39
        702.95993053423979 -2.8146182126682005e+38 464.64102720837275
        7.6372041225082885e+72 -9.3351593977553943e+38 .Nan
        -7.2473235249605439e+37 .Nan -8.5238746257167279e+38 .Nan
        4.8552203256211407e+38 .Nan -1.3963001234845996e+39 .Nan
        -1.8868407331915785e+39 .Nan -8.3976644324840576e+38 .Nan
        -1.9341163729436781e+39 .Nan -1.990849896126137e+39 .Nan
        -1.5969096022628524e+39 .Nan -1.9635519517287371e+39
        -6.3097819510288065e+75 -1.6456500032463101e+39 .Nan
        -1.1001934291421168e+39 3.2790277678956702e+77
        -8.5247200771566517e+38 6.7414554173914758e+73
        -2.0425478170784376e+39 -9.1673158367345436e+38
        557.67421766691655 .Nan 362.36482394623289 .Nan
        527.18222891348387 .Nan 554.02335846896915 .Nan
        339.82244702001441 .Nan 457.42501839980423 .Nan
        505.34524328287318 .Nan 557.86684193130634 .Nan
        297.97844272048496 .Nan 533.3432081773517 .Nan 752.6677297474215
        2.1648089207922598e+39 394.13274759988633 .Nan
        702.95993053423979 -8.5247200771566517e+38 1108.6360022926176
        9.6775207255890939e+38 448.03366721465852 1.7159286739392719e+75
        -3.0826919565056875e+38 .Nan 6.0836660956781935e+38 .Nan
        -8.2887320137407495e+38 .Nan 1.6842313269522925e+38 .Nan
        -3.0101413139378404e+38 .Nan 8.4972956391608104e+38 .Nan
        9.9982761918172477e+38 .Nan 2.2239841379892159e+38 .Nan
        2.6127143676848678e+38 .Nan -9.803664835065399e+38 .Nan
        -3.0271274021115012e+38 5.0966406211086677e+74
        1.6415261250352035e+38 .Nan -2.8146182126682005e+38
        6.7414554173914758e+73 9.6775207255890939e+38
        2.9248877234042168e+77 -6.754596820191569e+38
        -2.8835858527052169e+38 359.69701429107329 .Nan
        365.15875976993851 .Nan 290.77601290587631 .Nan
        128.38727711026326 .Nan 584.65502656640831 .Nan
        217.8013145960592 .Nan 229.66550219164031 .Nan
        234.58833013017914 .Nan 256.14959597542565 .Nan
        593.69468917556424 .Nan 581.0374564766621 1.9467586757756087e+39
        523.71521987772178 .Nan 464.64102720837275
        -2.0425478170784376e+39 448.03366721465852
        -6.754596820191569e+38 1128.9580568027479</data></_>
    <_ type_id="opencv-matrix">
      <rows>30</rows>
      <cols>30</cols>
      <dt>d</dt>
      <data>
        6.5946152926622927e+73 -1.5583228162747265e+37 .Nan
        -1.5232207746694451e+37 -5.1373774750990006e+68
        -1.5568825266941288e+37 -6.1462289101664733e+72
        -1.5369635573730957e+37 6.3851405689371585e+60
        -1.3874992114461652e+37 -1.1422653070978549e+61
        -1.3178584516294681e+37 2.2016215083690662e+68
        -1.5692237727583362e+37 -1.9828308815533074e+68
        -1.445356058037126e+37 4.7238159501514818e+72
        1.5599802083039451e+37 -1.3322760045284814e+73
        1.440277289663074e+37 -5.1849194316774133e+72
        -1.4091991589024428e+37 .Nan -1.489882172844258e+37
        4.9354834465468372e+63 -1.4072690083735048e+37
        -2.6653875920609981e+72 -1.3910695435982394e+37 .Nan
        -2.0336046302669344e+37 -1.5583228162747265e+37
        274.63208104355766 .Nan 92.47471761126782 1.4708768879282505e+36
        270.31073325499153 -1.0791874124635755e+38 262.00713343761095
        3.8520598048438422e+38 13.205300986461566 9.6760516366720748e+36
        60.78158798709913 5.5271707079339923e+37 124.71884294006563
        -8.319434865565351e+37 155.05083705809889 -6.930749892306568e+38
        -12.567273599214573 2.368097640118396e+38 -111.30472432670032
        4.8116412304838787e+37 130.12042605560111 .Nan
        2.4941472165538556 -1.9114114326616733e+38 135.06000262907793
        3.6999155633184713e+37 169.534397347745 .Nan -68.322633783607145
        .Nan .Nan .Nan .Nan .Nan .Nan .Nan .Nan .Nan .Nan .Nan .Nan .Nan
        .Nan .Nan .Nan .Nan .Nan .Nan .Nan .Nan .Nan .Nan .Nan .Nan .Nan
        .Nan .Nan .Nan .Nan -1.5232207746694451e+37 92.47471761126782
        .Nan 258.85070484078375 1.2896333604750835e+36
        98.029045050743989 -4.2185004827218481e+38 76.1161702905856
        -3.3796126556325295e+38 2.3509682228784357
        1.0678483131705133e+37 33.078223245491159
        -7.3319713429591806e+38 69.374240228795813
        -2.5463507395372338e+37 81.554445547932374
        -3.9977868715756082e+38 -31.124843929901772
        6.9175898468595787e+38 -24.015738774113046
        -5.7183612711692751e+37 47.053865905734774 .Nan
        40.776963809774429 2.1439256269134981e+38 57.076193099408471
        -4.0233694300755725e+37 45.032905261346876 .Nan
        -24.535598748856998 -5.1373774750990006e+68
        1.4708768879282505e+36 .Nan 1.2896333604750835e+36
        5.2525661925343698e+71 1.4705312976764455e+36
        4.4567696588000543e+67 1.4585790539887846e+36
        2.2914469659332831e+71 1.6499437126218636e+36
        4.4425096675321293e+67 1.3580834024514199e+36
        -1.6056962433200484e+65 1.4591841379996804e+36
        9.639339297018705e+68 1.4890263975074633e+36
        5.8318162921167939e+70 1.0828781599556057e+36
        -6.2647645165174166e+60 -1.0954491996997505e+36
        -1.1306102182670151e+68 3.6846122099493787e+35 .Nan
        1.4404788933164264e+36 -2.4868032377378291e+68
        4.5743587204142703e+35 -1.392888834147109e+69
        3.8179938264712717e+35 .Nan -1.3786741837792207e+36
        -1.5568825266941288e+37 270.31073325499153 .Nan
        98.029045050743989 1.4705312976764455e+36 272.64953722801323
        -1.1011120868504751e+38 256.20240602386417
        3.8480067993991885e+38 22.085609454210214 1.023905831327204e+37
        70.363482842052676 7.0858227291655026e+37 133.36965020318075
        -8.0010493860619871e+37 162.97508323281309
        -6.8433786693899956e+38 -3.50711478878668 2.6234975261802949e+38
        -101.91097128054965 4.9254341570860256e+37 133.36688599826448
        .Nan 6.8291837218395131 -1.861062306617482e+38
        137.74494856390416 3.7338845602770858e+37 164.51542910050637
        .Nan -62.332763513278493 -6.1462289101664733e+72
        -1.0791874124635755e+38 .Nan -4.2185004827218481e+38
        4.4567696588000543e+67 -1.1011120868504751e+38
        3.5533530709403867e+76 -1.1959510656968913e+38
        -4.2463839333625582e+68 9.2445448476240076e+37
        4.4843140928566544e+67 -3.6540943904493394e+38
        9.4380776886099096e+71 -3.4634927424170366e+38
        -1.3665373451683041e+68 -3.6160726590583149e+38
        -1.2104458728700976e+74 -3.2187413504299588e+38
        1.0978579575240467e+75 2.9425744836906378e+38
        4.2639546129101614e+74 -3.8809807895292804e+38 .Nan
        9.6179612518519828e+36 -2.2040924341438653e+65
        -3.9260019052748926e+38 4.355634078684746e+60
        -3.8597880461938475e+38 .Nan 7.5414148182663781e+37
        -1.5369635573730957e+37 262.00713343761095 .Nan 76.1161702905856
        1.4585790539887846e+36 256.20240602386417
        -1.1959510656968913e+38 271.52859030099086
        3.9222767578475298e+38 4.8502814543614079
        -2.0091375974814132e+37 42.910881562421991
        6.8935394699207234e+37 107.83676073590175
        -8.0442391285223422e+37 136.52472899567059
        -7.0146356429058777e+38 -28.614549021392463
        2.104445725332014e+38 -126.1223156441867 4.7588873824084858e+37
        136.54530281359627 .Nan -11.735432983613819
        -2.0223262644896625e+38 139.97790738837131
        3.5951898901383698e+37 184.44982457082148 .Nan
        -81.548868574398199 6.3851405689371585e+60
        3.8520598048438422e+38 .Nan -3.3796126556325295e+38
        2.2914469659332831e+71 3.8480067993991885e+38
        -4.2463839333625582e+68 3.9222767578475298e+38
        3.6159258487328247e+76 -1.7543507268442098e+38
        2.3858389295312989e+71 -1.1139658185620022e+38
        1.7003127727032199e+64 3.3982018948808093e+38
        1.0056213567905012e+76 -1.907397030291147e+38
        1.820450618590641e+75 3.1557028132522151e+38
        -1.8713429344124335e+62 2.1565550509736712e+38
        -2.4771127777271915e+63 4.066611914591663e+38 .Nan
        2.7766552153684266e+38 -1.0523468384600376e+66
        3.9668278588598406e+38 -3.4481777581662042e+72
        3.986274847450276e+38 .Nan 2.8692514164958596e+38
        -1.3874992114461652e+37 13.205300986461566 .Nan
        2.3509682228784357 1.6499437126218636e+36 22.085609454210214
        9.2445448476240076e+37 4.8502814543614079
        -1.7543507268442098e+38 271.96006164440985
        2.1720576684553795e+37 206.32333678665918 1.5276367632356982e+38
        183.38661084319642 4.1238198967099172e+37 160.90380249245268
        -6.619376766867172e+37 164.16954625160531 7.204941835598959e+38
        135.88470364024121 6.5909091188246362e+37 21.855698813473026
        .Nan -20.142136690974922 2.1146602566164897e+38
        12.415633352443052 4.179715026665079e+37 -0.49342850278819128
        .Nan 18.614364267321633 -1.1422653070978549e+61
        9.6760516366720748e+36 .Nan 1.0678483131705133e+37
        4.4425096675321293e+67 1.023905831327204e+37
        4.4843140928566544e+67 -2.0091375974814132e+37
        2.3858389295312989e+71 2.1720576684553795e+37
        1.3540506667477671e+74 2.3413894252594034e+37
        4.5025182346063831e+66 2.1371093550158577e+37
        -3.6898183737790402e+71 2.444786032114026e+37
        2.0000253208178339e+70 2.4432820828052576e+37
        -2.1565717837514483e+71 2.3353744501634658e+37
        -4.285939951719452e+65 -1.5064925046519836e+37 .Nan
        1.5239778038896094e+37 1.6456162451103607e+73
        -1.2735255297108603e+37 -1.48690434441967e+65
        -2.3039065784098651e+37 .Nan 2.3737547285627185e+37
        -1.3178584516294681e+37 60.78158798709913 .Nan
        33.078223245491159 1.3580834024514199e+36 70.363482842052676
        -3.6540943904493394e+38 42.910881562421991
        -1.1139658185620022e+38 206.32333678665918
        2.3413894252594034e+37 272.0509437869818 2.2097844076057879e+38
        230.7446010710803 1.1605361717523505e+38 206.89589202516484
        -2.6305605395734307e+37 154.27365826364877
        1.1049055039611569e+39 123.35187324408967 5.5528048384407251e+37
        56.661175948706017 .Nan -9.1960286833192555
        2.1532701907802956e+38 66.302889415937841 4.4886451965918525e+37
        30.929401641103162 .Nan 18.712280193776834
        2.2016215083690662e+68 5.5271707079339923e+37 .Nan
        -7.3319713429591806e+38 -1.6056962433200484e+65
        7.0858227291655026e+37 9.4380776886099096e+71
        6.8935394699207234e+37 1.7003127727032199e+64
        1.5276367632356982e+38 4.5025182346063831e+66
        2.2097844076057879e+38 1.0331503203481781e+77
        1.1254747738245334e+38 -1.5788833411493071e+68
        9.9064476680951772e+37 -1.8584910379043644e+76
        2.9000048629866523e+38 -1.3178092781943622e+71
        8.2502332538066716e+38 -5.135541466575604e+70
        -1.9615934856291323e+38 .Nan 6.9777558390402142e+38
        -2.6593597544981738e+64 -1.1620397513964858e+38
        1.6206865915396729e+55 -6.6003175312643984e+38 .Nan
        7.6914785218846598e+38 -1.5692237727583362e+37
        124.71884294006563 .Nan 69.374240228795813
        1.4591841379996804e+36 133.36965020318075
        -3.4634927424170366e+38 107.83676073590175
        3.3982018948808093e+38 183.38661084319642 2.1371093550158577e+37
        230.7446010710803 1.1254747738245334e+38 274.64691545714498
        1.7956115247101171e+38 251.82726634126465
        -6.0915313079096038e+38 126.7727384568622 1.0122773426517808e+39
        65.1949859035374 6.487329953588751e+37 103.44215331363624 .Nan
        -15.816847430111508 2.0422424390965907e+38 105.79716036374182
        4.2400436965288745e+37 80.642672663580626 .Nan
        -17.30332130897898 -1.9828308815533074e+68
        -8.319434865565351e+37 .Nan -2.5463507395372338e+37
        9.639339297018705e+68 -8.0010493860619871e+37
        -1.3665373451683041e+68 -8.0442391285223422e+37
        1.0056213567905012e+76 4.1238198967099172e+37
        -3.6898183737790402e+71 1.1605361717523505e+38
        -1.5788833411493071e+68 1.7956115247101171e+38
        8.0250447605721858e+75 1.357234847835389e+37
        5.1329543673376995e+74 1.9226439230291344e+38
        -3.5486033103694805e+61 2.6453906538337306e+38
        3.673690346585396e+65 1.7592318211027626e+38 .Nan
        2.5939730901892747e+37 -3.6588021135904494e+71
        2.2047164771212915e+38 2.181404569200202e+63
        -5.7549202645940962e+37 .Nan 2.4960603655022462e+38
        -1.445356058037126e+37 155.05083705809889 .Nan
        81.554445547932374 1.4890263975074633e+36 162.97508323281309
        -3.6160726590583149e+38 136.52472899567059
        -1.907397030291147e+38 160.90380249245268 2.444786032114026e+37
        206.89589202516484 9.9064476680951772e+37 251.82726634126465
        1.357234847835389e+37 283.89433939255639 -6.5395547326962384e+38
        104.75202172981258 1.0897489698369446e+39 24.226061888397609
        6.6256355175664791e+37 100.05626599824198 .Nan
        -40.523430630413742 2.3804443665896636e+38 107.9446655275395
        3.8474961217373473e+37 86.503398999891118 .Nan
        -45.786437628833809 4.7238159501514818e+72
        -6.930749892306568e+38 .Nan -3.9977868715756082e+38
        5.8318162921167939e+70 -6.8433786693899956e+38
        -1.2104458728700976e+74 -7.0146356429058777e+38
        1.820450618590641e+75 -6.619376766867172e+37
        2.0000253208178339e+70 -2.6305605395734307e+37
        -1.8584910379043644e+76 -6.0915313079096038e+38
        5.1329543673376995e+74 -6.5395547326962384e+38
        1.5214671612337599e+77 8.2205796341363468e+38
        -3.9513145432201451e+74 8.707029603482778e+38
        -2.925370817579425e+72 -1.1253491093955392e+39 .Nan
        9.5034466349641891e+37 -1.2201638266801524e+70
        -9.6381209670549071e+38 2.5587538792110051e+73
        -8.302720420665219e+38 .Nan 8.3408596241440225e+38
        1.5599802083039451e+37 -12.567273599214573 .Nan
        -31.124843929901772 1.0828781599556057e+36 -3.50711478878668
        -3.2187413504299588e+38 -28.614549021392463
        3.1557028132522151e+38 164.16954625160531 2.4432820828052576e+37
        154.27365826364877 2.9000048629866523e+38 126.7727384568622
        1.9226439230291344e+38 104.75202172981258 8.2205796341363468e+38
        275.42120892724046 7.2542697013813736e+38 145.8201256668581
        6.5345747135488521e+37 32.198357062704964 .Nan
        19.124700587278568 -2.6123660351987598e+38 14.139836507114737
        4.3507611261022525e+37 -10.543402879501059 .Nan
        56.773107406726623 -1.3322760045284814e+73 2.368097640118396e+38
        .Nan 6.9175898468595787e+38 -6.2647645165174166e+60
        2.6234975261802949e+38 1.0978579575240467e+75
        2.104445725332014e+38 -1.8713429344124335e+62
        7.204941835598959e+38 -2.1565717837514483e+71
        1.1049055039611569e+39 -1.3178092781943622e+71
        1.0122773426517808e+39 -3.5486033103694805e+61
        1.0897489698369446e+39 -3.9513145432201451e+74
        7.2542697013813736e+38 1.0925675279587336e+77
        3.6291354242779714e+38 3.1035011731308129e+75
        1.1388619140556952e+39 .Nan 1.056874503568248e+39
        -1.0141520289476299e+67 1.1257236087423387e+39
        1.1451336319859197e+68 1.0958580358118821e+39 .Nan
        1.0913446997432314e+39 1.440277289663074e+37 -111.30472432670032
        .Nan -24.015738774113046 -1.0954491996997505e+36
        -101.91097128054965 2.9425744836906378e+38 -126.1223156441867
        2.1565550509736712e+38 135.88470364024121 2.3353744501634658e+37
        123.35187324408967 8.2502332538066716e+38 65.1949859035374
        2.6453906538337306e+38 24.226061888397609 8.707029603482778e+38
        145.8201256668581 3.6291354242779714e+38 278.09383889268298
        -4.7391749153427382e+37 -78.098743104856311 .Nan
        14.698967100913833 1.9380745103544957e+38 -62.706199306449761
        4.1284021300449655e+37 -120.00766196001453 .Nan
        95.401505501327833 -5.1849194316774133e+72
        4.8116412304838787e+37 .Nan -5.7183612711692751e+37
        -1.1306102182670151e+68 4.9254341570860256e+37
        4.2639546129101614e+74 4.7588873824084858e+37
        -2.4771127777271915e+63 6.5909091188246362e+37
        -4.285939951719452e+65 5.5528048384407251e+37
        -5.135541466575604e+70 6.487329953588751e+37
        3.673690346585396e+65 6.6256355175664791e+37
        -2.925370817579425e+72 6.5345747135488521e+37
        3.1035011731308129e+75 -4.7391749153427382e+37
        1.3250922335923156e+75 5.6580835551170411e+37 .Nan
        3.3244266545875415e+37 -6.3027214214787173e+65
        3.458628862296057e+37 1.0255952274295759e+63
        3.670036153207695e+37 .Nan 2.8272618268733308e+37
        -1.4091991589024428e+37 130.12042605560111 .Nan
        47.053865905734774 3.6846122099493787e+35 133.36688599826448
        -3.8809807895292804e+38 136.54530281359627 4.066611914591663e+38
        21.855698813473026 -1.5064925046519836e+37 56.661175948706017
        -1.9615934856291323e+38 103.44215331363624
        1.7592318211027626e+38 100.05626599824198
        -1.1253491093955392e+39 32.198357062704964
        1.1388619140556952e+39 -78.098743104856311
        5.6580835551170411e+37 268.61180872064227 .Nan
        49.489040532867648 -2.7905543183049892e+38 245.15876714564945
        -3.5097264164431415e+37 219.7979359589184 .Nan
        17.668793562066682 .Nan .Nan .Nan .Nan .Nan .Nan .Nan .Nan .Nan
        .Nan .Nan .Nan .Nan .Nan .Nan .Nan .Nan .Nan .Nan .Nan .Nan .Nan
        .Nan .Nan .Nan .Nan .Nan .Nan .Nan .Nan -1.489882172844258e+37
        2.4941472165538556 .Nan 40.776963809774429
        1.4404788933164264e+36 6.8291837218395131 9.6179612518519828e+36
        -11.735432983613819 2.7766552153684266e+38 -20.142136690974922
        1.5239778038896094e+37 -9.1960286833192555
        6.9777558390402142e+38 -15.816847430111508
        2.5939730901892747e+37 -40.523430630413742
        9.5034466349641891e+37 19.124700587278568 1.056874503568248e+39
        14.698967100913833 3.3244266545875415e+37 49.489040532867648
        .Nan 257.0182553324446 -2.9549846313095391e+38
        41.456574657412048 -3.9661002574722565e+37 22.133896564166186
        .Nan 107.20640813451466 4.9354834465468372e+63
        -1.9114114326616733e+38 .Nan 2.1439256269134981e+38
        -2.4868032377378291e+68 -1.861062306617482e+38
        -2.2040924341438653e+65 -2.0223262644896625e+38
        -1.0523468384600376e+66 2.1146602566164897e+38
        1.6456162451103607e+73 2.1532701907802956e+38
        -2.6593597544981738e+64 2.0422424390965907e+38
        -3.6588021135904494e+71 2.3804443665896636e+38
        -1.2201638266801524e+70 -2.6123660351987598e+38
        -1.0141520289476299e+67 1.9380745103544957e+38
        -6.3027214214787173e+65 -2.7905543183049892e+38 .Nan
        -2.9549846313095391e+38 2.0094346225036442e+76
        -2.776070957334637e+38 -4.3240915799899339e+65
        -2.6877275099777995e+38 .Nan -2.7670118261363513e+38
        -1.4072690083735048e+37 135.06000262907793 .Nan
        57.076193099408471 4.5743587204142703e+35 137.74494856390416
        -3.9260019052748926e+38 139.97790738837131
        3.9668278588598406e+38 12.415633352443052
        -1.2735255297108603e+37 66.302889415937841
        -1.1620397513964858e+38 105.79716036374182
        2.2047164771212915e+38 107.9446655275395 -9.6381209670549071e+38
        14.139836507114737 1.1257236087423387e+39 -62.706199306449761
        3.458628862296057e+37 245.15876714564945 .Nan 41.456574657412048
        -2.776070957334637e+38 269.84395327364166
        -3.5786462843846841e+37 211.45917414013536 .Nan
        21.236525373125744 -2.6653875920609981e+72
        3.6999155633184713e+37 .Nan -4.0233694300755725e+37
        -1.392888834147109e+69 3.7338845602770858e+37
        4.355634078684746e+60 3.5951898901383698e+37
        -3.4481777581662042e+72 4.179715026665079e+37
        -1.48690434441967e+65 4.4886451965918525e+37
        1.6206865915396729e+55 4.2400436965288745e+37
        2.181404569200202e+63 3.8474961217373473e+37
        2.5587538792110051e+73 4.3507611261022525e+37
        1.1451336319859197e+68 4.1284021300449655e+37
        1.0255952274295759e+63 -3.5097264164431415e+37 .Nan
        -3.9661002574722565e+37 -4.3240915799899339e+65
        -3.5786462843846841e+37 5.1935420980155962e+74
        -3.5881130233371818e+37 .Nan -3.9057110866884265e+37
        -1.3910695435982394e+37 169.534397347745 .Nan 45.032905261346876
        3.8179938264712717e+35 164.51542910050637
        -3.8597880461938475e+38 184.44982457082148 3.986274847450276e+38
        -0.49342850278819128 -2.3039065784098651e+37 30.929401641103162
        -6.6003175312643984e+38 80.642672663580626
        -5.7549202645940962e+37 86.503398999891118
        -8.302720420665219e+38 -10.543402879501059
        1.0958580358118821e+39 -120.00766196001453 3.670036153207695e+37
        219.7979359589184 .Nan 22.133896564166186
        -2.6877275099777995e+38 211.45917414013536
        -3.5881130233371818e+37 258.86931825721973 .Nan
        -32.374423938352344 .Nan .Nan .Nan .Nan .Nan .Nan .Nan .Nan .Nan
        .Nan .Nan .Nan .Nan .Nan .Nan .Nan .Nan .Nan .Nan .Nan .Nan .Nan
        .Nan .Nan .Nan .Nan .Nan .Nan .Nan .Nan -2.0336046302669344e+37
        -68.322633783607145 .Nan -24.535598748856998
        -1.3786741837792207e+36 -62.332763513278493
        7.5414148182663781e+37 -81.548868574398199
        2.8692514164958596e+38 18.614364267321633 2.3737547285627185e+37
        18.712280193776834 7.6914785218846598e+38 -17.30332130897898
        2.4960603655022462e+38 -45.786437628833809
        8.3408596241440225e+38 56.773107406726623 1.0913446997432314e+39
        95.401505501327833 2.8272618268733308e+37 17.668793562066682
        .Nan 107.20640813451466 -2.7670118261363513e+38
        21.236525373125744 -3.9057110866884265e+37 -32.374423938352344
        .Nan 263.46124849328055</data></_></productsum>
  <avg>
    <_ type_id="opencv-matrix">
      <rows>1</rows>
      <cols>30</cols>
      <dt>d</dt>
      <data>
        -3.7300756575649588e+35 -0.81987007249015453 .Nan
        -0.61082710257067585 .Nan -0.74341612537378865 .Nan
        -0.87372624034157942 .Nan -0.57016578680131491 .Nan
        -0.77834608948973782 .Nan -0.63083219447433136 .Nan
        -0.90686895789169686 .Nan -0.66473832831473212 .Nan
        -0.30290634570729119 .Nan -0.80637744044869897
        1.1521594251693275e+36 -0.31738027227603322 .Nan
        -0.7603399052529477 3.0326762521524932e+36 -0.77167135719361346
        -9.6623446931541067e+35 -0.41391623908588232</data></_>
    <_ type_id="opencv-matrix">
      <rows>1</rows>
      <cols>30</cols>
      <dt>d</dt>
      <data>
        -9.637587766540992e+34 1.0222549232943305 .Nan
        0.74744380342549288 8.8759436493275237e+33 1.0669109807617363
        -4.4145090453798179e+35 0.8860284446299761
        -1.6801486269652907e+36 0.74704822863655529
        9.2695057750004801e+34 1.0163116962060161 -5.135824324341526e+36
        1.3130214639093685 -9.6999570079222972e+34 1.4911279719451378
        -4.3401003978000882e+36 0.38526766190583678
        6.807959631735675e+36 -0.11860252522874153
        4.2732244579271138e+35 0.52569233069474675 .Nan
        -0.24606678814723573 1.7943486632544826e+36 0.50314223766326904
        2.404701226037835e+35 0.49147461543137999 .Nan
        -0.47733220423775158</data></_></avg>
  <inv_eigen_values>
    <_ type_id="opencv-matrix">
      <rows>30</rows>
      <cols>1</cols>
      <dt>d</dt>
      <data>
        .Nan .Nan .Nan .Nan .Nan .Nan .Nan .Nan .Nan .Nan .Nan .Nan .Nan
        .Nan .Nan .Nan .Nan .Nan .Nan .Nan .Nan .Nan .Nan .Nan .Nan .Nan
        .Nan .Nan .Nan .Nan</data></_>
    <_ type_id="opencv-matrix">
      <rows>30</rows>
      <cols>1</cols>
      <dt>d</dt>
      <data>
        .Nan .Nan .Nan .Nan .Nan .Nan .Nan .Nan .Nan .Nan .Nan .Nan .Nan
        .Nan .Nan .Nan .Nan .Nan .Nan .Nan .Nan .Nan .Nan .Nan .Nan .Nan
        .Nan .Nan .Nan .Nan</data></_></inv_eigen_values>
  <cov_rotate_mats>
    <_ type_id="opencv-matrix">
      <rows>30</rows>
      <cols>30</cols>
      <dt>d</dt>
      <data>
        .Nan .Nan .Nan .Nan .Nan .Nan .Nan .Nan .Nan .Nan .Nan .Nan .Nan
        .Nan .Nan .Nan .Nan .Nan .Nan .Nan .Nan .Nan .Nan .Nan .Nan .Nan
        .Nan .Nan .Nan .Nan .Nan .Nan .Nan .Nan .Nan .Nan .Nan .Nan .Nan
        .Nan .Nan .Nan .Nan .Nan .Nan .Nan .Nan .Nan .Nan .Nan .Nan .Nan
        .Nan .Nan .Nan .Nan .Nan .Nan .Nan .Nan .Nan .Nan .Nan .Nan .Nan
        .Nan .Nan .Nan .Nan .Nan .Nan .Nan .Nan .Nan .Nan .Nan .Nan .Nan
        .Nan .Nan .Nan .Nan .Nan .Nan .Nan .Nan .Nan .Nan .Nan .Nan .Nan
        .Nan .Nan .Nan .Nan .Nan .Nan .Nan .Nan .Nan .Nan .Nan .Nan .Nan
        .Nan .Nan .Nan .Nan .Nan .Nan .Nan .Nan .Nan .Nan .Nan .Nan .Nan
        .Nan .Nan .Nan .Nan .Nan .Nan .Nan .Nan .Nan .Nan .Nan .Nan .Nan
        .Nan .Nan .Nan .Nan .Nan .Nan .Nan .Nan .Nan .Nan .Nan .Nan .Nan
        .Nan .Nan .Nan .Nan .Nan .Nan .Nan .Nan .Nan .Nan .Nan .Nan .Nan
        .Nan .Nan .Nan .Nan .Nan .Nan .Nan .Nan .Nan .Nan .Nan .Nan .Nan
        .Nan .Nan .Nan .Nan .Nan .Nan .Nan .Nan .Nan .Nan .Nan .Nan .Nan
        .Nan .Nan .Nan .Nan .Nan .Nan .Nan .Nan .Nan .Nan .Nan .Nan .Nan
        .Nan .Nan .Nan .Nan .Nan .Nan .Nan .Nan .Nan .Nan .Nan .Nan .Nan
        .Nan .Nan .Nan .Nan .Nan .Nan .Nan .Nan .Nan .Nan .Nan .Nan .Nan
        .Nan .Nan .Nan .Nan .Nan .Nan .Nan .Nan .Nan .Nan .Nan .Nan .Nan
        .Nan .Nan .Nan .Nan .Nan .Nan .Nan .Nan .Nan .Nan .Nan .Nan .Nan
        .Nan .Nan .Nan .Nan .Nan .Nan .Nan .Nan .Nan .Nan .Nan .Nan .Nan
        .Nan .Nan .Nan .Nan .Nan .Nan .Nan .Nan .Nan .Nan .Nan .Nan .Nan
        .Nan .Nan .Nan .Nan .Nan .Nan .Nan .Nan .Nan .Nan .Nan .Nan .Nan
        .Nan .Nan .Nan .Nan .Nan .Nan .Nan .Nan .Nan .Nan .Nan .Nan .Nan
        .Nan .Nan .Nan .Nan .Nan .Nan .Nan .Nan .Nan .Nan .Nan .Nan .Nan
        .Nan .Nan .Nan .Nan .Nan .Nan .Nan .Nan .Nan .Nan .Nan .Nan .Nan
        .Nan .Nan .Nan .Nan .Nan .Nan .Nan .Nan .Nan .Nan .Nan .Nan .Nan
        .Nan .Nan .Nan .Nan .Nan .Nan .Nan .Nan .Nan .Nan .Nan .Nan .Nan
        .Nan .Nan .Nan .Nan .Nan .Nan .Nan .Nan .Nan .Nan .Nan .Nan .Nan
        .Nan .Nan .Nan .Nan .Nan .Nan .Nan .Nan .Nan .Nan .Nan .Nan .Nan
        .Nan .Nan .Nan .Nan .Nan .Nan .Nan .Nan .Nan .Nan .Nan .Nan .Nan
        .Nan .Nan .Nan .Nan .Nan .Nan .Nan .Nan .Nan .Nan .Nan .Nan .Nan
        .Nan .Nan .Nan .Nan .Nan .Nan .Nan .Nan .Nan .Nan .Nan .Nan .Nan
        .Nan .Nan .Nan .Nan .Nan .Nan .Nan .Nan .Nan .Nan .Nan .Nan .Nan
        .Nan .Nan .Nan .Nan .Nan .Nan .Nan .Nan .Nan .Nan .Nan .Nan .Nan
        .Nan .Nan .Nan .Nan .Nan .Nan .Nan .Nan .Nan .Nan .Nan .Nan .Nan
        .Nan .Nan .Nan .Nan .Nan .Nan .Nan .Nan .Nan .Nan .Nan .Nan .Nan
        .Nan .Nan .Nan .Nan .Nan .Nan .Nan .Nan .Nan .Nan .Nan .Nan .Nan
        .Nan .Nan .Nan .Nan .Nan .Nan .Nan .Nan .Nan .Nan .Nan .Nan .Nan
        .Nan .Nan .Nan .Nan .Nan .Nan .Nan .Nan .Nan .Nan .Nan .Nan .Nan
        .Nan .Nan .Nan .Nan .Nan .Nan .Nan .Nan .Nan .Nan .Nan .Nan .Nan
        .Nan .Nan .Nan .Nan .Nan .Nan .Nan .Nan .Nan .Nan .Nan .Nan .Nan
        .Nan .Nan .Nan .Nan .Nan .Nan .Nan .Nan .Nan .Nan .Nan .Nan .Nan
        .Nan .Nan .Nan .Nan .Nan .Nan .Nan .Nan .Nan .Nan .Nan .Nan .Nan
        .Nan .Nan .Nan .Nan .Nan .Nan .Nan .Nan .Nan .Nan .Nan .Nan .Nan
        .Nan .Nan .Nan .Nan .Nan .Nan .Nan .Nan .Nan .Nan .Nan .Nan .Nan
        .Nan .Nan .Nan .Nan .Nan .Nan .Nan .Nan .Nan .Nan .Nan .Nan .Nan
        .Nan .Nan .Nan .Nan .Nan .Nan .Nan .Nan .Nan .Nan .Nan .Nan .Nan
        .Nan .Nan .Nan .Nan .Nan .Nan .Nan .Nan .Nan .Nan .Nan .Nan .Nan
        .Nan .Nan .Nan .Nan .Nan .Nan .Nan .Nan .Nan .Nan .Nan .Nan .Nan
        .Nan .Nan .Nan .Nan .Nan .Nan .Nan .Nan .Nan .Nan .Nan .Nan .Nan
        .Nan .Nan .Nan .Nan .Nan .Nan .Nan .Nan .Nan .Nan .Nan .Nan .Nan
        .Nan .Nan .Nan .Nan .Nan .Nan .Nan .Nan .Nan .Nan .Nan .Nan .Nan
        .Nan .Nan .Nan .Nan .Nan .Nan .Nan .Nan .Nan .Nan .Nan .Nan .Nan
        .Nan .Nan .Nan .Nan .Nan .Nan .Nan .Nan .Nan .Nan .Nan .Nan .Nan
        .Nan .Nan .Nan .Nan .Nan .Nan .Nan .Nan .Nan .Nan .Nan .Nan .Nan
        .Nan .Nan .Nan .Nan .Nan .Nan .Nan .Nan .Nan .Nan .Nan .Nan .Nan
        .Nan .Nan .Nan .Nan .Nan .Nan .Nan .Nan .Nan .Nan .Nan .Nan .Nan
        .Nan .Nan .Nan .Nan .Nan .Nan .Nan .Nan .Nan .Nan .Nan .Nan .Nan
        .Nan .Nan .Nan .Nan .Nan .Nan .Nan .Nan .Nan .Nan .Nan .Nan .Nan
        .Nan .Nan .Nan .Nan .Nan .Nan .Nan .Nan .Nan .Nan .Nan .Nan .Nan
        .Nan .Nan .Nan .Nan .Nan .Nan .Nan .Nan .Nan .Nan .Nan .Nan .Nan
        .Nan .Nan .Nan .Nan .Nan .Nan .Nan .Nan .Nan .Nan .Nan .Nan .Nan
        .Nan .Nan .Nan .Nan .Nan .Nan .Nan .Nan .Nan .Nan .Nan .Nan .Nan
        .Nan .Nan .Nan .Nan .Nan .Nan .Nan .Nan .Nan .Nan .Nan .Nan .Nan
        .Nan .Nan .Nan .Nan .Nan .Nan .Nan .Nan .Nan .Nan .Nan .Nan .Nan
        .Nan .Nan .Nan .Nan .Nan .Nan .Nan .Nan .Nan .Nan .Nan .Nan .Nan
        .Nan .Nan .Nan .Nan .Nan .Nan .Nan .Nan .Nan .Nan .Nan .Nan .Nan
        .Nan .Nan .Nan .Nan .Nan .Nan .Nan .Nan .Nan .Nan .Nan .Nan .Nan
        .Nan .Nan .Nan .Nan .Nan .Nan .Nan .Nan .Nan .Nan .Nan .Nan .Nan
        .Nan .Nan .Nan</data></_>
    <_ type_id="opencv-matrix">
      <rows>30</rows>
      <cols>30</cols>
      <dt>d</dt>
      <data>
        .Nan .Nan .Nan .Nan .Nan .Nan .Nan .Nan .Nan .Nan .Nan .Nan .Nan
        .Nan .Nan .Nan .Nan .Nan .Nan .Nan .Nan .Nan .Nan .Nan .Nan .Nan
        .Nan .Nan .Nan .Nan .Nan .Nan .Nan .Nan .Nan .Nan .Nan .Nan .Nan
        .Nan .Nan .Nan .Nan .Nan .Nan .Nan .Nan .Nan .Nan .Nan .Nan .Nan
        .Nan .Nan .Nan .Nan .Nan .Nan .Nan .Nan .Nan .Nan .Nan .Nan .Nan
        .Nan .Nan .Nan .Nan .Nan .Nan .Nan .Nan .Nan .Nan .Nan .Nan .Nan
        .Nan .Nan .Nan .Nan .Nan .Nan .Nan .Nan .Nan .Nan .Nan .Nan .Nan
        .Nan .Nan .Nan .Nan .Nan .Nan .Nan .Nan .Nan .Nan .Nan .Nan .Nan
        .Nan .Nan .Nan .Nan .Nan .Nan .Nan .Nan .Nan .Nan .Nan .Nan .Nan
        .Nan .Nan .Nan .Nan .Nan .Nan .Nan .Nan .Nan .Nan .Nan .Nan .Nan
        .Nan .Nan .Nan .Nan .Nan .Nan .Nan .Nan .Nan .Nan .Nan .Nan .Nan
        .Nan .Nan .Nan .Nan .Nan .Nan .Nan .Nan .Nan .Nan .Nan .Nan .Nan
        .Nan .Nan .Nan .Nan .Nan .Nan .Nan .Nan .Nan .Nan .Nan .Nan .Nan
        .Nan .Nan .Nan .Nan .Nan .Nan .Nan .Nan .Nan .Nan .Nan .Nan .Nan
        .Nan .Nan .Nan .Nan .Nan .Nan .Nan .Nan .Nan .Nan .Nan .Nan .Nan
        .Nan .Nan .Nan .Nan .Nan .Nan .Nan .Nan .Nan .Nan .Nan .Nan .Nan
        .Nan .Nan .Nan .Nan .Nan .Nan .Nan .Nan .Nan .Nan .Nan .Nan .Nan
        .Nan .Nan .Nan .Nan .Nan .Nan .Nan .Nan .Nan .Nan .Nan .Nan .Nan
        .Nan .Nan .Nan .Nan .Nan .Nan .Nan .Nan .Nan .Nan .Nan .Nan .Nan
        .Nan .Nan .Nan .Nan .Nan .Nan .Nan .Nan .Nan .Nan .Nan .Nan .Nan
        .Nan .Nan .Nan .Nan .Nan .Nan .Nan .Nan .Nan .Nan .Nan .Nan .Nan
        .Nan .Nan .Nan .Nan .Nan .Nan .Nan .Nan .Nan .Nan .Nan .Nan .Nan
        .Nan .Nan .Nan .Nan .Nan .Nan .Nan .Nan .Nan .Nan .Nan .Nan .Nan
        .Nan .Nan .Nan .Nan .Nan .Nan .Nan .Nan .Nan .Nan .Nan .Nan .Nan
        .Nan .Nan .Nan .Nan .Nan .Nan .Nan .Nan .Nan .Nan .Nan .Nan .Nan
        .Nan .Nan .Nan .Nan .Nan .Nan .Nan .Nan .Nan .Nan .Nan .Nan .Nan
        .Nan .Nan .Nan .Nan .Nan .Nan .Nan .Nan .Nan .Nan .Nan .Nan .Nan
        .Nan .Nan .Nan .Nan .Nan .Nan .Nan .Nan .Nan .Nan .Nan .Nan .Nan
        .Nan .Nan .Nan .Nan .Nan .Nan .Nan .Nan .Nan .Nan .Nan .Nan .Nan
        .Nan .Nan .Nan .Nan .Nan .Nan .Nan .Nan .Nan .Nan .Nan .Nan .Nan
        .Nan .Nan .Nan .Nan .Nan .Nan .Nan .Nan .Nan .Nan .Nan .Nan .Nan
        .Nan .Nan .Nan .Nan .Nan .Nan .Nan .Nan .Nan .Nan .Nan .Nan .Nan
        .Nan .Nan .Nan .Nan .Nan .Nan .Nan .Nan .Nan .Nan .Nan .Nan .Nan
        .Nan .Nan .Nan .Nan .Nan .Nan .Nan .Nan .Nan .Nan .Nan .Nan .Nan
        .Nan .Nan .Nan .Nan .Nan .Nan .Nan .Nan .Nan .Nan .Nan .Nan .Nan
        .Nan .Nan .Nan .Nan .Nan .Nan .Nan .Nan .Nan .Nan .Nan .Nan .Nan
        .Nan .Nan .Nan .Nan .Nan .Nan .Nan .Nan .Nan .Nan .Nan .Nan .Nan
        .Nan .Nan .Nan .Nan .Nan .Nan .Nan .Nan .Nan .Nan .Nan .Nan .Nan
        .Nan .Nan .Nan .Nan .Nan .Nan .Nan .Nan .Nan .Nan .Nan .Nan .Nan
        .Nan .Nan .Nan .Nan .Nan .Nan .Nan .Nan .Nan .Nan .Nan .Nan .Nan
        .Nan .Nan .Nan .Nan .Nan .Nan .Nan .Nan .Nan .Nan .Nan .Nan .Nan
        .Nan .Nan .Nan .Nan .Nan .Nan .Nan .Nan .Nan .Nan .Nan .Nan .Nan
        .Nan .Nan .Nan .Nan .Nan .Nan .Nan .Nan .Nan .Nan .Nan .Nan .Nan
        .Nan .Nan .Nan .Nan .Nan .Nan .Nan .Nan .Nan .Nan .Nan .Nan .Nan
        .Nan .Nan .Nan .Nan .Nan .Nan .Nan .Nan .Nan .Nan .Nan .Nan .Nan
        .Nan .Nan .Nan .Nan .Nan .Nan .Nan .Nan .Nan .Nan .Nan .Nan .Nan
        .Nan .Nan .Nan .Nan .Nan .Nan .Nan .Nan .Nan .Nan .Nan .Nan .Nan
        .Nan .Nan .Nan .Nan .Nan .Nan .Nan .Nan .Nan .Nan .Nan .Nan .Nan
        .Nan .Nan .Nan .Nan .Nan .Nan .Nan .Nan .Nan .Nan .Nan .Nan .Nan
        .Nan .Nan .Nan .Nan .Nan .Nan .Nan .Nan .Nan .Nan .Nan .Nan .Nan
        .Nan .Nan .Nan .Nan .Nan .Nan .Nan .Nan .Nan .Nan .Nan .Nan .Nan
        .Nan .Nan .Nan .Nan .Nan .Nan .Nan .Nan .Nan .Nan .Nan .Nan .Nan
        .Nan .Nan .Nan .Nan .Nan .Nan .Nan .Nan .Nan .Nan .Nan .Nan .Nan
        .Nan .Nan .Nan .Nan .Nan .Nan .Nan .Nan .Nan .Nan .Nan .Nan .Nan
        .Nan .Nan .Nan .Nan .Nan .Nan .Nan .Nan .Nan .Nan .Nan .Nan .Nan
        .Nan .Nan .Nan .Nan .Nan .Nan .Nan .Nan .Nan .Nan .Nan .Nan .Nan
        .Nan .Nan .Nan .Nan .Nan .Nan .Nan .Nan .Nan .Nan .Nan .Nan .Nan
        .Nan .Nan .Nan .Nan .Nan .Nan .Nan .Nan .Nan .Nan .Nan .Nan .Nan
        .Nan .Nan .Nan .Nan .Nan .Nan .Nan .Nan .Nan .Nan .Nan .Nan .Nan
        .Nan .Nan .Nan .Nan .Nan .Nan .Nan .Nan .Nan .Nan .Nan .Nan .Nan
        .Nan .Nan .Nan .Nan .Nan .Nan .Nan .Nan .Nan .Nan .Nan .Nan .Nan
        .Nan .Nan .Nan .Nan .Nan .Nan .Nan .Nan .Nan .Nan .Nan .Nan .Nan
        .Nan .Nan .Nan .Nan .Nan .Nan .Nan .Nan .Nan .Nan .Nan .Nan .Nan
        .Nan .Nan .Nan .Nan .Nan .Nan .Nan .Nan .Nan .Nan .Nan .Nan .Nan
        .Nan .Nan .Nan .Nan .Nan .Nan .Nan .Nan .Nan .Nan .Nan .Nan .Nan
        .Nan .Nan .Nan .Nan .Nan .Nan .Nan .Nan .Nan .Nan .Nan .Nan .Nan
        .Nan .Nan .Nan .Nan .Nan .Nan .Nan .Nan .Nan .Nan .Nan .Nan .Nan
        .Nan .Nan .Nan .Nan .Nan .Nan .Nan .Nan .Nan .Nan .Nan .Nan .Nan
        .Nan .Nan .Nan .Nan .Nan .Nan .Nan .Nan .Nan .Nan .Nan .Nan .Nan
        .Nan .Nan .Nan</data></_></cov_rotate_mats>
  <c type_id="opencv-matrix">
    <rows>1</rows>
    <cols>2</cols>
    <dt>d</dt>
    <data>
      -700. -700.</data></c></opencv_ml_nbayes>
</opencv_storage>
