<?xml version="1.0"?>
<opencv_storage>
<opencv_ml_svm>
  <format>3</format>
  <svmType>C_SVC</svmType>
  <kernel>
    <type>RBF</type>
    <gamma>0.5</gamma></kernel>
  <C>1.</C>
  <term_criteria><iterations>1000</iterations></term_criteria>
  <var_count>30</var_count>
  <class_count>2</class_count>
  <class_labels type_id="opencv-matrix">
    <rows>2</rows>
    <cols>1</cols>
    <dt>i</dt>
    <data>
      0 1</data></class_labels>
  <sv_total>48</sv_total>
  <support_vectors>
    <_>
      -1.2246363e-08 -1.82077742 1.07589072e-35 -1.43600178 29571420.
      -1.8288815 1.68191522e-28 -1.80907679 .Nan -1.78921914
      -1.14796994e+21 -1.87854064 -0.000309288444 -1.82841969
      -1.19552817e+36 -1.80032897 0.00206705788 1.80880797
      2.94324817e-21 -1.73019123 -1.96456574e-31 -1.75093615 11904909.
      1.9217155 -7.76479169e-14 -1.72574854 1.17518491e+33 -1.75066864
      -1.44956323e+38 -1.54266632</_>
    <_>
      -0.0126369726 -1.76326454 -4.36056386e+14 -1.90153992
      3.32437246e-12 -1.77656996 -12.5882864 -1.76257563 -6.82569191e-32
      -1.91919827 2.46361829e-08 -1.92108679 2.12130474e+35 -1.86847007
      -4.71189947e-26 -1.8914417 1.59591106e-27 -1.75152218 .Nan
      -1.84854221 -4.82691836e-21 -1.79993117 -0.0145644508 -1.88998866
      7.44680335e-36 -1.80173326 -1.82593495e+10 -1.75985432
      8.57096788e+25 -1.76650393</_>
    <_>
      6.3898299e+36 2.04951096 -8.97304782e+15 2.06999111 2.64821802e+31
      2.03658104 -1.71482839e-19 2.44199467 1.32599105e+36 1.83229077
      -4.50472194e-39 1.93380666 -0.000332994532 1.87100708 .Nan
      1.98470783 -3463411.75 1.91313791 3.31059637e+21 1.92277586
      4.76906323e-35 2.03796053 4.93766195e+09 2.04739332
      -2.53812741e-27 2.00922084 -6.12562887e+18 2.25674605
      -6.08960128e-22 1.84242642</_>
    <_>
      -8.8755965e-35 -1.59901297 .Nan -1.66650975 -0.00421879906
      -1.68136144 -1.82576495e-26 -1.70294559 2.18969104e-33 -1.55576777
      2.07922185e+14 1.60502934 -3.31878318e-28 1.68912482
      1.68130672e+33 1.54891312 6.15800348e+34 1.31216049 1.4902022e-34
      1.85109901 -653745920. 1.81287575 -20269.8379 1.72599089
      7.16469522e+23 1.75668633 5.555036e-32 1.91951191 3.71350947e+16
      1.87990975</_>
    <_>
      -1.29275428e-27 -1.74418521 -1.80944815e+22 -1.77606094
      3.67668133e+17 -1.75161016 24521.8594 1.89979982 -1.16464355e+24
      1.65037298 3.33046475e+34 -1.89027739 -44501068. 1.85146582
      5.30343892e+22 -1.89346051 1.23779182e-36 -1.85404861
      -5.41094871e+10 1.84671533 -1.32184985e+27 -1.83964145 .Nan
      -1.87640178 -2.99533336e-28 -1.89637744 -2.28841742e-07
      -1.31108165 2.77925121e+33 -1.32578635</_>
    <_>
      -4.60616094e-28 1.57854187 0.000115380943 1.81429577
      -3.81828657e+37 1.66901124 0.0102665536 -1.77853656 3.38327188e+27
      1.90617502 .Nan 1.01021719 -7.91899026e-33 -1.7584188
      -5.91962193e-21 -1.20521545 337.942139 -1.43768573 6.32122359e+20
      2.04496837 6.13860844e+28 1.87251389 7.64012003e+37 1.96913373
      1.16705853e-10 1.90986741 -9.93884575e-12 1.69918454
      -6.01993057e-18 2.14174938</_>
    <_>
      -6.05145397e-06 1.75524855 1.49335088e-29 1.89040458
      4.19586796e-11 2.07875562 1.29668792e+35 2.22126317 .Nan
      -1.67170787 -1.68061654e-14 1.73615789 2.08849814e+35 -1.79790843
      -2.29248192e+20 1.71056771 -1.8696709e-22 1.53464806
      -1.61567437e-37 1.69137442 9.18494254e+31 -1.61587453
      -1.48535433e-28 1.65186918 -1.37160692e+33 1.82330263 0.0804610997
      1.83257914 -9.82874617e+37 -1.79783928</_>
    <_>
      -215.465546 -1.79515755 -3.92473665e-36 -1.74807608
      -2.99420206e-29 -1.82419896 -3.17260595e+10 -1.74411225
      -2.49282838e+19 -1.73525405 3.11921459e+10 -1.79114175
      -1.0076842e-06 -1.92337203 -3.9310903e-06 -1.80595791 .Nan
      -1.78676438 -9.79372152e-21 1.7352103 1.15685683e+17 -1.71999311
      1.06999913e-34 -1.69187331 -7.10769046e+29 -1.72928369
      4.00101901e+25 -1.58329844 -2.27777901e-11 1.57528281</_>
    <_>
      -2.0999167e+25 1.96267259 -0.105095536 1.95593107 -16926138.
      1.65441239 -9.28977028e-38 -1.86359417 2.49684318e-11 1.92778265
      1.13503865e+25 -1.69457364 .Nan -1.9123801 -2.11155551e+35
      -1.38470411 1546164736. -1.71225309 5.62351502e-32 -1.65273726
      1.3990032e-24 2.01291251 -7.19608197e-21 2.05015182
      -6.10323386e-27 1.78295219 -1.04555657e+20 -1.71173155
      -2.01675524e-28 1.98450708</_>
    <_>
      -1517.36279 -1.38057339 2.06198557e-24 1.76779306 1.29862529e+23
      1.85468328 2.05586555e-22 1.40926695 -5.21346828e-06 1.70276082
      -1.08349008e+35 1.73201621 .Nan 1.90353668 -6.49902404e-07
      1.70758915 -3.71630726e+26 1.64890993 5.80104603e+29 1.93428278
      2.90601443e+31 -1.48747146 2.36673851e+16 1.78177285
      -1.51561919e+18 1.76962888 -7.93314773e+26 -1.69959819
      -1.98099367e-16 1.76955462</_>
    <_>
      -7.40161761e-24 -1.88942575 3.7209557e-07 -1.71055865
      1.23235182e+33 -1.88859999 -1.03418829e+12 -1.86226141
      -5.42167809e+30 -1.89073205 9.17979458e-37 -1.83948803
      -8.47694534e+17 -1.6949743 -43203.5234 -1.87139142 -1.33270756e-15
      1.76408386 -2.03261678e-07 1.3248198 .Nan -1.54994571
      3.51299251e+33 1.90992224 -2.39376872e+12 -1.36075175
      1.39044294e-27 -1.69303286 -110002888. -1.82175612</_>
    <_>
      -6.13303218e-14 -1.79026723 -4.55804047e-20 -1.81894958
      -4.89283728e-33 -1.82237411 -0.00987911411 -1.51572931
      -3.55715574e-33 -1.75964832 1.43488597e+13 -1.87655818
      2.95470278e+21 -1.95410883 9.69328784e-12 -1.876706 .Nan
      -1.83862281 5.70028747e+16 1.41932976 -5.07105467e-24 -1.76696253
      5.97315847e+37 -1.84813094 -4.62096189e-38 -1.8063724
      3.42672759e+25 1.35954118 -1.41177584e+35 -1.68635821</_>
    <_>
      6.94638285e+09 1.89849353 1.13635916e+36 -1.54013991
      -1.4098647e-30 1.88711679 1.38459438e-06 1.88726735
      -8.01448211e+28 -1.81145835 -5.34693919e-33 -1.6863023
      0.0762359723 -1.42851448 -1.60465878e+24 1.61284244 8.48888538e+23
      -1.79898441 -7494366. -1.90146399 1.41327993e-17 -1.75806439
      -5.23839505e-09 -1.91808832 1.47630487e+37 -1.75482905 73890.0703
      -1.6255976 2.46603262e-29 -1.9239645</_>
    <_>
      1.76545428e-30 -1.85270989 .Nan -1.77233076 -5.56464133e+36
      -1.83089006 -4.81614927e+35 -1.89911258 2.56842113e-19 -1.87803352
      3.44495381e+31 1.88048291 -1.87152475e+26 1.47237182
      9.28590512e-23 1.86283088 -6.49216702e-21 1.85766709
      3.31788692e-15 -1.69657314 -1.50866236e-24 -1.37347722
      2.9588097e-16 1.69576657 1.35169178e-28 1.7867589 1.15421772e-33
      1.74690914 1.45958468e-13 -1.82679415</_>
    <_>
      -7.73363219e+17 1.80412114 1255103360. 1.74321938 -1.01525542e+32
      1.81067467 -9.03963907e-38 1.80255079 1.45677637e-09 1.89001548
      0.000161572621 1.82095361 -870658176. 1.82493997 -1.13950597e-14
      1.887936 -0.00358008919 1.79237866 2.18947831e-24 1.39243805
      2.28543457e+24 1.9311949 -1.55081635e-25 -1.7679491 3.03204835e-12
      1.9102006 -4.06234281e-36 1.92123628 5.32991487e+27 -1.66550314</_>
    <_>
      -1136109568. 2.07245207 -0.237957805 1.97340858 -4.87471219e-09
      2.06680894 1.5986828e-13 2.1108849 9.90890012e+20 -1.4308002
      -2.06386283e-22 1.90127778 4.834881e-14 1.9166683 4.49129297e-26
      1.99111199 1.55626952e-16 1.67776692 4.84616294e+09 1.29079735
      -42068280. 2.04452395 -0.249194667 -1.72983503 8769.71582
      2.02108741 -1.81874269e-20 2.06754756 -73.7049713 -1.5793345</_>
    <_>
      1.33181053e-12 1.88784301 30459122. 1.64780962 4.82361536e+14
      1.88608706 4.24816321e+30 1.87517989 -1603421.12 1.63306928
      -1.09557434e-26 1.73271477 5.83112494e-18 1.67702937
      3.28787102e-11 1.81007731 -2.03584348e-15 1.88890982
      -2.09125939e+24 -1.64371729 -11634569. 1.90773499 1.10038439e-36
      1.50408435 35365020. 1.90388894 3.66241525e+14 1.88586855
      -1.45845587e-30 1.65934324</_>
    <_>
      -1.03564596e-11 -1.77294147 1.14947534e-06 -1.78435028
      -2.04355407e+27 1.89809453 33.9357872 1.81381285 -6.39169199e+18
      -1.64995837 5.32466203e+31 -1.82531035 -9.2529197e-05 -1.88612151
      -5.18006455e-05 -1.83202052 1.35931245e-28 -1.80438757
      7.31519209e-31 1.52980232 -6.75092034e+24 -1.88564479 230267632.
      -1.86566591 .Nan -1.69144559 -4087899.75 -1.88766408
      -0.00514559913 -1.91358614</_>
    <_>
      -5.38586281e-15 1.94713092 -5.08819783e-30 1.76406264
      6.45108183e+35 1.94529796 -1.07967333e-16 1.94166076
      -9.19341768e-19 1.47911263 6.88645686e+31 1.76504672
      1.56039161e-32 1.90301478 -1.01029681e+30 1.94790697
      9.04504554e+34 1.87178671 -1.61535831e-32 -1.8251518
      -3.73473451e-25 1.82118571 2029028992. 1.99202132 1.26801766e+23
      1.89275074 -2.15917215e+33 1.77528763 -19950056. -1.81542253</_>
    <_>
      -4.20370169e+24 1.92085958 6.72011428e+10 1.73507464
      -7.1481751e+12 1.91286063 5.54445639e-16 1.918908 8.47610273e-26
      -1.72311366 3.13019163e+14 -1.21847022 -3.34230688e-09 1.61606395
      -3.29826096e-15 1.82226491 7.66458938e-16 -1.83458114
      3.83483083e-34 -1.89508486 -2.56536088e+15 1.92307413
      -1.08525785e+22 -1.81521273 -1.27725531e-28 1.91211879
      -8.20453773e+34 1.90322232 4.09617646e+30 -1.84142363</_>
    <_>
      1.02807719e+37 1.77571976 -0.000953433104 1.330109 -8.50761465e-34
      1.80861521 7.21789011e-29 1.72882354 -6.79495749e-34 1.72202611
      1.41880776e-06 1.95126235 -1.0683742e-19 1.96155226
      -2.37649242e+27 1.88870978 -1.52703216e+17 1.90488267
      3.40654979e-17 1.7113924 7.25423547e-07 -1.6632663 -0.374049962
      -1.70969582 2.2441095e-16 1.45191383 -2.91365267e+30 -1.53378797
      3.87252903e-25 1.8046757</_>
    <_>
      3.26814698e-20 -1.70562148 -1.45880008e+21 -1.32974005 .Nan
      -1.75266445 -5.54135296e+13 -1.78095806 1.95804324e-25 -1.76815903
      1.28195144e+10 1.4532764 4.33913978e+20 -1.92174363 3.20760671e-14
      1.27259326 -5.23957414e+37 -1.25566995 1.47555615e+10 -1.72068286
      -91389.4141 -1.69550169 1.18150253e-28 -1.47057557 5.25172931e-31
      -1.67317379 -2.09660995e+24 -1.72224712 0.00495649967 -1.81155479</_>
    <_>
      -4.39389979e+11 1.69919443 2.19517017e-32 2.16510081
      2.12827566e+10 1.74160039 -2124.15601 1.62800002 -6.10760162e+13
      1.80184102 -8.53741803e-05 1.89109135 -6.41367409e+10 1.88543773
      1.45506047e+13 1.85115421 3.89315971e+17 1.87750065 4.39176925e-21
      1.75621307 7.3565143e+10 -1.77232075 -3.25439426e-18 1.47188175
      6.15816881e+25 -1.73837185 0.517528534 -1.69050264 38.438118
      -1.76633728</_>
    <_>
      -0.339637637 -1.85222077 2.47752361e-12 -1.68673563 -2.661661e+29
      -1.72961879 -5.07647502e-36 1.53091288 -2.90667076e+25 -1.78092492
      195454944. -1.82893431 -5.05404994e-37 -1.64959013 1.39273536
      -1.84289241 -0.357799292 -1.80689251 .Nan -1.52266526
      -0.000174992587 -1.87944245 5.29609687e+10 -1.77826703
      8.09299822e+24 -1.79628479 -4.89352145e+15 -1.82752812
      -2.39713889e+20 -1.86794031</_>
    <_>
      7.44585871e-13 2.01387429 -7.54900293e-06 1.80536807
      1.29534067e-19 2.00759816 -3.63570387e-31 2.04298186
      -8.19657989e-27 1.88023019 0.437703878 1.59406042 -1.59525209e+24
      1.99341047 -3.17171804e+18 2.04012036 5.07582513e+11 -1.65629435
      1.73718729e-06 -1.85775673 2.04125402e-19 2.09775996
      -9.93377091e-29 1.39205062 -6.80641097e-05 2.04744768 -11120978.
      2.07552314 -1.30501523e-20 1.88579798</_>
    <_>
      2.07726614e-11 2.06819201 28.1261101 1.50074339 -8.52845134e+31
      2.05960059 -2.27024066e-06 2.11515093 3.0580942e-21 -1.5842464
      7.99020777e-38 1.7194488 1.46585263e-36 1.87233508 5.65357701e+28
      1.91566455 -2.6436969e-34 -1.88993084 3.23607724e+11 -1.89100921
      -2.41458803e-14 2.14964223 1.04677111e-33 -1.83893538
      2.8308678e+34 2.168854 2059101.62 2.13465285 3.74113067e-32
      -1.71467185</_>
    <_>
      -1.70439201e-08 1.77642977 -1.79354704e+12 1.77569795
      -2.05663368e-11 1.78493083 2.23164185e+24 1.74446607
      -1.21262097e-17 1.92915642 -1.91270023e-20 1.72702932
      3.27459286e-30 1.8929708 -6.30440395e+11 1.82419944
      -2.12434546e+34 1.58449602 3.56461393e+34 1.67878747
      1.03703525e+18 1.774266 -13021.9482 1.71785414 -2.39072818e+32
      1.31299424 4.93988466 1.69122696 -8.75332121e+21 1.89663172</_>
    <_>
      -6.7343997e-09 2.06278467 -7.48577532e-34 1.89098477
      3.97467699e+33 1.97940218 3.31993474e-38 -1.73079371
      2.00366217e+27 2.10485148 1.07454464e+10 1.88721311 1.10468075e+24
      1.75498092 .Nan 1.88529754 7.19577076e-25 1.86953306
      2.93608322e-39 -1.7528758 -0.00539473211 1.92830586
      -2.64319823e-07 1.8965112 6.07774764e+27 1.9117707 246041184.
      -1.86756825 -4.14662012e+36 2.01637101</_>
    <_>
      -2.24297311e-32 -1.84906304 2.76549216e+30 -1.83158243
      -2.85977606e+15 -1.85359943 1.02687382e+33 1.81865597
      7.12696626e+32 -1.78905737 -21002448. -1.82738113 -1.12582769e+10
      1.75701642 -962423872. -1.8335098 6.8753109 -1.81071603
      2.43298159e-10 -1.55773401 -1.99418589e+18 -1.85315943
      -0.0120983114 -1.89174783 .Nan -1.88617563 -2.0869737e-32
      1.49345744 -7.34263261e-10 -1.80116427</_>
    <_>
      -2.56318747e-32 -1.84464777 3.0411717e-12 -1.79255664
      -1.99879972e-35 -1.80144906 -2.23703388e-27 1.71295893
      2.43856704e+19 -1.81657517 .Nan -1.79528332 2.81146116e+15
      0.986454964 1.23429672e+24 -1.80580902 -7.99916796e-30 -1.78500652
      1.30378367e-05 -1.88078761 1.46458951e-39 -1.88368082
      9.23768037e+24 -1.88010788 2.30033639e-38 -1.89742434
      -2.73842122e-08 -1.81418145 -1.18655011e+30 -1.87687314</_>
    <_>
      2.55821972e-33 -1.65298307 -3.26574732e-19 -1.53781283
      -4.33849598e+15 -1.64167428 -2.544071e-32 -1.70319557
      -2.14033837e+17 1.8356446 -3.16573771e+35 1.74692833
      -3.01278829e+33 1.43156195 4.06484391e+19 1.5584172 2.24437659e-29
      1.82888818 -0.0374371521 1.65681458 -2.21547108e-36 -1.67066514
      .Nan 1.75796711 9.57534984e+29 -1.51165771 -6.24308976e+29
      -1.7064538 -3.07867159e-34 1.62767529</_>
    <_>
      -1.2333653 1.81051147 -6.60616009e-18 1.75882673 3.01252458e-13
      1.81170452 9.39799178e-37 1.77759385 3.49583626 -1.14818418
      7.15882834e-06 1.76362538 4.98148863e+26 1.76938426 5.68599183e-28
      1.64523113 -7.89162888e+35 1.65403569 1.01657386e+36 -1.84606147
      -41500784. 1.57829928 1.38933283e+23 -1.75978458 -9.23547884e-32
      1.39052999 1.57579756 1.46354508 8.05741445e+24 -1.71083832</_>
    <_>
      -1.56376587e+22 1.68925393 1.0020576e+36 1.30218422
      -1.19707734e+19 1.70041013 -2.76032151e+22 1.63368821
      -4.09147442e-22 1.85343599 3.78292248e-35 1.67017496
      -1.41955397e-11 1.8064214 2.0725588e+17 1.8310349 -1977246720.
      1.71792722 4.1679555e-21 -1.79644537 -5913.59326 1.62449718
      3.42696416e+18 -1.82047439 -54098552. 1.47567523 -1.03146947e+27
      1.55041778 2.09469687e-25 -1.63350189</_>
    <_>
      5.76883802e+23 1.82968247 -1.26174374e+35 1.60080719
      2.83351876e+11 1.80758548 2.38762621e-15 1.80233753
      -6.44908029e-24 -1.77872229 1.86482594e+35 -1.77329993
      2.40708108e+31 -1.6173023 1.46502813e+13 1.50347602
      -1.00116972e+10 1.82067347 -3.36546725e+14 -1.93725848
      2.11975584e-22 1.78798103 1.83242615e-39 -1.7889502 6.65170732e-37
      1.77845216 -6.36609172e-07 1.779688 -1.02411403e-36 -1.79192162</_>
    <_>
      -1.98322463e-27 -1.67854428 7.6260867e-06 -1.80416369
      -8.08309157e+21 -1.697487 -0.0196998697 -1.70291114
      -1.77610802e-31 -1.52517903 1.01829517e+11 -1.82470584
      4.00826788e-10 -1.78130722 -4.04225214e+31 -1.83631158
      7.89193153e+35 1.80606973 30.7779255 -1.80601418 9.01319115e+19
      -1.77899778 .Nan 0.937127829 2.23267281e+14 -1.78836739
      -3.58584942e-34 -1.7430867 -3.68506339e-25 -1.75191998</_>
    <_>
      -6.68392971e-17 -1.85836864 7.70884685e-17 -1.76039433
      1.08382577e+24 -1.85031474 1882575.88 1.91417789 -8.10568345e-39
      -1.79586589 3.64195371 -1.81650937 2.69749433e+21 1.50572717
      -1.98011536e-35 -1.83120143 8.40629714e-34 -1.7968725
      2.99652194e+26 1.51665151 -5.78011194e-10 -1.87033522
      -4.03285705e-30 -1.8458761 .Nan -1.88617563 4.17652369 1.74205577
      -1.0217699e+30 -1.87597263</_>
    <_>
      5.62117247e-13 -1.52191818 -1.71691922e-38 1.91552281
      -7.2794165e-38 -1.53642571 1.92856334e-22 -1.58031321
      -2.41020623e-29 -1.46068966 -5.76433174e-26 -1.68222773
      -1.79994952e+12 -1.25302625 -189.639526 -1.45785534 5.70588995e+23
      -1.80993724 28644.7695 -1.76986527 -3.8941743e-30 1.56025326
      -3.31750809e-15 1.50771296 7.52608275e-06 -0.892643094
      1.21263697e-36 1.37167621 0.0510786548 -1.69483769</_>
    <_>
      7.64307596e-19 -1.66008341 -9.00095067e-32 1.77220738
      1.03533197e-15 -1.55908036 2.58738236e-23 -1.69210362
      -3.5545109e-17 2.02522969 1868.00256 1.96050119 9.27331111e-23
      1.90238702 -5.29343001e-27 1.89383638 -2.09807237e+22 1.99569988
      -7.98798029e-19 1.94655764 1.34228654e+31 -1.67842495
      6.56552538e-06 -1.69490898 1.74722782e-22 -1.60274339
      -4.07265713e+12 -1.67620146 -8.80120903e-36 -1.71833861</_>
    <_>
      -7.33357289e-29 1.9705621 -7.41087111e+27 1.75417256
      -9.8527488e+09 1.97619057 -3.31894567e-10 1.96654665
      -8.84731675e+11 1.93360424 2.17936139e+37 1.94699824 4.094595e+31
      2.01318455 -2.7644815e+13 2.07719922 1.769503e+20 2.09564447
      -0.0507720932 1.76330101 -0.0593411066 1.77390504 1.95371829e-22
      -1.67585838 1.88721919e+38 1.76681888 470.74353 1.78298831
      1.29682105e-08 -1.75467014</_>
    <_>
      9.7911544e+14 1.97659743 -1.47146989e-06 1.99784279 0.00155818718
      1.96846747 -4.1674559e+17 1.98609984 -9.13779374e+13 -1.66973948
      -4.48426694e+23 1.35689139 -1.86358235e+21 1.83404231
      -1.8326757e+28 1.84734952 2.03592119e-15 -1.91594386 5.1076082e-27
      -1.86874318 8.37252999e-16 1.71443748 -2.09103443e-30 -1.32714272
      1.03490552e+11 1.72299659 4.1888413e-16 1.78821373 -1.20466776e+29
      -1.79342163</_>
    <_>
      -6.28380795e+11 -1.63575947 -1.06296962e+17 1.42747509
      -5.126752e-37 -1.51873994 1.27875639e-23 -1.85390794 .Nan
      -1.67170787 9.11386508e+30 1.96228051 8.57725024e-36 1.98821557
      -4.24569921e+17 1.95641124 -12.4854364 1.96785295 1.47555615e+10
      -1.72068286 -1.61916215e-24 1.51390076 -1.96457447e-16 1.79580557
      2.87383511e-27 1.78371358 -4176.60938 -1.81256366 9.56385536e+16
      -1.27258718</_>
    <_>
      -1.56376587e+22 1.68925393 -1.37525472e-37 1.88556182
      -0.0216541607 1.74365985 -8.9942469e+22 1.59232032 -2.03072112e+25
      1.94516861 1.6343267e+32 1.94581378 -1.87605245e+22 1.92922318
      -6.45215412e+31 1.85895681 3.31833363e+23 -1.13489878
      2.24386515e-14 1.89233434 -0.000419029064 -1.63006151
      1.45032755e-25 1.91876721 -4.51261927e-15 1.26547134 8.4716496e-12
      -1.54698908 5.56438251e-34 1.83309352</_>
    <_>
      2602778.75 1.14248025 1.02004618e-36 1.88148952 9.43085311e+16
      1.27344394 1.73754074e+19 -1.5006783 1.13819014e-29 -1.49627244
      -1.15646022e-18 1.74882352 -1.51391255e-19 1.64250314
      -1.38651392e+26 1.70249367 4.51089033e+16 1.94321764
      7.18443838e-09 1.59223223 -9.95817732e-38 1.34917438
      -5.11686018e-08 1.89245915 1.34545606e+16 1.66532552
      8.03719295e-35 -1.5804317 -5.31564056e-34 1.90996563</_>
    <_>
      1.41979258e+26 1.99718845 7.82979744e+34 1.96177328
      -1.12583031e+38 2.0112021 -116354592. 1.98325574 -3.20458052e+29
      1.90780675 1.6122461e-19 2.17370534 -7.04940578e-28 2.00094342
      1.64833065e-30 2.07462001 1.00733775e-37 2.01623654
      -1.77407967e+11 1.94815242 -3.54299947e+13 1.82768226
      7.80820598e+12 -1.83090687 -1.02594227e-26 1.81656945 -2621862.
      1.85119355 -3.67955556e-33 -1.85734093</_>
    <_>
      .Nan -1.82858777 1.01350714e+17 1.53099525 3.90717677e-35
      -1.81292033 -2.95078591e-16 -1.81042767 -1.60174308e-30
      -1.89375663 1700154880. 1.63037682 1.15614074e+28 1.32290065
      1.17232217e-33 1.55454814 1.13928084e-12 2.10751009
      -3.34267585e-38 -1.38257706 6.76544563e+09 1.64694524
      3.34486443e+15 1.90606678 7.98391821e-12 0.961656272
      1.17454417e-24 -1.49893081 -248.01236 2.11247373</_>
    <_>
      2.84615872e-33 1.73043609 3.56438459e-20 1.59848022
      -1.47456255e-12 1.71894574 -9.41568366e+19 1.65132165
      -3.81194322e-26 1.71846783 1.03448715e+11 1.65217102
      -3.06503168e-24 1.6625911 -1.38651392e+26 1.70249367
      7.60355845e+34 1.72522914 -1.20050912e+26 1.25677478 -0.0015869136
      -1.58387232 3.09920707e+31 -1.75924027 5.28491398e-25 -1.65396917
      1.11618114e-07 -1.55424964 3.89374012e-38 -1.81458926</_>
    <_>
      459.348267 1.84956348 1.31263476e-13 1.7902422 0.185804918
      1.85598397 -3.91859875e-27 1.83326709 1.48598162e-33 -1.72667193
      2.29022517e+16 1.71755362 2.76007169e-11 1.45516539 -0.00227467576
      1.79363358 1.13494352e+11 1.88525891 -3.19453037e-18 -1.89455318
      11406.2275 1.94382715 -9.76184872e+31 1.81375813 -3.16370874e-34
      1.95295882 -2.72752819e+23 1.88916874 -2.91911855e+15 -1.4659946</_>
    <_>
      9.93708372e+30 1.83323264 3.35478199e-26 1.69900513 -12.5985947
      1.82921028 -0.000233730781 1.81250513 -1.08299482e-05 1.88823628
      -0.333909124 1.19088161 9.85447497e+14 1.81960416 3.35255217e+17
      1.91256928 1.13638279e-14 -1.65446889 1.24525615e-26 -1.6479702
      -4.26131954e-32 1.93539059 154944736. 1.95686841 1.26117876e-19
      1.94862735 1.04723227 1.87880051 0.00058413035 -1.5703342</_></support_vectors>
  <decision_functions>
    <_>
      <sv_count>48</sv_count>
      <rho>8.1667762432656566e+36</rho>
      <alpha>
        1. 1. 1. 1. 1. 1. 1. 1. 1. 1. 1. 1. 1. 1. 1. 1. 1. 1. 1. 1. 1.
        1. 1. 1. -1. -1. -1. -1. -1. -1. -1. -1. -1. -1. -1. -1. -1. -1.
        -1. -1. -1. -1. -1. -1. -1. -1. -1. -1.</alpha>
      <index>
        0 1 17 28 6 11 4 27 8 35 30 21 23 29 2 13 40 10 7 44 5 9 34 3 26
        25 24 22 20 19 18 16 15 47 46 45 43 42 41 14 39 38 12 37 36 33
        32 31</index></_></decision_functions></opencv_ml_svm>
</opencv_storage>
