<?xml version="1.0"?>
<opencv_storage>
<opencv_ml_svm>
  <format>3</format>
  <svmType>C_SVC</svmType>
  <kernel>
    <type>RBF</type>
    <gamma>0.5</gamma></kernel>
  <C>1.</C>
  <term_criteria><iterations>1000</iterations></term_criteria>
  <var_count>30</var_count>
  <class_count>2</class_count>
  <class_labels type_id="opencv-matrix">
    <rows>2</rows>
    <cols>1</cols>
    <dt>i</dt>
    <data>
      0 1</data></class_labels>
  <sv_total>56</sv_total>
  <support_vectors>
    <_>
      -2.20893359e-10 1.78990006 4.42532102e+11 1.85093427 -1011.67914
      1.84089541 1.77280427e-23 1.5091188 2.56399801e-20 1.68706346
      -4.92307709e+32 -1.82686341 .Nan -1.9123801 -4.82709619e+33
      -1.83455229 3.90042991e+29 -1.80667281 -1.28135487e-33 -1.84712291
      -7.57874261e+17 -1.77332389 4.49240798e-17 -1.75379968
      1.14535922e+33 -1.82159901 4.14459811e+31 -1.97037315
      -5.93781687e+22 -1.75904822</_>
    <_>
      -1.9990936e-12 1.75938892 -2.24593684e+17 1.85481822
      1.46274208e-24 1.72100532 -9.60262418e-38 1.70322657
      -2.1701042e+29 -1.87721062 -7.12176334e-05 -1.80338538
      -1.45414321e-26 -1.80017102 0.00050310709 -1.70234275
      -3.30114236e+11 -1.87943435 296935872. -1.83153105 8.3500668e-26
      -1.43531168 1.64753648e-21 -1.34165752 2.03156751e-32 -1.57304156
      2.33363226e+09 0.934245765 -9.25328581e-21 -1.87550414</_>
    <_>
      -1.27054308e-35 1.85382366 3.43536287e-36 1.84434652
      1.00299452e-28 1.82097232 2.78790839e-08 1.82281506 -2.1176592e+11
      -1.79829276 -3.38186679e+36 -1.82134187 -2.83126356e-10
      -1.81297708 1.09105964e+35 -1.75751102 -4.33262329e-16 -1.85101032
      -0.00392903108 -1.92237365 -1.79056184e-12 -1.12912464 -961615.375
      1.55670023 4.96172458e+34 -1.51809311 -5.11848755e+15 1.42922235
      4.28477414e+09 -1.719172</_>
    <_>
      3.68074064e-30 -1.55884004 1.10627682e+23 1.67806149
      -5.99072076e-31 -1.52200913 134666.359 -1.63607478 1.44067238e-33
      1.68644345 1.17914373e+35 1.70049727 -5.89748563e+15 1.59472048
      2.69607429e+20 1.51611507 3.65622755e+11 -1.66724718
      1.98949621e-31 1.57238579 1.76374886e-06 -1.7983973 4.96696815e-31
      -1.89184844 1.40983333e+38 -1.78849113 -6.74106508e-22 -1.74000645
      -7.39561152e-36 -1.76450384</_>
    <_>
      -183.237518 -1.69274497 8.58145191e+26 1.81002223 24283.9219
      -1.71107984 6.08692413e-36 -1.71130133 -8.57497359e+25 -1.70674551
      7.51665586e+30 -1.84640527 4.60246416e+32 -1.75585198
      9.02555972e+17 -1.76608753 2.80323334e+23 -1.8318429 8.99225426
      -1.65222299 5.61321221e+29 -1.77701271 -7.97045777e-06 1.64800191
      9.77789579e-26 -1.79938185 2.41496955e-23 -1.72515535
      -5.32090744e-05 1.5276798</_>
    <_>
      1.53917103e-12 1.84246314 -7.96305446e+20 1.78675151
      1.25588587e+13 1.82715082 -3.89149442e-35 1.8194021 1.68919549e+32
      1.37805772 8.54022787e+19 -1.63636518 -1.09114176e-10 1.18186462
      -1.82412209e+37 1.7108767 555016896. 1.57719421 3.55563879
      -1.87299597 -3.11847965e-37 1.34339964 0.000139836207 -1.8420651
      -6.88859277e+13 -1.18636596 -8.33485003e-30 1.47366583
      -2.26899103e-27 -1.83734012</_>
    <_>
      -1.70439201e-08 1.77642977 -1.79354704e+12 1.77569795
      -2.05663368e-11 1.78493083 2.23164185e+24 1.74446607
      -1.21262097e-17 1.92915642 -1.91270023e-20 1.72702932
      3.27459286e-30 1.8929708 -6.30440395e+11 1.82419944
      -2.12434546e+34 1.58449602 3.56461393e+34 1.67878747
      1.03703525e+18 1.774266 -13021.9482 1.71785414 -2.39072818e+32
      1.31299424 4.93988466 1.69122696 -8.75332121e+21 1.89663172</_>
    <_>
      -1.17238398e+35 1.76719928 3.22193027e-19 -1.66401732
      -5.66869523e-20 1.77978206 1.91584605e+23 1.71659386
      -5.44622502e+25 1.76092088 1.8263291e+20 1.86927986 0.00225076056
      1.77126753 -2865481.75 1.80943239 1.1324315e+36 1.7951169
      -7.12050022e+09 1.66673779 4.51112867e+25 -1.6284374
      -1.29068502e+16 -1.86592364 -1.90197194e+28 -1.6690675
      2.27347811e+37 -1.48352957 -9.84372336e+24 -1.86300778</_>
    <_>
      -2.92156761e+35 1.55395043 8.16310977e+11 -1.54919755
      -1.30518753e-29 -1.72134614 -1.54821121e+37 -1.71263182 68878424.
      1.00872624 1.47514129e-37 1.82901824 3.15395613e+32 1.62887263
      -890347648. 1.81442881 -1.41318452e-07 1.79218483 -1.48277893e-23
      1.75904357 -4.44318757e-12 2.00933409 -8.85045777e+22 1.9030478
      .Nan 1.88664675 -5.77404357e-12 2.02689195 8.96177798e+30
      2.02260542</_>
    <_>
      3.27452922 1.96949708 -2.09554628e-07 1.97602654 -2.31849276e-16
      1.96074426 -1.44036881e+19 1.97507894 -8.72393673e+13 1.629511
      -0.0539319254 1.4190098 -1.83572722e+38 1.8230567 4.3653442e-10
      1.89319158 1.01240043e+38 1.01410794 6.5509692e+15 -1.87541556
      -1.07430101e-19 -1.21574569 1.25346394e-37 -1.66678667 22830830.
      -1.51314282 -1.26154668e+16 1.63204229 1.48377138e-20 -1.79150498</_>
    <_>
      2.07982557e-36 1.95174623 -7.26461613e-25 1.79140568
      -1.02263484e-25 1.94581282 -5.57579639e-15 1.96512461
      3.99400348e-12 1.51375258 -8221043.5 -1.24879253 459.191895
      1.81050181 -6.82982105e-15 1.89851153 7.66458938e-16 -1.83458114
      -82.1223221 -1.90678 2.92387412e-08 1.90926898 -9.8582552e-29
      -1.68130136 -1.04623684e+13 1.93557084 7.93298248e-28 1.94818842
      -4.48217907e+23 -1.55733359</_>
    <_>
      -4.01131725 1.50925577 -5.26425981e+27 1.85772705 -8.99580193
      1.41484034 -12602.582 1.22322547 -1.15421574e+19 -1.79473448
      490190.562 -1.80494893 -1.99194626e+23 -1.37104297 -0.000153990812
      1.44556236 -1.00497494e+24 -1.79350793 -1.64253434e+36 -1.90305877
      -1.03351462e-31 1.27699018 0.000402720645 1.81103671
      -1.5553084e-16 1.18985713 -6.97174851e+31 -1.53620815
      6.25241594e+12 1.7118454</_>
    <_>
      8.37171936e+19 2.0831027 -1.58132928e+27 1.89487004
      -4.93851589e-33 2.07504702 2.11033752e-25 2.13825941
      -3.73477943e-10 1.81251585 -1.91270023e-20 1.72702932
      1.63163444e+36 1.97285175 2.57620693e-13 2.04689145 8.00264415e-36
      -1.33848715 1.1287206e-26 -1.88711083 -1378431.25 2.02241755
      -2.70340557e-21 -1.75760734 -1.81796848e+28 1.97251248
      1.68541969e-31 2.09037447 -0.108844124 -1.62466967</_>
    <_>
      -6.7343997e-09 2.06278467 -7.48577532e-34 1.89098477
      3.97467699e+33 1.97940218 3.31993474e-38 -1.73079371
      2.00366217e+27 2.10485148 1.07454464e+10 1.88721311 1.10468075e+24
      1.75498092 .Nan 1.88529754 7.19577076e-25 1.86953306
      2.93608322e-39 -1.7528758 -0.00539473211 1.92830586
      -2.64319823e-07 1.8965112 6.07774764e+27 1.9117707 246041184.
      -1.86756825 -4.14662012e+36 2.01637101</_>
    <_>
      4.92314089e-13 -1.74670029 -5.82528337e-09 -1.76826906
      1.31096853e+30 -1.76754725 4.68913708e+28 -1.77732575
      3.65964487e+23 -1.77884459 .Nan 1.01021719 -67.5876465 -1.83414114
      1.77493471e-17 -1.52277386 0.00303595024 -1.55621111
      -2.32157478e+14 -1.73164177 -380.878662 -1.782866 -458.224396
      -1.8051331 1772.23718 -1.75783765 4.71650521e+18 -1.77697253
      2.21618319 -1.84217203</_>
    <_>
      2.29625204e+17 -1.8881948 5.66822461e+27 -1.8721832
      -1.19775433e-23 -1.91766667 -4.66025296e-14 -1.80941153
      -1.28996398e-36 -1.75586581 -8.90332702e-22 -1.88354719
      -1.83412503e+35 1.75783062 2.10344752e+33 -1.88902986 341043200.
      -1.84662139 3476.25757 -1.84164345 -1.83902186e+25 -1.89577532
      3.55274105e-13 -1.90582263 -2.0112557e-32 -1.91904604
      3.69848206e-12 -1.8481549 0.00212215353 -1.55985701</_>
    <_>
      -1.2246363e-08 -1.82077742 1.07589072e-35 -1.43600178 29571420.
      -1.8288815 1.68191522e-28 -1.80907679 .Nan -1.78921914
      -1.14796994e+21 -1.87854064 -0.000309288444 -1.82841969
      -1.19552817e+36 -1.80032897 0.00206705788 1.80880797
      2.94324817e-21 -1.73019123 -1.96456574e-31 -1.75093615 11904909.
      1.9217155 -7.76479169e-14 -1.72574854 1.17518491e+33 -1.75066864
      -1.44956323e+38 -1.54266632</_>
    <_>
      -4.60616094e-28 1.57854187 0.000115380943 1.81429577
      -3.81828657e+37 1.66901124 0.0102665536 -1.77853656 3.38327188e+27
      1.90617502 .Nan 1.01021719 -7.91899026e-33 -1.7584188
      -5.91962193e-21 -1.20521545 337.942139 -1.43768573 6.32122359e+20
      2.04496837 6.13860844e+28 1.87251389 7.64012003e+37 1.96913373
      1.16705853e-10 1.90986741 -9.93884575e-12 1.69918454
      -6.01993057e-18 2.14174938</_>
    <_>
      -7.40161761e-24 -1.88942575 3.7209557e-07 -1.71055865
      1.23235182e+33 -1.88859999 -1.03418829e+12 -1.86226141
      -5.42167809e+30 -1.89073205 9.17979458e-37 -1.83948803
      -8.47694534e+17 -1.6949743 -43203.5234 -1.87139142 -1.33270756e-15
      1.76408386 -2.03261678e-07 1.3248198 .Nan -1.54994571
      3.51299251e+33 1.90992224 -2.39376872e+12 -1.36075175
      1.39044294e-27 -1.69303286 -110002888. -1.82175612</_>
    <_>
      -0.0126369726 -1.76326454 -4.36056386e+14 -1.90153992
      3.32437246e-12 -1.77656996 -12.5882864 -1.76257563 -6.82569191e-32
      -1.91919827 2.46361829e-08 -1.92108679 2.12130474e+35 -1.86847007
      -4.71189947e-26 -1.8914417 1.59591106e-27 -1.75152218 .Nan
      -1.84854221 -4.82691836e-21 -1.79993117 -0.0145644508 -1.88998866
      7.44680335e-36 -1.80173326 -1.82593495e+10 -1.75985432
      8.57096788e+25 -1.76650393</_>
    <_>
      3.6147695e-31 -1.8877058 8.59376122e-29 -1.79628682
      -1.17896516e-05 -1.88676572 -1.44274268e+37 -1.43701744
      3.49538622e+33 -1.88450158 -1.79637918e+17 -1.80201352
      5.73922443e-34 -1.93741739 -2.50074006e-08 -1.8160851
      9.47943256e-34 -1.78650081 1.40875075e+28 -1.92681527
      -9.44169458e-38 -1.90978634 -1.3032555e-38 -1.88854551
      2.57671128e-17 -1.93288326 1.04395498e-14 -1.87080383
      2.10303582e+27 -1.9133091</_>
    <_>
      -8.14450018e-32 1.56904066 4.06236832e-05 1.29957616
      1.61539925e+21 1.69820905 25.3667259 -1.80426574 .Nan 1.62354743
      3.48753258e+28 1.07648361 -5.84272075e-10 1.83599567
      -4.51227684e-35 1.38336825 -3.00034896e-28 -1.44049835
      -9.79372152e-21 1.7352103 -1.38671701e-25 1.65373886
      -3.84729085e+34 1.60149825 -1.34802664e-27 1.78447485 0.552143633
      -1.64782929 -2.52436001e-29 1.75777876</_>
    <_>
      1.18347877e-12 -1.77056623 6.9743237e-25 -1.72121894
      -1.7406775e-07 -1.55767024 .Nan 1.50669718 -2.79650701e-21
      -1.69137692 -2.96243709e-26 1.58225024 6.54314913e-30 -1.90769839
      1.00214377e+17 1.58167756 -3.91175655e+21 0.722597778
      -7.27220799e-19 -1.72725821 -1.60445269e-31 -1.66973805
      -1.65983279e+38 -1.63694155 -6.32849189e-15 1.53478444
      2.87644596e-30 1.66844678 790271040. -1.48006618</_>
    <_>
      -4.5019596e+19 -1.63268554 5585500.5 -1.48964012 5.04792803e-24
      -1.75996399 1.81409745e+32 -1.80456841 -506879680. -1.72352827
      5.05811703e+34 -1.71010482 5.14371565e+15 -1.91909742 -1130697.38
      -1.65892541 -3.00265742e+23 -1.72578895 5.59956981e-14 -1.79780757
      -7.83579139e-35 1.43110836 -3.8404252e+14 1.38827908 .Nan
      -1.67416346 -2.63228084e+23 -1.63326919 1.33628843e+18 -1.77387202</_>
    <_>
      -1.14359878e-33 -1.82361758 -1.43071927e+37 -1.89921284 .Nan
      -1.83279455 1.08726221e+17 -1.80865014 -2.20020052e+21 -1.55791509
      -1.02382631e-29 -1.90545177 -1580178.38 -1.88702536 0.377471179
      -1.896981 -8.68752916e+10 1.75495648 -3.76316184e+13 -1.78758526
      1.83573845e-09 -1.77629089 -3.26098383e+25 1.47913909
      2.99914486e+24 -1.78601599 -2.01696068e+13 -1.75286877
      9.9743408e+14 1.73084617</_>
    <_>
      -1.02761011e+24 1.89032805 -5.92952085e+34 1.77337086 1411461.12
      1.88093829 -2.33916413e+12 1.88122356 -425.137848 -1.95148957
      -1.14522036e+32 -1.66981447 2.89292775e+21 1.63497019
      -3.57465613e-10 1.60355663 -1.64559434e+38 -1.52694714
      3.13555482e+18 -1.91652608 -1.23835536e+13 1.83345699
      -1.42439303e+31 1.53492808 -1.49722287e+12 1.80394614
      2.89533639e-31 1.82314146 -3.72619984e-17 -1.75091994</_>
    <_>
      6.94638285e+09 1.89849353 1.13635916e+36 -1.54013991
      -1.4098647e-30 1.88711679 1.38459438e-06 1.88726735
      -8.01448211e+28 -1.81145835 -5.34693919e-33 -1.6863023
      0.0762359723 -1.42851448 -1.60465878e+24 1.61284244 8.48888538e+23
      -1.79898441 -7494366. -1.90146399 1.41327993e-17 -1.75806439
      -5.23839505e-09 -1.91808832 1.47630487e+37 -1.75482905 73890.0703
      -1.6255976 2.46603262e-29 -1.9239645</_>
    <_>
      1.76545428e-30 -1.85270989 .Nan -1.77233076 -5.56464133e+36
      -1.83089006 -4.81614927e+35 -1.89911258 2.56842113e-19 -1.87803352
      3.44495381e+31 1.88048291 -1.87152475e+26 1.47237182
      9.28590512e-23 1.86283088 -6.49216702e-21 1.85766709
      3.31788692e-15 -1.69657314 -1.50866236e-24 -1.37347722
      2.9588097e-16 1.69576657 1.35169178e-28 1.7867589 1.15421772e-33
      1.74690914 1.45958468e-13 -1.82679415</_>
    <_>
      2.38458017e+25 -1.31505287 225517.484 -1.75529528 -1.482748e+31
      -1.17762303 992964.688 -1.52428436 -1.42087954e-37 1.86055255
      1.33601567e+10 1.72323906 -1.1341169e-16 1.47826648 -3.0867588e+26
      1.43266535 -3.83650136e+35 1.67594135 2.98867212e+23 -1.58730173
      7.62510027e+36 1.39312637 -2.48964385e+30 -1.80963361
      3.14859418e-20 -1.52502358 3.57333306e-37 -1.4522872
      2.91998067e-24 -1.60500228</_>
    <_>
      -1.31220735e-15 1.91659939 -1.33963978 1.78093386 -1.3168266e+29
      1.9133755 -8.37245598e+37 1.91179764 -5.73966434e+28 1.69355989
      1.41979784e-20 1.7887361 -6.31459825e-21 1.84659731 12493214.
      1.87340152 -970962816. 1.73983288 -1.87241441e+31 -1.58446646
      9.39387166e-18 1.93674409 -194.358826 1.91196334 -77598.75
      1.82634628 4.4606839e-20 1.9248116 -0.000101043806 1.67217708</_>
    <_>
      -1.10619553e+30 1.72333562 0.38436833 1.61244261 -100.008797
      1.69011259 -0.107063621 1.65885854 3.30615172e+24 -1.22219622
      1.29260293e+20 -1.65493762 -3.55987145e-14 -1.64356172
      -0.000970041787 1.40326023 2.26531e-15 -1.80172265 8.00528053e-30
      -1.87949121 -2.91962692e-35 -1.5023042 1.49148536e-05 -1.49259019
      1.74722782e-22 -1.60274339 -1.56531477e+36 1.10132563
      1.12772154e-28 -1.82625639</_>
    <_>
      1.44467448e-28 1.60866082 6.59381934e+17 -1.70008683 -11174969.
      1.5760479 2.13676772e-38 1.38202834 1.6028144e-21 1.93093562
      -600924480. 1.74787593 3.52089599e+17 1.82933426 -1.12593892e-21
      1.86566329 -2.29229767e-28 1.75769472 1.83800869e-16 -1.43077564
      -7.37341141e+36 2.15189791 0.000325544737 1.71331835
      -2.19933773e-35 2.09360933 3.36407902e-09 1.91931117
      -1.43648688e-33 1.87159503</_>
    <_>
      -6.05145397e-06 1.75524855 1.49335088e-29 1.89040458
      4.19586796e-11 2.07875562 1.29668792e+35 2.22126317 .Nan
      -1.67170787 -1.68061654e-14 1.73615789 2.08849814e+35 -1.79790843
      -2.29248192e+20 1.71056771 -1.8696709e-22 1.53464806
      -1.61567437e-37 1.69137442 9.18494254e+31 -1.61587453
      -1.48535433e-28 1.65186918 -1.37160692e+33 1.82330263 0.0804610997
      1.83257914 -9.82874617e+37 -1.79783928</_>
    <_>
      -8.11850664e+36 1.85879385 -4.42459758e-09 1.93239403
      6.32796069e+31 1.8570137 5.31143106e+35 1.83340931 -3.04470651e-33
      1.65086067 -9.49465847 1.56942344 -8.19815645e+11 1.87421823
      2.84379973e+31 1.71990466 -5.98211053e+35 -1.97983527
      -3.13042321e+28 -1.7716372 -1.20663629e-16 1.72454321
      1.03627359e+27 1.82918012 1.03490552e+11 1.72299659
      -5.34899771e-30 1.70013762 4.39971203e-29 2.50093746</_>
    <_>
      -2.20330276e+16 1.95458627 -1.26174374e+35 1.60080719
      1.96828859e-21 1.94838727 -82215888. 1.948771 2.09881994e+37
      1.75558352 1.13675255e+34 1.75130689 8.10129865e+26 1.78915834
      2.85394179e-08 1.89635134 2.07427851e+17 -1.26546824
      1.34579701e+18 -1.5050807 1.73926182e+16 1.68538332 7.79064377e+11
      -1.78064954 1.15729052e+26 1.69502735 1.19617136e+13 1.71300864
      3.30573994e+36 -1.78767145</_>
    <_>
      -1.71878472e+25 1.9513911 -1.70360599e+38 1.75708139 1912.60437
      1.94426823 -1.02082312e+27 1.95445919 -0.000503967342 -1.55506849
      -1.15646022e-18 1.74882352 -1.29075014e-13 1.74105966
      -6.4693234e-35 1.86998379 0.0200961735 1.87886977 1.39005166e+11
      -1.87264156 85.6329956 1.99819088 1.65748432e+22 -1.34891486
      -3.51987035e+17 1.97405946 -4.44917873e-16 1.98119092
      -6.5081429e+16 -1.40799224</_>
    <_>
      3.22895544e+11 1.67358899 -69495.7344 1.42018056 -1011.67914
      1.84089541 -5.20706553e-27 -1.56537151 5.1773523e-11 1.43919837
      1.40878216e-26 1.99489605 3.47742086e-32 1.7412349 .Nan 1.98470783
      -4.02618523e-31 1.99795723 -1067757. 1.5035007 -0.000934463926
      1.72021544 5.31405894e-24 1.71471679 -2.57407176e-35 1.87827218
      -3.88658134e+34 1.63689995 -5.05823207e-28 -1.40470064</_>
    <_>
      3.03859824e-37 -1.63594222 1.34111727e+13 1.77162564
      -7.39975775e-15 -1.63487792 2.91469295e+29 -1.67546558
      -1.87816634e+38 1.34695601 -6.21966927e+17 0.983862042
      -4.1079372e-35 -1.4059155 -5.3542737e+37 1.43576062
      -9.58533558e+36 -1.61456978 6.64971625e+13 -1.52067435
      6.27054604e-08 -1.81572151 5679.46143 -1.88710845 2.07421808e-26
      -1.81460404 2.65907264 -1.76716995 -7.97076527e+29 -1.90379691</_>
    <_>
      -0.0810271353 -1.61354423 -6.90248001e-36 -1.76893222
      -0.00113060488 1.7885828 2.08884189e-26 1.90555108 -3.96786003e-20
      1.68725252 -1.27538988e-25 -1.87733471 1.71941843e-23 -1.93029296
      3.35576967e-25 -1.88124835 -44982.8594 -1.83774388 6.39884723e-31
      -1.73602545 4.78088522e-34 -1.88666272 -3.07290129e+25 -1.88961291
      .Nan -1.88617563 3.49317129e-15 -1.95197093 1.1558669e+30
      -1.77484179</_>
    <_>
      3.26814698e-20 -1.70562148 -0.000745241879 -1.69601953
      2.49118602e-29 -1.81840003 .Nan -1.44912529 -5.67015578e+09
      -1.72466302 3.58960138e+16 -1.75956166 3.34417284e+12 -1.50156593
      6.10435942e+13 -1.77006602 -35649468. -1.76241732 -3.07058567e+15
      1.60870683 -1.40759399e-34 -1.67164648 57163.5195 -1.59323204
      3.66423732e+24 -1.77074218 -1.7667067e-19 1.81842351 -3715196.75
      -1.63038826</_>
    <_>
      3.2539004e-23 -1.82408047 -4.91155239e-18 -1.64131045
      6.23315084e-21 -1.67690074 -7.98249047e-33 1.55512857
      -1.90394202e+13 1.5108285 7.21795786e-19 -1.8882066
      -4.50372703e+24 -1.10225999 3807802.25 -1.89208293 797493.25
      -1.85193908 7.39803941e+26 -1.76164293 .Nan -1.87627769
      6.56194638e-17 -1.83931553 0.000169958075 -1.89493096
      -4.23913555e-22 -1.76605248 1.49904974e-35 -1.63149667</_>
    <_>
      -426.252747 -1.72713888 -2.26598999e-07 -1.79338551 .Nan
      -1.6846056 -1.25629325e+25 1.63789022 1.15368708e-17 -1.45342648
      -6.62856394e-07 -1.80563748 -6.16793829e-31 1.55132341
      3.30279361e+14 -1.8081919 -28174972. -1.79093945 -5.15991815e-05
      1.69575799 -2.23321824e+38 -1.73875916 -2.52936778e+38 -1.85900927
      3.00427399e-35 -1.81756401 1.3565562e-09 -1.75311029
      -5.22333288e-11 -1.54046142</_>
    <_>
      -6.13303218e-14 -1.79026723 -4.55804047e-20 -1.81894958
      -4.89283728e-33 -1.82237411 -0.00987911411 -1.51572931
      -3.55715574e-33 -1.75964832 1.43488597e+13 -1.87655818
      2.95470278e+21 -1.95410883 9.69328784e-12 -1.876706 .Nan
      -1.83862281 5.70028747e+16 1.41932976 -5.07105467e-24 -1.76696253
      5.97315847e+37 -1.84813094 -4.62096189e-38 -1.8063724
      3.42672759e+25 1.35954118 -1.41177584e+35 -1.68635821</_>
    <_>
      -2.87327271e-06 -1.2923317 -8.6980511e-16 1.40374994 -0.319456339
      -1.26488733 -2.86240378e-13 -1.53253222 2.51802484e+25 1.79650366
      207.724838 1.54478657 -5.21525227e+27 1.64940834 -22560238.
      1.70262265 3.55462878e+24 -1.75517309 -1.52623464e+11 1.68729305
      -8.65883259e-35 -1.79135931 -7.01558227e+11 -1.73908818
      -3.01613379e-09 -1.78143692 -5.74902422e-24 -1.73637617
      -5.97566157e-07 -1.76892066</_>
    <_>
      -3.74643689e+14 -1.7114898 .Nan -1.66650975 0.014448652
      -1.68079376 -9.08031958e-30 -1.87580502 3.98298334e-32 -1.67946208
      -0.000188494378 1.53462124 1.39698475e-08 1.83355308
      -2.56036456e+14 1.57274175 -1.27789955e+16 -1.15867794
      -8.88554084e-08 1.90852916 3.45236755e-29 1.78806639
      -1.48496479e+23 1.78657031 -4.25638038e+22 1.87960446
      -1.0943776e-36 1.72506905 -1.59883364e+24 1.89930522</_>
    <_>
      -8.56270056e-26 -1.48703349 -5.86047947e+11 1.67922497
      -6.91534581e-07 -1.39573359 -493748640. -1.59396482 5.22119964e+13
      1.95050609 -7.91675886e+32 1.89251268 2.0421561e+17 1.36910295
      3.87042889e-24 1.64097512 -1.45052156e+36 1.92541921
      2.72405904e+38 1.95754409 403.383087 1.78590572 -3.96377736e+36
      1.64528036 -2.39617792e+09 1.7450254 -12832.4551 1.60872233
      8.01553119e-21 1.7720077</_>
    <_>
      -3.58507542e-16 1.78668642 1.52914601e+16 1.75494468
      -8.17316024e+12 -1.58362377 -2.55785173e+26 -1.63090384
      -5.98099122e-21 1.89605677 .Nan -1.7163173 1.44284783e-18
      -1.70739973 -43.959362 -1.67917979 -1.00601127e-21 -1.74618077
      1.11747793e-08 1.72644317 9.82779198e-23 1.79204226 2.27067865e+27
      1.60725534 4.07288881e+36 -1.62612355 -1.74405504e+12 -1.50726271
      1.16086664e+22 1.94294524</_>
    <_>
      3.03859824e-37 -1.63594222 -9.59116794e-16 -1.52152336
      1.08373397e+21 -1.62168944 1.19522929e+30 -1.67105722
      -1.44647054e+35 1.92292941 -8.90509147e-18 1.67775548
      -3.82399831e-26 1.71218324 -5.86830636e+25 1.78286457
      1.67675085e-15 1.89438629 6.02142793e+19 1.80122197 1.71211404e+28
      -1.71307337 0.000465035788 -1.77157784 1476.5564 -1.73985696
      -1.05365167e-29 -1.67697155 -1.49502495e+22 -1.54466641</_>
    <_>
      -1781.20667 -1.84136844 1262.11316 -1.46392655 -3.25711066e-37
      -1.81724524 3.00627975e+23 -1.83353603 -0.968692482 1.97452438
      8.89051055e-28 2.01309156 -187310944. 1.87570763 -3.0295829e-38
      1.69024158 -1.45052156e+36 1.92541921 3.69827796e+25 2.0459671
      -1.38248561e-06 -1.79984093 7.47849296e+33 -1.67222965
      -7.21426153e-20 -1.76695728 -9.53177823e-06 -1.76992011
      3.88287911e-35 1.49269056</_>
    <_>
      -4.46108262e+10 -1.88039815 3.58952939e+15 -1.86265886
      0.00110152957 -1.91985655 8.16873402e+16 -1.54236662
      2.03083633e+22 -1.73846924 -21002448. -1.82738113 -3.46188947e-37
      2.07777953 3.83964937e+32 -1.83961594 -1.29434471e+36 -1.80504668
      -1.67590421e+19 -1.92769194 7.65293481e-29 -1.89743733
      3.5846514e-21 -1.89932799 1.94659287e+12 -1.91099501
      -2.75350989e+28 1.13258398 1.9357555e+18 -1.77567303</_>
    <_>
      -1.20616899e+31 1.73450851 -7.89825833e-07 1.71811152
      2.67423351e-37 1.73632836 5.02046549e-26 1.90857804
      -3.22908388e-12 1.6959523 -1.06235372e+15 -1.83980608
      2.10498285e-09 -1.95064843 3.2424047 -1.83082914 .Nan -1.8126936
      8.69967154e+15 -1.9896102 -47055.5625 -1.82962227 -1.20663016e+27
      -1.80741191 -9.60245814e+19 -1.89348435 5.38731823e-32 -1.75634587
      -6.96113213e+15 -1.8157109</_>
    <_>
      -0.36597535 -1.73676717 1.36726751e+34 1.88817978 -38456.8242
      -1.6647408 105992.992 -1.75226581 -9.5784161e-20 1.94783735
      4.27830546e-27 2.07041979 -4.55357418e-33 1.96735895
      -5.70445826e-31 1.86044002 1.84300658e-16 1.82432449
      -5.70587183e-20 2.0978868 4.28466245e-19 -1.69412506
      9.21043995e+36 1.79833627 6.39719249e+24 -1.70470977
      -1.02215868e+29 -1.68038177 9.58865151e+26 1.26903391</_>
    <_>
      5.18848671e+16 -1.53611887 -321.946045 -1.90677583 3.4640045e-16
      -1.51418304 3.31530609e+10 -1.63308847 1.38743261e-17 1.78049147
      2.92769392e+23 1.64080012 .Nan -1.503052 0.000181515541
      -1.47745883 3.33167702e+36 1.76225841 -1.20050912e+26 1.25677478
      4.29377326e+21 -1.7587862 2.74072587e-08 -1.91300821
      4.07065907e-30 -1.71164024 1.4174968e-16 -1.71239436
      -5.27812536e-30 -1.69833779</_>
    <_>
      2.45068767e-32 1.75734448 1.18289767e-34 -1.7195611 2.91725995e-29
      1.8627938 -1.20586938e-18 -1.77460146 -3.82561901e-17 1.81687701
      .Nan -1.79528332 656680.375 1.88257062 -3.09417528e+31 -1.78242707
      -2.00601453e+28 -1.79766345 1533261.75 1.99346125 3.20723294e+14
      1.7253046 -9.97300112e+20 -1.78414392 5.97961413e+24 1.62157607
      -1.9041405e-13 -1.53314722 -9.96267829e-34 1.84325767</_>
    <_>
      2.55317204e-17 1.63245118 28.1261101 1.50074339 -8.04294208e+32
      1.67157698 -2.37283984e-07 1.51922691 4.00298195e+29 1.7591418
      -2.41115789e+23 1.86643708 2.29806155e-19 1.87743402
      -1.19929373e+36 1.87648988 2.36135168e+09 1.53338289
      -1.09434017e-08 0.971147895 -1.09713589e-08 1.62926006
      -8.39723516e+11 -1.72901857 3.09593671e+35 1.70789814
      2.46629276e+19 1.52467585 31080.7773 1.80909252</_>
    <_>
      -1.14139693e-05 1.87612736 -1.09606704e+36 1.66875315 1411461.12
      1.88093829 1.7230914e+19 1.84457242 -578.614197 1.88467801
      2.13373957e-24 1.89725065 5.62712366e-13 1.90175927
      -8.21829526e+20 1.93210816 -0.00728867576 1.770473 3.46310349e+09
      -1.536268 -22284702. 1.93322504 -2.06842442e+25 1.66614532
      -0.0184009094 1.91546023 3.57037386e-11 1.89733696 6.82608902e+30
      1.79134178</_></support_vectors>
  <decision_functions>
    <_>
      <sv_count>56</sv_count>
      <rho>8.507058586735059e+36</rho>
      <alpha>
        1. 1. 1. 1. 1. 1. 1. 1. 1. 1. 1. 1. 1. 1. 1. 1. 1. 1. 1. 1. 1.
        1. 1. 1. 1. 1. 1. 1. -1. -1. -1. -1. -1. -1. -1. -1. -1. -1. -1.
        -1. -1. -1. -1. -1. -1. -1. -1. -1. -1. -1. -1. -1. -1. -1. -1.
        -1.</alpha>
      <index>
        20 49 15 36 39 32 8 38 44 22 16 13 53 24 17 40 41 42 21 27 46 19
        18 50 52 0 23 14 12 11 10 9 7 6 5 4 37 3 35 2 1 34 33 31 30 55
        54 51 29 48 47 28 26 45 25 43</index></_></decision_functions></opencv_ml_svm>
</opencv_storage>
