<?xml version="1.0"?>
<opencv_storage>
<opencv_ml_svm>
  <format>3</format>
  <svmType>C_SVC</svmType>
  <kernel>
    <type>RBF</type>
    <gamma>0.5</gamma></kernel>
  <C>1.</C>
  <term_criteria><iterations>1000</iterations></term_criteria>
  <var_count>12</var_count>
  <class_count>7</class_count>
  <class_labels type_id="opencv-matrix">
    <rows>7</rows>
    <cols>1</cols>
    <dt>i</dt>
    <data>
      0 1 2 3 4 5 6</data></class_labels>
  <sv_total>589</sv_total>
  <support_vectors>
    <_>
      2.39520718e+28 -1.94185328 3.26885064e+22 1.3696152 -1.0608311e-27
      1.62905979 2.15290023e-20 1.56809676 -1.54738613e-12 1.79441667
      2.32717999e-29 -1.96877372</_>
    <_>
      -1.04082621e-37 -1.61822975 -4.39499548e-10 -1.85228479
      -4.61993613e+36 1.59086597 -0.905841947 1.65310383 5.62897773e-09
      -1.65748751 -1.01388643e-07 1.89420378</_>
    <_>
      3.08945658e-21 1.53876209 1.05811949e-27 -1.73289323
      -4.74577528e+13 -1.80926514 -0.149161845 -1.77834618
      -2.67293366e+29 1.54957283 -9.78711006e-26 1.76784158</_>
    <_>
      -5.8046133e+36 1.96066058 1911.60791 -1.71159148 4.70057821
      1.93182814 1.58778671e-13 -1.78491986 -4.95217052e-17 1.75321627
      .Nan -1.92273259</_>
    <_>
      -0.216503307 -1.96618199 8.27777219e-22 1.75034559 5.6977347e-27
      -1.48014605 7.32788355e+31 2.25149274 -0.0149191292 1.90807617
      2.32717999e-29 -1.96877372</_>
    <_>
      -4.03106654e+37 1.38066518 9.78597471e-19 -1.68121922
      8.80357856e+25 1.7994014 5.33710538e-18 1.98533583 -5.48797143e+17
      -1.72885299 2.14417327e-07 1.88011777</_>
    <_>
      6.26665226e+10 -1.73732579 1.02887867e-20 -1.83709872
      -4.85271753e-11 -1.66734672 1.33600546e-24 1.89337456
      -3.19485244e+33 -1.75369954 4.71764763e+20 -1.42188597</_>
    <_>
      -7.21757271e-38 1.96510017 -5.55981384e-19 1.93356884
      1.83225109e-23 -1.6144706 -1.42246222e-06 1.79088604
      -1.52901509e+18 -1.88539517 -9.78711006e-26 1.76784158</_>
    <_>
      .Nan 1.86941719 -2.38333972e+17 1.91689348 9.14236118e-15
      -1.82481492 2.79099703 -1.5179373 -1.00294608e+27 -1.89587629
      -9.78711006e-26 1.76784158</_>
    <_>
      5.69535116e+29 -1.80151832 1.3641705e+25 -1.79154027 48296932.
      1.4064523 -0.905841947 1.65310383 -1.09356348e+13 -1.48030293
      3.48941745e-28 -1.7120043</_>
    <_>
      6.18366768e-16 1.9584651 6.06557316e+26 1.93231821 7.45520842e-21
      -1.87146401 266767712. 1.87489462 4.45694853e+21 -1.83290374
      -9.78711006e-26 1.76784158</_>
    <_>
      -8.30444995e+29 -1.6601851 -5.91439501e+35 -1.80672634
      -3.18908455e-10 1.02549922 1.84224534e+18 1.44202125
      1.11548886e-19 -1.35723627 -7.30938805e+27 1.75846088</_>
    <_>
      6.60553106e+33 1.7853725 0.00114126049 -1.64951658 5.6977347e-27
      -1.48014605 1.05228245e+23 1.63015175 2.26495072e-08 1.62921095
      -9.78711006e-26 1.76784158</_>
    <_>
      1.38185743e-18 -1.54108918 6848.35156 -1.761168 4.16580724e-13
      1.8510164 -1.51848076e-06 -1.79017472 5.62897773e-09 -1.65748751
      -7.30938805e+27 1.75846088</_>
    <_>
      -3.29912901 1.2846266 -1.54025898e+28 -1.91911411 -6.34888336e+12
      -1.681934 6.91449249e-18 -1.67227888 -2.35087783e-11 1.89759505
      -9.78711006e-26 1.76784158</_>
    <_>
      5.73931622e+35 1.9275012 9.46590828e-14 1.65397429 1.01214757e-21
      -1.74413288 6.91449249e-18 -1.67227888 -1.73487266e-38 -1.85386598
      -9.78711006e-26 1.76784158</_>
    <_>
      3.9708493e+24 1.89316261 3.62873921e-22 1.79255474 -2.60639242e-26
      1.7649914 9.34719476e-28 -1.83221424 -1.59567586e-31 1.65652084
      -1.53842766e-35 -1.8155185</_>
    <_>
      -4.57077207e-19 -1.84008861 1911.60791 -1.71159148 -3.18908455e-10
      1.02549922 7.75827456 -1.85323393 6.88641095e-34 -1.78224587
      1.55351894e-27 -1.68383217</_>
    <_>
      -4.03106654e+37 1.38066518 3.88152988e+24 -1.74196374
      1.61799916e+26 1.89741814 -5.6141972e+22 -1.43633354
      -2.81652807e-18 -1.82506514 -1.06845839e-28 1.41617954</_>
    <_>
      1.36327537e-26 -1.06392741 2.53989945e+25 -1.87882853 .Nan
      1.7821964 -9.44435669e-35 -1.82695925 -1.09356348e+13 -1.48030293
      1.55351894e-27 -1.68383217</_>
    <_>
      6.7958781e-19 -1.6987555 -1.78585659e-35 -1.35986269
      -1.64756364e+12 1.64234293 -2.58811796e+31 1.61814857 -22595894.
      -1.70030677 -638.937744 1.57077825</_>
    <_>
      -1.21020121e+33 0.947310448 -1.749192e+15 -1.89451802 .Nan
      -1.9432056 -2.93146617e+14 -1.93588412 -6.74604876e+15 1.92903841
      -9.78711006e-26 1.76784158</_>
    <_>
      6.26665226e+10 -1.73732579 -2.26615633e-31 -1.82191253
      5.61163548e+16 -1.50323367 -0.00497717876 1.85919976
      3.57433947e+12 -1.71457994 -2.48195701e+29 1.98576319</_>
    <_>
      -8.30444995e+29 -1.6601851 -4.39499548e-10 -1.85228479
      -2.60639242e-26 1.7649914 -5.4400745e+32 1.85657227
      -1.52596954e-06 -1.2361027 3.41293985e+27 1.77254701</_>
    <_>
      -5.58707433e+24 -1.87682939 3.88152988e+24 -1.74196374
      -4.84784736e+14 -1.81190324 9.57342457e+31 1.93541396
      6.88641095e-34 -1.78224587 -3.19753616e+19 1.65423334</_>
    <_>
      2.80623984e+29 1.83418465 9.88125266e+11 0.877423823
      -2.60639242e-26 1.7649914 1.58778671e-13 -1.78491986
      7.05158931e+35 1.62797463 1.55351894e-27 -1.68383217</_>
    <_>
      6.7958781e-19 -1.6987555 -2.93083032e+14 -1.77635407
      7.22185457e-26 1.8682214 14.302824 -1.79542971 -95772072.
      -1.78938234 -7.093985e-35 -1.78734636</_>
    <_>
      1.34783468e+19 1.51747322 -1.24193127e-06 -1.61594927
      1.61799916e+26 1.89741814 1.26482957e+33 1.76986599
      -1.52596954e-06 -1.2361027 2.14417327e-07 1.88011777</_>
    <_>
      -1.99323855e+29 1.72551775 -5.9110801e+37 -1.65084684
      -2.86591272e+27 -1.79469824 -5.8837804e-31 1.83818007
      3.95315872e+30 -0.811228096 -3.35959666e+26 1.81480515</_>
    <_>
      5.69535116e+29 -1.80151832 2.53989945e+25 -1.87882853
      -3.18908455e-10 1.02549922 -2.60961759e-08 -1.6306622
      -5.48797143e+17 -1.72885299 -7.09323648e+18 1.68240547</_>
    <_>
      -4.36004982e-37 -1.4278971 9.88125266e+11 0.877423823
      -3.18908455e-10 1.02549922 1.32751936e+15 -1.80593956
      -2.23153615e+36 -1.51869762 4.71764763e+20 -1.42188597</_>
    <_>
      6.16129494 -1.76294804 20.1106472 -1.86747098 .Nan 1.7821964
      -5.55329777e-25 1.98008084 8.93565237e+22 -1.74312615
      3.46741811e+25 1.85706341</_>
    <_>
      6.16129494 -1.76294804 1.4568959e+10 -1.48892045 5.61163548e+16
      -1.50323367 -1.51848076e-06 -1.79017472 -2.23153615e+36
      -1.51869762 1.5128245e-34 -1.77326035</_>
    <_>
      -2.00219774 1.68694746 9.78597471e-19 -1.68121922 4.14969207e+12
      1.74557292 86379.8906 1.80665052 .Nan -1.76797271 8.22424311e-39
      -1.90864658</_>
    <_>
      1.36327537e-26 -1.06392741 -2.26615633e-31 -1.82191253 -4.77548313
      -1.36265492 1.43869982e-38 1.88286471 588.039124 -1.77510929
      -3.19753616e+19 1.65423334</_>
    <_>
      -1.8788223e+15 -1.78223312 -1.24193127e-06 -1.61594927
      -4.85271753e-11 -1.66734672 -5.6141972e+22 -1.43633354
      -7.65206813e+31 1.34950316 3.70364763e-12 -1.57363153</_>
    <_>
      1.36327537e-26 -1.06392741 -4.39499548e-10 -1.85228479 -4.77548313
      -1.36265492 -9.44435669e-35 -1.82695925 -46.4129143 1.54531062
      2.38760839e+13 1.21396422</_>
    <_>
      8.53258725e+36 -1.94432747 -1.48843e-08 -1.88642156 5.08096143e+10
      1.52204609 -7.20822231e+21 -1.86899865 -2.28776209e+18 -1.81792855
      3.39593341e-26 -1.6274879</_>
    <_>
      1.38185743e-18 -1.54108918 -3.05452307e+13 -1.91679382
      4.37334351e-35 -1.57205367 1.66851203e+32 1.87760973
      8.93565237e+22 -1.74312615 3.41293985e+27 1.77254701</_>
    <_>
      -2.90771283e-07 -1.88647199 -8.46915961e+22 1.49703586
      1.49513648e+38 1.71116292 7.49168058e+14 -1.86374378
      -0.00365217379 -1.76083612 0.488882989 -1.94386172</_>
    <_>
      1.36327537e-26 -1.06392741 -2.93083032e+14 -1.77635407
      4.37334351e-35 -1.57205367 14.302824 -1.79542971 -0.00365217379
      -1.76083612 -7.09323648e+18 1.68240547</_>
    <_>
      -2.20159823e-29 1.64837718 1.02887867e-20 -1.83709872
      5.61163548e+16 -1.50323367 -5.55329777e-25 1.98008084
      3.95315872e+30 -0.811228096 4.77843116e-08 1.90828991</_>
    <_>
      -4.03106654e+37 1.38066518 9.78597471e-19 -1.68121922
      8.80357856e+25 1.7994014 -8.31584089e-07 -1.84797895 -95772072.
      -1.78938234 4.71764763e+20 -1.42188597</_>
    <_>
      1.86836115e-13 1.73227692 2.57751087e+14 -1.84566736
      1.46021129e-09 -1.65083468 -4.24193355e-14 -1.7951479
      -2.67293366e+29 1.54957283 -9.78711006e-26 1.76784158</_>
    <_>
      -1.44341336e+12 1.67034912 -2.79982152e+32 -1.78313482
      2.0345703e+35 -1.84036458 482397.375 1.95055497 -4.02343905e+18
      -1.40394807 -9.78711006e-26 1.76784158</_>
    <_>
      -8.30444995e+29 -1.6601851 -3.52871341e+24 2.00082469
      5.61163548e+16 -1.50323367 8.03359539e+10 1.9485513 712581.25
      2.41742802 7.73759448e-29 -1.74017644</_>
    <_>
      1.07430864e+12 -1.31924593 4.34463244e+11 -1.51061499
      -6.34888336e+12 -1.681934 6.91449249e-18 -1.67227888
      4.61605437e+11 -1.96924424 -9.78711006e-26 1.76784158</_>
    <_>
      9.05966783e-39 1.91244781 -4.14805061e-31 -1.90920079
      1.61799916e+26 1.89741814 -76180592. -1.8584888 -2.81652807e-18
      -1.82506514 .Nan -1.92273259</_>
    <_>
      9.05966783e-39 1.91244781 -1.24193127e-06 -1.61594927
      -4.61993613e+36 1.59086597 -2.49711146e-12 -1.55224562
      -1.07680464e-28 -1.79651892 -1.06845839e-28 1.41617954</_>
    <_>
      -0.987474203 1.59461379 -2.93083032e+14 -1.77635407 -4.77548313
      -1.36265492 7.30750896e-25 1.95117879 4.87524997e-31 -1.54724395
      3.39593341e-26 -1.6274879</_>
    <_>
      -2.20159823e-29 1.64837718 3.61506646e+28 -1.55520475
      1.61799916e+26 1.89741814 7.54496966e+24 1.95906115 -46.4129143
      1.54531062 5.06995732e+31 1.88716078</_>
    <_>
      1.24127819e-31 -1.89761925 -3.58385904e-07 1.94607532
      -1.03760665e+18 1.91443729 -1.16141844e+37 1.90855062
      9.66467586e+29 1.75249219 2.32717999e-29 -1.96877372</_>
    <_>
      6.16129494 -1.76294804 -5.91439501e+35 -1.80672634 4.33799133e+15
      -1.73616672 .Nan 2.05627728 4.87524997e-31 -1.54724395
      -3.35959666e+26 1.81480515</_>
    <_>
      -9.84647002e-15 1.77632916 6848.35156 -1.761168 4.63313984e-25
      -1.91227162 -1.34402261e+21 2.05890465 .Nan -1.76797271
      2.14417327e-07 1.88011777</_>
    <_>
      0.000111092988 1.97837043 5.44828806e-25 1.95441306 -2.4716972e-14
      -1.95098042 -5.11005645e+09 -1.73948562 2.43153513e-14 -1.79097927
      -9.78711006e-26 1.76784158</_>
    <_>
      -1.19098341 -1.76541913 1.22934599e-29 -1.96205318 5.14006244e+32
      -1.98985469 1.05228245e+23 1.63015175 -0.0149191292 1.90807617
      -9.78711006e-26 1.76784158</_>
    <_>
      1.38185743e-18 -1.54108918 -1.11373417e+34 1.92489409
      -3.80952867e+33 -1.938079 1.07617861e-37 1.77512097
      -1.89825379e+37 1.88547361 3.48941745e-28 -1.7120043</_>
    <_>
      1.36327537e-26 -1.06392741 1.4568959e+10 -1.48892045
      -5.65223545e-39 1.88021314 -7.40012403e-34 -1.39429414
      -0.000873837096 -1.67176056 -7.093985e-35 -1.78734636</_>
    <_>
      65433.3398 -1.84946394 2.67766434e+29 -1.90410638 -6.0300388e-33
      -1.8965565 .Nan -1.82875133 1.08210408e-26 1.970963
      -9.78711006e-26 1.76784158</_>
    <_>
      -0.0255324654 1.87663198 .Nan 1.91772723 1.83225109e-23 -1.6144706
      2.15290023e-20 1.56809676 -6.36196559e+35 -1.90635741
      -9.78711006e-26 1.76784158</_>
    <_>
      -1.04082621e-37 -1.61822975 -8.46915961e+22 1.49703586
      5.08096143e+10 1.52204609 -2.60961759e-08 -1.6306622
      1.33965005e-15 -1.88571537 1.04910738e-08 1.93646204</_>
    <_>
      -1.8788223e+15 -1.78223312 -2.93083032e+14 -1.77635407
      -1.35185097e-36 -1.70175672 1.26482957e+33 1.76986599
      1.11548886e-19 -1.35723627 3.46741811e+25 1.85706341</_>
    <_>
      235002.016 1.85614705 9.54097612e-34 -1.84983623 1.83225109e-23
      -1.6144706 .Nan -1.82875133 -1.64141885e-18 -1.70618498
      -9.78711006e-26 1.76784158</_>
    <_>
      1.48338341e-33 -1.82080352 1.3641705e+25 -1.79154027
      1.49513648e+38 1.71116292 -9.44435669e-35 -1.82695925
      -0.000873837096 -1.67176056 4.45495567e-38 -1.88047445</_>
    <_>
      3.17402734e-29 1.75704408 -2.377067e-34 1.99323177 -18769.668
      -2.02410388 -9.16650455e-21 -1.8374691 -22.7905579 1.89261019 .Nan
      -1.92273259</_>
    <_>
      -6.77251094e-12 -1.98289776 0.387401015 1.98563874 1.87611696e-31
      -1.92087412 7.75827456 -1.85323393 -2.23468661e-28 -1.9035567
      -2.55952529e+38 -1.9368186</_>
    <_>
      -1.99323855e+29 1.72551775 1.4568959e+10 -1.48892045 -4.77548313
      -1.36265492 -1.17364559e+36 -1.82170427 .Nan -1.76797271
      -7.31257712e+25 1.84297729</_>
    <_>
      -860512832. 1.84730017 -5.37808323e-16 1.78369617 -2.10447075e-20
      -1.99762952 .Nan -1.82875133 3.72435402e-33 -1.91683865
      -9.78711006e-26 1.76784158</_>
    <_>
      6.26665226e+10 -1.73732579 -1.78585659e-35 -1.35986269 -4.77548313
      -1.36265492 8.80133843e-14 -1.84272408 1.10326953e+21 -1.87857878
      4.71764763e+20 -1.42188597</_>
    <_>
      1.38185743e-18 -1.54108918 -5.91439501e+35 -1.80672634
      -1.35185097e-36 -1.70175672 -2.14562636e+36 -1.76390004 .Nan
      -1.76797271 -3.35959666e+26 1.81480515</_>
    <_>
      6.58297012e+22 1.64380872 -8.99159875e+32 -1.91327775
      -2.61062581e+15 1.81392741 .Nan -1.82875133 -0.0149191292
      1.90807617 -9.78711006e-26 1.76784158</_>
    <_>
      -4.36004982e-37 -1.4278971 0.726090908 1.822927 4.37334351e-35
      -1.57205367 0.000471078325 1.99584568 -7.0382363e-08 -1.85361135
      7.73759448e-29 -1.74017644</_>
    <_>
      6.26665226e+10 -1.73732579 -8.46915961e+22 1.49703586
      4.37334351e-35 -1.57205367 -9.44435669e-35 -1.82695925
      -6.45770741e-39 -1.87501049 1.55351894e-27 -1.68383217</_>
    <_>
      2.80623984e+29 1.83418465 9.78597471e-19 -1.68121922
      4.09939395e+32 1.88881564 -133107984. -1.80068457 1.55161506e-22
      1.88190544 .Nan -1.92273259</_>
    <_>
      -2.90771283e-07 -1.88647199 -2.26615633e-31 -1.82191253
      -3.18908455e-10 1.02549922 -9.44435669e-35 -1.82695925
      5.62897773e-09 -1.65748751 -1.548158e+18 1.71057761</_>
    <_>
      -1.50908326e-38 -1.89611459 -8.69816693e+13 -1.72677755
      -1.73145849e+15 -1.63293672 -0.905841947 1.65310383 .Nan
      -1.76797271 -7.31257712e+25 1.84297729</_>
    <_>
      -4.36004982e-37 -1.4278971 -8.46915961e+22 1.49703586
      -1.73145849e+15 -1.63293672 1.58778671e-13 -1.78491986 .Nan
      -1.76797271 -1.42311118e+20 1.6260612</_>
    <_>
      6.26665226e+10 -1.73732579 -1.48843e-08 -1.88642156
      -3.18908455e-10 1.02549922 -9.16650455e-21 -1.8374691 588.039124
      -1.77510929 2.14417327e-07 1.88011777</_>
    <_>
      .Nan 1.86941719 2.15293053e-34 -1.96788955 -1.08094026e+18
      1.57092083 1.63210275e+29 -1.011379 0.0583349988 2.04433084
      -9.78711006e-26 1.76784158</_>
    <_>
      -860512832. 1.84730017 -5.37808323e-16 1.78369617 -2.10447075e-20
      -1.99762952 .Nan -1.82875133 3.72435402e-33 -1.91683865
      -9.78711006e-26 1.76784158</_>
    <_>
      3.71026685e+24 1.61838341 9.39956087e+34 1.96275067 1.10063561e+37
      1.84502685 .Nan -1.82875133 -1.00294608e+27 -1.89587629
      -9.78711006e-26 1.76784158</_>
    <_>
      1.48338341e-33 -1.82080352 1.4568959e+10 -1.48892045
      1.87611696e-31 -1.92087412 3.8824727e+09 -1.51020622
      1.11548886e-19 -1.35723627 .Nan -1.92273259</_>
    <_>
      -2.90771283e-07 -1.88647199 9.78597471e-19 -1.68121922
      -4.61993613e+36 1.59086597 -1.51848076e-06 -1.79017472
      -1.68209233e-08 -1.4232105 -3.19753616e+19 1.65423334</_>
    <_>
      1.38185743e-18 -1.54108918 -1.9569564e+38 2.23241329
      -1.7725868e-05 -1.989694 1.32751936e+15 -1.80593956
      -9.27598138e-22 1.84599149 4.45495567e-38 -1.88047445</_>
    <_>
      -4.99802124e-28 -1.38251019 6.2850728e-07 -1.92078173
      5.60812829e-36 -1.91988111 .Nan -1.82875133 1.08210408e-26
      1.970963 -9.78711006e-26 1.76784158</_>
    <_>
      -1.50908326e-38 -1.89611459 -0.00039137603 2.30005288
      -1.54712961e+27 -1.9466815 9.34719476e-28 -1.83221424
      9.42582113e+30 2.16379929 2.3016386 -1.91568959</_>
    <_>
      -1.04082621e-37 -1.61822975 4.71267783e+21 1.65287578
      8.50338413e-25 -1.76028836 -133107984. -1.80068457 4.23558826e-30
      1.91401994 -2.55952529e+38 -1.9368186</_>
    <_>
      4.10269454e-14 1.52106845 -1.78457128e-06 1.77202344 5.5822762e+17
      1.02419281 .Nan -1.82875133 -1.52901509e+18 -1.88539517
      -9.78711006e-26 1.76784158</_>
    <_>
      4.67255212e-24 -1.91539979 1.99330778e-23 1.84570622 -18769.668
      -2.02410388 9.34719476e-28 -1.83221424 7.05158931e+35 1.62797463
      8.22424311e-39 -1.90864658</_>
    <_>
      0.000144330334 -1.85937381 -3.52871341e+24 2.00082469
      -2.55372363e+14 -1.9638865 -8.31584089e-07 -1.84797895 0.835998893
      1.4764365 -4.99385214 -1.90160346</_>
    <_>
      -4.57077207e-19 -1.84008861 -6.04998981e-39 1.62000704
      1.1603914e-18 -1.90366912 -1.99898039e+34 -1.66219175 0.835998893
      1.4764365 3.70364763e-12 -1.57363153</_>
    <_>
      -1.63183622e+35 1.59184289 1.53250261e+19 -1.83983099 .Nan
      -1.9432056 266767712. 1.87489462 -4.02343905e+18 -1.40394807
      -9.78711006e-26 1.76784158</_>
    <_>
      .Nan 1.86941719 2.44575472e+23 1.89604938 5.5822762e+17 1.02419281
      -5.20644002e+11 -1.76154447 -7.21090418e-21 -1.87482822
      -9.78711006e-26 1.76784158</_>
    <_>
      0.000144330334 -1.85937381 -5.9110801e+37 -1.65084684 .Nan
      1.7821964 1.3982027e+11 1.89074707 3.1442085e-10 -1.60433638
      -2.24371526e-08 1.92237592</_>
    <_>
      6.16129494 -1.76294804 -1.78585659e-35 -1.35986269 8.50338413e-25
      -1.76028836 -5.49394364e+24 1.9879632 3.1442085e-10 -1.60433638
      1.5128245e-34 -1.77326035</_>
    <_>
      -1.99323855e+29 1.72551775 1.41263475e+22 1.96285951 -44.1375427
      -1.9810915 -1.51848076e-06 -1.79017472 1.64550981e+35 1.78889906
      .Nan -1.92273259</_>
    <_>
      5.83525958e-29 2.14386964 1.41263475e+22 1.96285951 3.7445383e+13
      2.05226302 2.41026132e+14 -1.3295095 -8.19550426e+14 1.83885491
      .Nan -1.92273259</_>
    <_>
      8.53258725e+36 -1.94432747 -8.2851619e-33 1.77736855
      -1.7725868e-05 -1.989694 -9.16650455e-21 -1.8374691 .Nan
      -1.76797271 7.32357876e+26 1.80071914</_>
    <_>
      -0.987474203 1.59461379 -6.04998981e-39 1.62000704 4.09939395e+32
      1.88881564 1.62432893e-27 -1.77441001 -2.57962751 1.74215949
      7.73759448e-29 -1.74017644</_>
    <_>
      -1.8788223e+15 -1.78223312 1.4568959e+10 -1.48892045
      4.33799133e+15 -1.73616672 -5.6141972e+22 -1.43633354
      -1.52596954e-06 -1.2361027 8.19928084e-11 -1.51728725</_>
    <_>
      -9.24689816e+14 1.81489944 -2.5672719e-31 2.00841784
      5.61163548e+16 -1.50323367 -133107984. -1.80068457 2.11833032e-19
      -1.6289413 -1.53842766e-35 -1.8155185</_>
    <_>
      1.36327537e-26 -1.06392741 2.57381529e+23 1.90970802
      -1.54712961e+27 -1.9466815 9.34719476e-28 -1.83221424
      9.08079266e+16 1.93542957 7.10446645e-36 -1.82960463</_>
    <_>
      1.38185743e-18 -1.54108918 -5.91439501e+35 -1.80672634 -4.77548313
      -1.36265492 -1.74277426e-34 -1.76915503 1.78011496e-23 -1.81079209
      3.41293985e+27 1.77254701</_>
    <_>
      -80.1341782 2.1727972 1.4568959e+10 -1.48892045 7.91220821e-13
      1.94903314 -2.14562636e+36 -1.76390004 2.36850179e-37 1.80317223
      -1.42311118e+20 1.6260612</_>
    <_>
      2.93921685e-24 1.88326716 7.20637159e+12 -1.89743626
      1.46021129e-09 -1.65083468 .Nan -1.82875133 -4.33294044e+24
      1.93951952 -9.78711006e-26 1.76784158</_>
    <_>
      6.16129494 -1.76294804 9.78597471e-19 -1.68121922 4.37334351e-35
      -1.57205367 -1.74277426e-34 -1.76915503 -3.19485244e+33
      -1.75369954 3.39593341e-26 -1.6274879</_>
    <_>
      1.6087321e-30 -1.52972329 1.4796884e-30 -1.89576876 6.12100905e-07
      1.78282809 .Nan -1.82875133 1.10304224e-36 1.8573035
      -9.78711006e-26 1.76784158</_>
    <_>
      -9.84647002e-15 1.77632916 -5.91439501e+35 -1.80672634
      8.80357856e+25 1.7994014 -5.0463897e-11 1.99059069 -0.000873837096
      -1.67176056 1.5380636e+26 1.82889128</_>
    <_>
      -1.04082621e-37 -1.61822975 5.90659639e-32 2.06156945
      4.63313984e-25 -1.91227162 4.66334555e+24 1.55508947 .Nan
      -1.76797271 -7.093985e-35 -1.78734636</_>
    <_>
      -2.90771283e-07 -1.88647199 1.3641705e+25 -1.79154027 -4.77548313
      -1.36265492 1.31047033e+13 -1.70423126 -0.000873837096 -1.67176056
      -1.42311118e+20 1.6260612</_>
    <_>
      -1.39212191e+23 1.81191289 .Nan -1.94662845 -1.12222462e+11
      -1.55227172 1.18272079e-25 -1.88547909 -10098090. 1.91855729
      -9.78711006e-26 1.76784158</_>
    <_>
      -1.8788223e+15 -1.78223312 3.61506646e+28 -1.55520475
      -1.73145849e+15 -1.63293672 9.34719476e-28 -1.83221424
      -0.00365217379 -1.76083612 4.45495567e-38 -1.88047445</_>
    <_>
      -2.90771283e-07 -1.88647199 3.61506646e+28 -1.55520475
      -3.18908455e-10 1.02549922 -2.08110149e+16 -1.57326531
      -7.0382363e-08 -1.85361135 8.19928084e-11 -1.51728725</_>
    <_>
      -0.987474203 1.59461379 20.1106472 -1.86747098 -4.77548313
      -1.36265492 11448.9219 1.91439426 -2.23153615e+36 -1.51869762
      1.55351894e-27 -1.68383217</_>
    <_>
      -4.03106654e+37 1.38066518 2.53989945e+25 -1.87882853
      8.50338413e-25 -1.76028836 -1.35644812e+26 1.76461101
      -3.98474785e+14 1.98181713 -1.06845839e-28 1.41617954</_>
    <_>
      -1.8788223e+15 -1.78223312 -1.78585659e-35 -1.35986269
      -1.73145849e+15 -1.63293672 -2.26338145e+20 -1.6516819
      -5.48797143e+17 -1.72885299 1.55351894e-27 -1.68383217</_>
    <_>
      -1.78250032e+19 1.65265548 -23.6105347 -1.84816861 .Nan -1.9432056
      266767712. 1.87489462 -6.6545297e-15 1.7130599 -9.78711006e-26
      1.76784158</_>
    <_>
      -4.99802124e-28 -1.38251019 -3.58811264e-27 1.90313637 .Nan
      -1.9432056 3.60648762e+33 1.84129119 2.48610717e-24 -1.92731977
      -9.78711006e-26 1.76784158</_>
    <_>
      3.17402734e-29 1.75704408 -5.9110801e+37 -1.65084684
      4.14969207e+12 1.74557292 -1.03926851e-28 1.63208413 .Nan
      -1.76797271 .Nan -1.92273259</_>
    <_>
      -1.09588963e+27 2.25479007 -1.57583113e-11 1.80774081
      1.61799916e+26 1.89741814 -2.08110149e+16 -1.57326531
      6.45710633e-16 1.69934022 3.39593341e-26 -1.6274879</_>
    <_>
      3.17402734e-29 1.75704408 0.00025331034 1.55926251 5.61163548e+16
      -1.50323367 -1.74277426e-34 -1.76915503 -2.28776209e+18
      -1.81792855 -2.48195701e+29 1.98576319</_>
    <_>
      6.26665226e+10 -1.73732579 -5.91439501e+35 -1.80672634
      -4.62701844e-14 1.67675292 -8.31584089e-07 -1.84797895
      1.31933268e-21 1.41934407 1.5380636e+26 1.82889128</_>
    <_>
      -0.0255324654 1.87663198 -375542.375 1.904387 7.45520842e-21
      -1.87146401 .Nan -1.82875133 1.59596603e-15 -1.93780088
      -9.78711006e-26 1.76784158</_>
    <_>
      -8.30444995e+29 -1.6601851 3.62873921e-22 1.79255474
      -1.64756364e+12 1.64234293 -5.6141972e+22 -1.43633354 -95772072.
      -1.78938234 8.19928084e-11 -1.51728725</_>
    <_>
      1.85430322e+22 1.94137549 9.78597471e-19 -1.68121922
      7.22185457e-26 1.8682214 -8.8064708e-23 -1.73576081
      -7.65206813e+31 1.34950316 -3.30751755e+17 1.73874974</_>
    <_>
      -2.20159823e-29 1.64837718 -2.26615633e-31 -1.82191253
      -4.61993613e+36 1.59086597 -8.31584089e-07 -1.84797895
      3.57433947e+12 -1.71457994 2.3016386 -1.91568959</_>
    <_>
      -4.57077207e-19 -1.84008861 6848.35156 -1.761168 5.61163548e+16
      -1.50323367 -8.31584089e-07 -1.84797895 .Nan -1.76797271
      -1.58559284e+27 1.78663301</_>
    <_>
      -4.36004982e-37 -1.4278971 1.51924181e+35 2.03119707 -18769.668
      -2.02410388 -1.29835287e+22 -1.81119442 0.202501372 1.79603565
      1.49345682e-36 -1.85777676</_>
    <_>
      -0.987474203 1.59461379 1911.60791 -1.71159148 -1.64756364e+12
      1.64234293 -8.46468932e+13 1.66361368 .Nan -1.76797271
      1.5380636e+26 1.82889128</_>
    <_>
      1.38185743e-18 -1.54108918 3.61506646e+28 -1.55520475
      4.37334351e-35 -1.57205367 -9.16650455e-21 -1.8374691
      -0.00365217379 -1.76083612 -13422.5928 1.51443398</_>
    <_>
      6.7958781e-19 -1.6987555 0.726090908 1.822927 4.37334351e-35
      -1.57205367 3.62417236e+23 -1.52071607 6.88641095e-34 -1.78224587
      4.71764763e+20 -1.42188597</_>
    <_>
      -9.84647002e-15 1.77632916 3.61506646e+28 -1.55520475
      4.16580724e-13 1.8510164 -133107984. -1.80068457 -9.16264675e+29
      2.28540158 -1.05317557 -1.9297756</_>
    <_>
      9.06478712e-11 1.79864275 451416320. -1.71621788 3.44734361e+22
      2.20210671 .Nan -1.82875133 4.85781847e+15 -1.61967206
      -9.78711006e-26 1.76784158</_>
    <_>
      -1.04082621e-37 -1.61822975 -4.39499548e-10 -1.85228479
      -4.61993613e+36 1.59086597 -1.17364559e+36 -1.82170427 .Nan
      -1.76797271 -13422.5928 1.51443398</_>
    <_>
      6.16129494 -1.76294804 -8.2851619e-33 1.77736855 -5.65223545e-39
      1.88021314 3.18771282e-28 0.841002405 -2.08024042e-10 -1.89998841
      -3.35959666e+26 1.81480515</_>
    <_>
      2.80623984e+29 1.83418465 -1.78585659e-35 -1.35986269
      8.80357856e+25 1.7994014 -1.51848076e-06 -1.79017472
      6.45710633e-16 1.69934022 -4.99385214 -1.90160346</_>
    <_>
      6.7958781e-19 -1.6987555 9.78597471e-19 -1.68121922 -4.77548313
      -1.36265492 5.26842214e-08 1.70565319 3.57433947e+12 -1.71457994
      2.3016386 -1.91568959</_>
    <_>
      12738657. -1.48867202 2.35257672e+10 -1.92745185 .Nan -1.9432056
      -4.24193355e-14 -1.7951479 -2.35087783e-11 1.89759505
      -9.78711006e-26 1.76784158</_>
    <_>
      -9.24689816e+14 1.81489944 -5.91439501e+35 -1.80672634
      -1.64756364e+12 1.64234293 -1.0092993e-14 1.64259398
      6.88641095e-34 -1.78224587 4.45495567e-38 -1.88047445</_>
    <_>
      -4.03106654e+37 1.38066518 -8.35109815e-35 1.68324804
      -1.73145849e+15 -1.63293672 -3058.89062 1.59712887 -0.00365217379
      -1.76083612 3.39593341e-26 -1.6274879</_>
    <_>
      -1.99323855e+29 1.72551775 -5.9110801e+37 -1.65084684
      -1.64756364e+12 1.64234293 -8.46468932e+13 1.66361368 -22595894.
      -1.70030677 -1.548158e+18 1.71057761</_>
    <_>
      -4.57077207e-19 -1.84008861 -8.2851619e-33 1.77736855
      -1.73145849e+15 -1.63293672 2.76343271e-15 -1.62540734
      -1.07680464e-28 -1.79651892 7.32357876e+26 1.80071914</_>
    <_>
      3.31945144e+35 -1.41789746 654036.938 -1.87909341 -5.66429028e+19
      -1.76261604 .Nan -1.82875133 -2.67293366e+29 1.54957283
      -9.78711006e-26 1.76784158</_>
    <_>
      1.85430322e+22 1.94137549 6.56765394e+14 1.37554681 4.14969207e+12
      1.74557292 7.49168058e+14 -1.86374378 -22595894. -1.70030677
      -3.2583973e-36 -1.84369063</_>
    <_>
      1.36327537e-26 -1.06392741 -1.48843e-08 -1.88642156 4.37334351e-35
      -1.57205367 -76180592. -1.8584888 1.50036388e+13 -1.80365551
      -7.30938805e+27 1.75846088</_>
    <_>
      2.80623984e+29 1.83418465 -2.26615633e-31 -1.82191253
      -2.60639242e-26 1.7649914 -9.44435669e-35 -1.82695925
      -1.07680464e-28 -1.79651892 -1.42311118e+20 1.6260612</_>
    <_>
      1.48338341e-33 -1.82080352 6.56765394e+14 1.37554681 -4.77548313
      -1.36265492 1.62432893e-27 -1.77441001 .Nan -1.76797271
      -7.09323648e+18 1.68240547</_>
    <_>
      3.02834654 1.79561436 1.02887867e-20 -1.83709872 5.61163548e+16
      -1.50323367 8.80133843e-14 -1.84272408 .Nan -1.76797271 2.3016386
      -1.91568959</_>
    <_>
      6.7958781e-19 -1.6987555 -1.67462195e-13 1.71362031 8.50338413e-25
      -1.76028836 -9.14939562e-29 -1.02040708 588.039124 -1.77510929
      -13422.5928 1.51443398</_>
    <_>
      3.02834654 1.79561436 -1.24193127e-06 -1.61594927 1.61799916e+26
      1.89741814 -1.35644812e+26 1.76461101 -0.00365217379 -1.76083612
      3.39593341e-26 -1.6274879</_>
    <_>
      2.03431654e-07 1.90280521 1.91751904e-22 1.95526648 5.61163548e+16
      -1.50323367 -2.14562636e+36 -1.76390004 1.27977251e+20 1.85312808
      -1.53842766e-35 -1.8155185</_>
    <_>
      -5.8046133e+36 1.96066058 -1.24193127e-06 -1.61594927 3.300956e-19
      1.95763564 -2.14562636e+36 -1.76390004 0.202501372 1.79603565 .Nan
      -1.92273259</_>
    <_>
      3.99976446e+34 -1.99254036 -3.35545484e+29 -1.22674716
      1.1603914e-18 -1.90366912 8.80133843e-14 -1.84272408 .Nan
      -1.76797271 7.90417772e-25 2.02097845</_>
    <_>
      3.17402734e-29 1.75704408 9.88125266e+11 0.877423823
      -1.64756364e+12 1.64234293 -1.29835287e+22 -1.81119442
      7.05158931e+35 1.62797463 -1.05317557 -1.9297756</_>
    <_>
      7.31619235e-34 1.85346985 0.00025331034 1.55926251 1.49762668e+13
      1.8166064 -1.51848076e-06 -1.79017472 -1.10787441e+12 1.57385683
      4.45495567e-38 -1.88047445</_>
    <_>
      2.24011814e-26 -1.96361268 1911.60791 -1.71159148 -3.18908455e-10
      1.02549922 -2.08110149e+16 -1.57326531 -1.07680464e-28 -1.79651892
      2.35689987e+30 1.94350505</_>
    <_>
      6.7958781e-19 -1.6987555 3.61506646e+28 -1.55520475 5.61163548e+16
      -1.50323367 1.58778671e-13 -1.78491986 -3.19485244e+33 -1.75369954
      -5.02331321e-24 -1.23678982</_>
    <_>
      2.2814521e-31 1.9009608 -1.10830297e-05 -1.90577388 5.5822762e+17
      1.02419281 .Nan -1.82875133 -6.6545297e-15 1.7130599
      -9.78711006e-26 1.76784158</_>
    <_>
      6.7958781e-19 -1.6987555 1.4568959e+10 -1.48892045 2.53474569
      1.8338114 1.58778671e-13 -1.78491986 -1.76318105e-09 1.5167644
      1.55351894e-27 -1.68383217</_>
    <_>
      6.26665226e+10 -1.73732579 -2.93083032e+14 -1.77635407
      5.61163548e+16 -1.50323367 1.17154869e-10 1.90388441
      4.32514539e-13 -1.8393383 10.7688541 -1.88751745</_>
    <_>
      -4.16297805e-15 2.37532234 -2.26615633e-31 -1.82191253 2.53474569
      1.8338114 14.302824 -1.79542971 6.88366253e+24 1.76035285
      -2.11269818e-38 -1.89456046</_>
    <_>
      3.9708493e+24 1.89316261 -8.13162323e-32 1.8869288 -1.54712961e+27
      -1.9466815 -1.62768756e-20 -1.77966487 -2.40443759e-11 1.87453771
      1.5128245e-34 -1.77326035</_>
    <_>
      -2.20159823e-29 1.64837718 1.02887867e-20 -1.83709872
      5.61163548e+16 -1.50323367 -5.55329777e-25 1.98008084
      3.95315872e+30 -0.811228096 4.77843116e-08 1.90828991</_>
    <_>
      -8.30444995e+29 -1.6601851 -8.58799316e-12 1.97045255
      -1.7725868e-05 -1.989694 8.80133843e-14 -1.84272408
      -7.65206813e+31 1.34950316 7.22781787e-27 -1.65566003</_>
    <_>
      -1.33146627e+28 1.60953653 -2.47576734e-19 -1.25391197 816174976.
      1.984411 .Nan -1.82875133 -4.02343905e+18 -1.40394807
      -9.78711006e-26 1.76784158</_>
    <_>
      -1.04082621e-37 -1.61822975 -3.12924631e+10 1.83811307
      -1.64756364e+12 1.64234293 1.31047033e+13 -1.70423126
      1.78011496e-23 -1.81079209 2.38760839e+13 1.21396422</_>
    <_>
      -4.15350979e-30 2.19208241 -1.78585659e-35 -1.35986269
      1.61799916e+26 1.89741814 1.16431562e+27 -1.71474111
      1.55161506e-22 1.88190544 1.06944443e+31 1.91533291</_>
    <_>
      -2.78883155e+22 -1.92504227 0.00719645433 1.7288065
      -1.34738965e-11 -1.84631324 -9.44435669e-35 -1.82695925
      8.93565237e+22 -1.74312615 3.70364763e-12 -1.57363153</_>
    <_>
      -3.35337942e-25 -1.74545109 1.49968082e-33 -1.79564142
      -1.58085938e-19 1.99996066 .Nan -1.82875133 -1.64141885e-18
      -1.70618498 -9.78711006e-26 1.76784158</_>
    <_>
      6.16129494 -1.76294804 2.62292438e+35 -1.9205904 4.37334351e-35
      -1.57205367 1.20406026e-20 -1.80856705 -3.19485244e+33 -1.75369954
      -3.75016635e-25 2.04915047</_>
    <_>
      1.48338341e-33 -1.82080352 -2.26615633e-31 -1.82191253
      -4.85271753e-11 -1.66734672 -1.17364559e+36 -1.82170427
      -3.19485244e+33 -1.75369954 3.41293985e+27 1.77254701</_>
    <_>
      -5.8046133e+36 1.96066058 -8.35109815e-35 1.68324804
      -5.65223545e-39 1.88021314 -1.62768756e-20 -1.77966487
      -9.27598138e-22 1.84599149 .Nan -1.92273259</_>
    <_>
      -6.6835214e-22 1.88352001 3.88152988e+24 -1.74196374 .Nan
      1.7821964 14.302824 -1.79542971 1.21513656e-20 -1.57579017
      4.71764763e+20 -1.42188597</_>
    <_>
      -2.78883155e+22 -1.92504227 -5.91439501e+35 -1.80672634
      -4.61993613e+36 1.59086597 -3058.89062 1.59712887 -2.28776209e+18
      -1.81792855 3.39593341e-26 -1.6274879</_>
    <_>
      -3.10188378e+35 2.05708623 -6.04998981e-39 1.62000704
      7.22185457e-26 1.8682214 -133107984. -1.80068457 -5.4470135e+11
      1.92115641 .Nan -1.92273259</_>
    <_>
      1.34783468e+19 1.51747322 -1.48843e-08 -1.88642156 5.61163548e+16
      -1.50323367 -0.000660975929 1.9669435 3.95315872e+30 -0.811228096
      -13422.5928 1.51443398</_>
    <_>
      8.53258725e+36 -1.94432747 3.6519511e-24 1.69843423 2.82935806e-12
      -1.89506662 -9.87938846e+14 -1.83484161 -3.19485244e+33
      -1.75369954 -2.11269818e-38 -1.89456046</_>
    <_>
      6.7958781e-19 -1.6987555 20.1106472 -1.86747098 -1.73145849e+15
      -1.63293672 4.29114869e+18 1.87496459 8.93565237e+22 -1.74312615
      4.71764763e+20 -1.42188597</_>
    <_>
      -4.03106654e+37 1.38066518 2.53989945e+25 -1.87882853
      8.50338413e-25 -1.76028836 -1.35644812e+26 1.76461101
      -3.98474785e+14 1.98181713 -1.06845839e-28 1.41617954</_>
    <_>
      -9.24689816e+14 1.81489944 9.78597471e-19 -1.68121922
      -2.60639242e-26 1.7649914 1.58778671e-13 -1.78491986
      -1.09356348e+13 -1.48030293 -2.55952529e+38 -1.9368186</_>
    <_>
      -2.00219774 1.68694746 -2.93083032e+14 -1.77635407 4.37334351e-35
      -1.57205367 -4.83000196e-32 2.0089829 -0.000873837096 -1.67176056
      -3.30751755e+17 1.73874974</_>
    <_>
      1.38185743e-18 -1.54108918 1.3641705e+25 -1.79154027
      -4.61993613e+36 1.59086597 -9.16650455e-21 -1.8374691 .Nan
      -1.76797271 2.38760839e+13 1.21396422</_>
    <_>
      -3.14182552e-24 1.93173289 -1.24193127e-06 -1.61594927 .Nan
      1.7821964 1.32751936e+15 -1.80593956 2.45156784e-26 1.67079401
      -2.11269818e-38 -1.89456046</_>
    <_>
      -1.8788223e+15 -1.78223312 -161.696625 -1.92818344 4.37334351e-35
      -1.57205367 7.75827456 -1.85323393 588.039124 -1.77510929
      -3.35959666e+26 1.81480515</_>
    <_>
      1.86836115e-13 1.73227692 -1.40191418e+17 1.97108829
      -1.42170319e-28 1.75172865 .Nan -1.82875133 1.59596603e-15
      -1.93780088 -9.78711006e-26 1.76784158</_>
    <_>
      -1.32625476e+20 -1.97325516 -1.78585659e-35 -1.35986269
      -4.77548313 -1.36265492 -8.31584089e-07 -1.84797895
      -1.77584407e+26 -1.89285183 -3.30751755e+17 1.73874974</_>
    <_>
      -0.987474203 1.59461379 9.78597471e-19 -1.68121922 .Nan 1.7821964
      8.80133843e-14 -1.84272408 -0.000873837096 -1.67176056 10.7688541
      -1.88751745</_>
    <_>
      -1.8788223e+15 -1.78223312 -8.2851619e-33 1.77736855 2.53474569
      1.8338114 5.33710538e-18 1.98533583 3.1442085e-10 -1.60433638
      4.71764763e+20 -1.42188597</_>
    <_>
      -1.04082621e-37 -1.61822975 -1.78585659e-35 -1.35986269
      -4.77548313 -1.36265492 -2.60961759e-08 -1.6306622 -5.48797143e+17
      -1.72885299 -3.21370398e-34 -1.75917423</_>
    <_>
      -6.93260723e-15 -1.8008064 -1.46444727e+16 -1.96080244
      1.83225109e-23 -1.6144706 .Nan -1.82875133 -4.33294044e+24
      1.93951952 -9.78711006e-26 1.76784158</_>
    <_>
      -2.22868151e-19 1.87275493 9.88125266e+11 0.877423823
      -2.60639242e-26 1.7649914 3.38231947e+37 -1.53122592
      -1.52596954e-06 -1.2361027 0.488882989 -1.94386172</_>
    <_>
      -9.24689816e+14 1.81489944 9.78597471e-19 -1.68121922
      -2.60639242e-26 1.7649914 1.58778671e-13 -1.78491986
      -1.09356348e+13 -1.48030293 -2.55952529e+38 -1.9368186</_>
    <_>
      6.16129494 -1.76294804 -2.26615633e-31 -1.82191253 -4.62701844e-14
      1.67675292 -1.62768756e-20 -1.77966487 3.1442085e-10 -1.60433638
      -1.24870448e-05 2.02802134</_>
    <_>
      3.02834654 1.79561436 -5.223351 2.15268612 -18769.668 -2.02410388
      -9.57152948e-37 -1.72525096 -22.7905579 1.89261019 3.39593341e-26
      -1.6274879</_>
    <_>
      5.43254249e+21 -1.6304425 -2.19832117e-08 -1.98998427
      -6.0300388e-33 -1.8965565 .Nan -1.82875133 -10098090. 1.91855729
      -9.78711006e-26 1.76784158</_>
    <_>
      -4.03106654e+37 1.38066518 -1.24193127e-06 -1.61594927
      5.08096143e+10 1.52204609 -1.74277426e-34 -1.76915503
      -0.000873837096 -1.67176056 -638.937744 1.57077825</_>
    <_>
      0.000144330334 -1.85937381 3.88152988e+24 -1.74196374
      4.37334351e-35 -1.57205367 -7.85825005e-09 -1.74627066
      3.57433947e+12 -1.71457994 -7.09323648e+18 1.68240547</_>
    <_>
      4.53631176e+36 2.00887346 6.56765394e+14 1.37554681 1.49513648e+38
      1.71116292 9.34719476e-28 -1.83221424 -7.65206813e+31 1.34950316
      2.38760839e+13 1.21396422</_>
    <_>
      2.80623984e+29 1.83418465 3.61506646e+28 -1.55520475
      4.14969207e+12 1.74557292 1.58778671e-13 -1.78491986
      -1.27926808e-06 1.78176248 -1.53842766e-35 -1.8155185</_>
    <_>
      1.48338341e-33 -1.82080352 -6.04998981e-39 1.62000704
      -2.34357914e-24 -1.86351824 5.26842214e-08 1.70565319
      -2.03792171e+19 1.8890419 8.19928084e-11 -1.51728725</_>
    <_>
      1.48338341e-33 -1.82080352 -8.46915961e+22 1.49703586
      -3.18908455e-10 1.02549922 -2.26338145e+20 -1.6516819 .Nan
      -1.76797271 -3.35959666e+26 1.81480515</_>
    <_>
      -4.36004982e-37 -1.4278971 -2.93083032e+14 -1.77635407 .Nan
      1.7821964 1.15147074e-07 2.0746696 -3.50273704e-14 -1.64321434
      -3.30751755e+17 1.73874974</_>
    <_>
      1.36327537e-26 -1.06392741 -8.35109815e-35 1.68324804
      -3.51234659e+29 2.0092504 1.3982027e+11 1.89074707 3.57433947e+12
      -1.71457994 -1.24870448e-05 2.02802134</_>
    <_>
      -1.8788223e+15 -1.78223312 1911.60791 -1.71159148 -1.34738965e-11
      -1.84631324 1.32751936e+15 -1.80593956 5.05609267e+09 1.82458186
      -3.21370398e-34 -1.75917423</_>
    <_>
      -1.88921367e-09 1.89432561 1408157184. -1.54063058 -2.86963466e-08
      -1.90433133 .Nan -1.82875133 -1.00294608e+27 -1.89587629
      -9.78711006e-26 1.76784158</_>
    <_>
      6.16129494 -1.76294804 -5.91439501e+35 -1.80672634 4.33799133e+15
      -1.73616672 .Nan 2.05627728 4.87524997e-31 -1.54724395
      -3.35959666e+26 1.81480515</_>
    <_>
      -2.20159823e-29 1.64837718 -2.5672719e-31 2.00841784
      -4.68400701e+10 -2.00689888 8.80133843e-14 -1.84272408
      1.54298796e-05 1.72788644 -4.99385214 -1.90160346</_>
    <_>
      -1.04082621e-37 -1.61822975 -1.24193127e-06 -1.61594927
      4.37334351e-35 -1.57205367 8.80133843e-14 -1.84272408
      -1.68209233e-08 -1.4232105 1.55351894e-27 -1.68383217</_>
    <_>
      1.48338341e-33 -1.82080352 -5.91439501e+35 -1.80672634
      1.61799916e+26 1.89741814 -0.00113552413 1.48406065
      -2.28776209e+18 -1.81792855 2.38760839e+13 1.21396422</_>
    <_>
      -1.04082621e-37 -1.61822975 9.78597471e-19 -1.68121922 .Nan
      1.7821964 -9.16650455e-21 -1.8374691 -1.77584407e+26 -1.89285183
      .Nan -1.92273259</_>
    <_>
      7.31619235e-34 1.85346985 -3.52871341e+24 2.00082469
      -1.34738965e-11 -1.84631324 14.302824 -1.79542971 1.55161506e-22
      1.88190544 10.7688541 -1.88751745</_>
    <_>
      3.80944099e+19 1.82075977 -1.68731709e+16 1.90480387
      3.10979776e-05 -1.88100684 .Nan -1.82875133 1.59596603e-15
      -1.93780088 -9.78711006e-26 1.76784158</_>
    <_>
      -2.00219774 1.68694746 9.78597471e-19 -1.68121922 2.32035359e+26
      2.01785302 -1.25645468e-17 1.89862943 8.93565237e+22 -1.74312615
      2.35689987e+30 1.94350505</_>
    <_>
      -9.10993828e-31 1.94740653 1.24165845e+31 1.41899848
      -1.0608311e-27 1.62905979 .Nan -1.82875133 10643.9961 -1.8119415
      -9.78711006e-26 1.76784158</_>
    <_>
      3.89263524e+31 1.88990223 .Nan 1.56955636 2.7399832e+34
      -1.71303344 6.91449249e-18 -1.67227888 -1.52901509e+18 -1.88539517
      -9.78711006e-26 1.76784158</_>
    <_>
      6.26665226e+10 -1.73732579 -1.67462195e-13 1.71362031
      -4.85271753e-11 -1.66734672 -1.39975563e-31 1.88811958
      1.02972845e-19 1.94256616 1.5128245e-34 -1.77326035</_>
    <_>
      -7.10383797e+18 -1.60049772 3.83966541e+09 1.79370141
      2.0345703e+35 -1.84036458 .Nan -1.82875133 -6.36196559e+35
      -1.90635741 -9.78711006e-26 1.76784158</_>
    <_>
      5.11382189e+26 1.80306613 6.73177779e-31 1.94815981
      -2.61062581e+15 1.81392741 -0.248725176 1.95895576 -1.00294608e+27
      -1.89587629 -9.78711006e-26 1.76784158</_>
    <_>
      -108178.398 -1.08578753 -6.32549011e-16 -1.84149849 0.000234897292
      1.88333797 6.41992328e-28 1.69735861 4.20041276e+27 1.67113543
      -9.78711006e-26 1.76784158</_>
    <_>
      -2.30134234e+37 1.77652562 3.26885064e+22 1.3696152 7.43439019e-19
      -2.02872896 93587400. -1.63867545 -7.21090418e-21 -1.87482822
      -9.78711006e-26 1.76784158</_>
    <_>
      2.62219215e-33 1.7588321 2.531106e-28 1.54287589 8.25309907e+37
      1.72235799 -6.37724434e-32 -1.89387989 -1.00294608e+27 -1.89587629
      -9.78711006e-26 1.76784158</_>
    <_>
      3.03908813e+35 -1.92415965 2.531106e-28 1.54287589 4.9894572e-13
      1.82947719 482397.375 1.95055497 -10098090. 1.91855729
      2.32717999e-29 -1.96877372</_>
    <_>
      -1.8788223e+15 -1.78223312 -5.91439501e+35 -1.80672634
      -3.18908455e-10 1.02549922 5.97443605e-36 1.68463349
      -2.81652807e-18 -1.82506514 -3.2583973e-36 -1.84369063</_>
    <_>
      -3.57100872e-12 2.08601403 6.56765394e+14 1.37554681 4.70057821
      1.93182814 1.62432893e-27 -1.77441001 6.45710633e-16 1.69934022
      -1.05317557 -1.9297756</_>
    <_>
      -3.29912901 1.2846266 -2.72766159e+14 -1.74956846 1.01214757e-21
      -1.74413288 .Nan -1.82875133 -1.08227898e+33 1.43144774
      -9.78711006e-26 1.76784158</_>
    <_>
      4.18558891e-32 1.85172367 -4.1340525e+11 -1.912444 -2.12302323e-36
      -1.79371548 .Nan -1.82875133 -10098090. 1.91855729 -9.78711006e-26
      1.76784158</_>
    <_>
      1.86836115e-13 1.73227692 -4.77340736e+13 -1.99081802
      1.11754707e+21 1.8911128 .Nan -1.82875133 1.38609208e-19
      2.00240636 -9.78711006e-26 1.76784158</_>
    <_>
      5.43254249e+21 -1.6304425 654036.938 -1.87909341 1.46021129e-09
      -1.65083468 .Nan -1.82875133 -3.58158962e-20 1.88711393
      -9.78711006e-26 1.76784158</_>
    <_>
      6.16129494 -1.76294804 -5.9110801e+37 -1.65084684 4.33799133e+15
      -1.73616672 -1.62768756e-20 -1.77966487 1.58572391e-08 2.05675101
      8.22424311e-39 -1.90864658</_>
    <_>
      -2.22868151e-19 1.87275493 9.78597471e-19 -1.68121922
      -4.61993613e+36 1.59086597 -1.17364559e+36 -1.82170427
      -1.76318105e-09 1.5167644 .Nan -1.92273259</_>
    <_>
      .Nan 1.86941719 -688899776. -1.75812185 7.45520842e-21 -1.87146401
      -6.6103032e+34 -1.70588219 2.43153513e-14 -1.79097927
      -9.78711006e-26 1.76784158</_>
    <_>
      -2.78883155e+22 -1.92504227 -1.57583113e-11 1.80774081
      2.82935806e-12 -1.89506662 -133107984. -1.80068457 4.32514539e-13
      -1.8393383 4.71764763e+20 -1.42188597</_>
    <_>
      1.18569684e-26 2.04744387 1.4568959e+10 -1.48892045 4.16580724e-13
      1.8510164 -3.53858991e-25 1.57610917 -2.57962751 1.74215949
      -1.05317557 -1.9297756</_>
    <_>
      1.48338341e-33 -1.82080352 3.62873921e-22 1.79255474
      -1.35185097e-36 -1.70175672 1.49273833e-33 -1.59428513
      -1.10787441e+12 1.57385683 -1.0385709e-09 1.97872019</_>
    <_>
      5.43254249e+21 -1.6304425 -0.000401744997 -1.85400498
      -5.66429028e+19 -1.76261604 .Nan -1.82875133 -1.38100982
      0.984998703 -9.78711006e-26 1.76784158</_>
    <_>
      -1.04082621e-37 -1.61822975 -2.26615633e-31 -1.82191253
      -1.73145849e+15 -1.63293672 1.58778671e-13 -1.78491986
      3.95315872e+30 -0.811228096 2.14417327e-07 1.88011777</_>
    <_>
      -4.36004982e-37 -1.4278971 3.61506646e+28 -1.55520475
      6.7440991e+19 1.90602064 -5.49394364e+24 1.9879632 1.31933268e-21
      1.41934407 .Nan -1.92273259</_>
    <_>
      2.03431654e-07 1.90280521 -1.78585659e-35 -1.35986269 2.53474569
      1.8338114 .Nan 1.56559932 -7.0382363e-08 -1.85361135 -4.99385214
      -1.90160346</_>
    <_>
      1.48338341e-33 -1.82080352 -9614347. 2.08814502 -18769.668
      -2.02410388 -133107984. -1.80068457 0.835998893 1.4764365 .Nan
      -1.92273259</_>
    <_>
      -1.8788223e+15 -1.78223312 -1.11813097e+36 -1.8940146
      -1.64756364e+12 1.64234293 1.24411595e+29 -1.8164494
      6.88641095e-34 -1.78224587 7.32357876e+26 1.80071914</_>
    <_>
      .Nan 1.86941719 -2.68589588e-28 1.89104676 5.60812829e-36
      -1.91988111 2.48223429e-15 -1.40146101 -6.36196559e+35 -1.90635741
      -9.78711006e-26 1.76784158</_>
    <_>
      -6.48521553e-35 1.90980756 -0.641392887 -1.89993751
      -1.42170319e-28 1.75172865 .Nan -1.82875133 -0.0149191292
      1.90807617 -9.78711006e-26 1.76784158</_>
    <_>
      -1.99323855e+29 1.72551775 -2.26615633e-31 -1.82191253
      1.61799916e+26 1.89741814 9.21117573e+21 -1.84009659
      -1.09356348e+13 -1.48030293 .Nan -1.92273259</_>
    <_>
      9.56955848e-10 1.9510181 1.02887867e-20 -1.83709872 48296932.
      1.4064523 -1.17364559e+36 -1.82170427 4.87524997e-31 -1.54724395
      8.19928084e-11 -1.51728725</_>
    <_>
      2.58188748 -1.68352342 1.3961724e-37 -1.87742591 2.28437143e-17
      -1.97430503 .Nan -1.82875133 9.93917993e+11 2.07577419
      -9.78711006e-26 1.76784158</_>
    <_>
      -5.58707433e+24 -1.87682939 2.53989945e+25 -1.87882853
      -1.73145849e+15 -1.63293672 6.82158778e+28 -1.87425363
      3.81693687e+23 -1.83220172 -1.05317557 -1.9297756</_>
    <_>
      -0.987474203 1.59461379 -2.26615633e-31 -1.82191253
      -2.50045092e+10 2.0608654 1.33600546e-24 1.89337456 5.62897773e-09
      -1.65748751 -1.548158e+18 1.71057761</_>
    <_>
      -6.6835214e-22 1.88352001 -8.13162323e-32 1.8869288 1.49513648e+38
      1.71116292 9.34719476e-28 -1.83221424 -22.7905579 1.89261019
      -1.05317557 -1.9297756</_>
    <_>
      1.38185743e-18 -1.54108918 -2.93083032e+14 -1.77635407
      -2.34357914e-24 -1.86351824 8.80133843e-14 -1.84272408
      -3.50273704e-14 -1.64321434 -4.99385214 -1.90160346</_>
    <_>
      0.000144330334 -1.85937381 -6.32819184e+31 1.86848533 -18769.668
      -2.02410388 -9.16650455e-21 -1.8374691 6.06502269e+18 1.22063673
      -3.2583973e-36 -1.84369063</_>
    <_>
      -1.04082621e-37 -1.61822975 4.71267783e+21 1.65287578
      -2.86591272e+27 -1.79469824 1.31235329e-05 -1.61530483
      1.78011496e-23 -1.81079209 -2.11269818e-38 -1.89456046</_>
    <_>
      -1.10125989e+16 1.82960653 5.90412532e-23 1.28957367 .Nan
      -1.9432056 1.07554239e+26 -1.84555304 -7.21090418e-21 -1.87482822
      -9.78711006e-26 1.76784158</_>
    <_>
      6.26665226e+10 -1.73732579 -1.11813097e+36 -1.8940146
      -3.18908455e-10 1.02549922 -0.00113552413 1.48406065 -95772072.
      -1.78938234 -4.88178564e-09 1.95054805</_>
    <_>
      6.26665226e+10 -1.73732579 -6.04998981e-39 1.62000704
      -2.34357914e-24 -1.86351824 -8.31584089e-07 -1.84797895 -22595894.
      -1.70030677 1.5128245e-34 -1.77326035</_>
    <_>
      5.24647513e-11 2.03780127 -3.52871341e+24 2.00082469
      4.14969207e+12 1.74557292 -1.29835287e+22 -1.81119442
      1.11548886e-19 -1.35723627 .Nan -1.92273259</_>
    <_>
      -0.000723162491 -1.69237018 .Nan -1.94662845 -1.08094026e+18
      1.57092083 -5.74434089e+24 1.73096192 -2.8199358e+33 1.95000064
      -9.78711006e-26 1.76784158</_>
    <_>
      -2.20159823e-29 1.64837718 1.02887867e-20 -1.83709872
      5.61163548e+16 -1.50323367 -5.55329777e-25 1.98008084
      3.95315872e+30 -0.811228096 4.77843116e-08 1.90828991</_>
    <_>
      3.9708493e+24 1.89316261 -1.67462195e-13 1.71362031 .Nan 1.7821964
      0.000559703447 1.53406978 -1.27926808e-06 1.78176248
      7.22781787e-27 -1.65566003</_>
    <_>
      -4.36004982e-37 -1.4278971 -2.93083032e+14 -1.77635407 .Nan
      1.7821964 1.15147074e-07 2.0746696 -3.50273704e-14 -1.64321434
      -3.30751755e+17 1.73874974</_>
    <_>
      6.16129494 -1.76294804 20.1106472 -1.86747098 .Nan 1.7821964
      -5.55329777e-25 1.98008084 8.93565237e+22 -1.74312615
      3.46741811e+25 1.85706341</_>
    <_>
      1.38185743e-18 -1.54108918 -1.24193127e-06 -1.61594927
      1.61799916e+26 1.89741814 3.38231947e+37 -1.53122592 .Nan
      -1.76797271 -1.53842766e-35 -1.8155185</_>
    <_>
      4.30817633e+14 -1.64813614 .Nan 1.56955636 2.0345703e+35
      -1.84036458 -2.16217658e-19 -1.87707818 -1.08227898e+33 1.43144774
      -9.78711006e-26 1.76784158</_>
    <_>
      2.80623984e+29 1.83418465 9.78597471e-19 -1.68121922
      4.09939395e+32 1.88881564 -133107984. -1.80068457 1.55161506e-22
      1.88190544 .Nan -1.92273259</_>
    <_>
      0.000144330334 -1.85937381 -5.9110801e+37 -1.65084684 .Nan
      1.7821964 1.3982027e+11 1.89074707 3.1442085e-10 -1.60433638
      -2.24371526e-08 1.92237592</_>
    <_>
      32057194. -1.66582978 4.33369884e+14 -1.79147255 4.53540906e-06
      1.66015923 .Nan -1.82875133 -6.6545297e-15 1.7130599
      -9.78711006e-26 1.76784158</_>
    <_>
      -2.90771283e-07 -1.88647199 3.88152988e+24 -1.74196374
      5.61163548e+16 -1.50323367 1.62432893e-27 -1.77441001
      6.88641095e-34 -1.78224587 -8.89916469e+13 2.06323647</_>
    <_>
      1.90674927e-35 1.57414937 3.96141939e-11 -1.73956335 .Nan
      -1.9432056 159862368. -1.94428504 -6.6545297e-15 1.7130599
      -9.78711006e-26 1.76784158</_>
    <_>
      5.24647513e-11 2.03780127 -8.2851619e-33 1.77736855 3.86643504e+23
      2.2329154 0.000559703447 1.53406978 1.21513656e-20 -1.57579017
      1.5128245e-34 -1.77326035</_>
    <_>
      -1.71878034e-09 1.4005878 -1.11429053e-10 -1.96580505
      6.12100905e-07 1.78282809 .Nan -1.82875133 6.82999682e-18
      1.98144412 -9.78711006e-26 1.76784158</_>
    <_>
      90462032. -1.90575719 8.41774158e+33 2.13750005 -44.1375427
      -1.9810915 -9.16650455e-21 -1.8374691 5.62897773e-09 -1.65748751
      4.45495567e-38 -1.88047445</_>
    <_>
      -1.8788223e+15 -1.78223312 -1.48843e-08 -1.88642156 2.53474569
      1.8338114 -8.31584089e-07 -1.84797895 -2.23153615e+36 -1.51869762
      -3.30751755e+17 1.73874974</_>
    <_>
      5.69535116e+29 -1.80151832 -3.09624078e+11 1.94767332 2.53474569
      1.8338114 -1.39842087e+18 1.89600194 4.87524997e-31 -1.54724395
      5.06995732e+31 1.88716078</_>
    <_>
      -3.29912901 1.2846266 -729.658386 -1.68286717 5.85981362e-34
      -1.33649695 .Nan -1.82875133 4.45694853e+21 -1.83290374
      -9.78711006e-26 1.76784158</_>
    <_>
      -1.78250032e+19 1.65265548 -9.60783358e-24 1.9394052
      -1.0608311e-27 1.62905979 .Nan -1.82875133 2.48610717e-24
      -1.92731977 -9.78711006e-26 1.76784158</_>
    <_>
      1.31640433e-37 -1.54741693 -0.0622863173 1.82038188 .Nan
      -1.9432056 1.07554239e+26 -1.84555304 1.53175442e-37 1.3201977
      -9.78711006e-26 1.76784158</_>
    <_>
      -1.04082621e-37 -1.61822975 9.78597471e-19 -1.68121922
      5.61163548e+16 -1.50323367 1.07617861e-37 1.77512097
      4.32514539e-13 -1.8393383 -7.09323648e+18 1.68240547</_>
    <_>
      403423552. 1.679196 9.20995592e-31 -1.94996357 -1.08094026e+18
      1.57092083 .Nan -1.82875133 1.08210408e-26 1.970963
      -9.78711006e-26 1.76784158</_>
    <_>
      6.7958781e-19 -1.6987555 -1.48843e-08 -1.88642156 -4.62701844e-14
      1.67675292 8.80133843e-14 -1.84272408 .Nan -1.76797271
      1.5380636e+26 1.82889128</_>
    <_>
      2.03431654e-07 1.90280521 9.88125266e+11 0.877423823 48296932.
      1.4064523 -5.22619858e-17 1.84868991 .Nan -1.76797271
      -7.31257712e+25 1.84297729</_>
    <_>
      3.02834654 1.79561436 9.78597471e-19 -1.68121922 7.22185457e-26
      1.8682214 -1.74122141e+28 2.01161027 1.31933268e-21 1.41934407
      -1.06845839e-28 1.41617954</_>
    <_>
      5.69535116e+29 -1.80151832 1911.60791 -1.71159148 2.83300342e+13
      1.91462314 4.57547391e+20 1.72667289 1.21513656e-20 -1.57579017
      -1.42311118e+20 1.6260612</_>
    <_>
      4.10269454e-14 1.52106845 2.07308178e+33 -1.44785857
      1.01214757e-21 -1.74413288 .Nan -1.82875133 2.26495072e-08
      1.62921095 -9.78711006e-26 1.76784158</_>
    <_>
      -4.36004982e-37 -1.4278971 1.3641705e+25 -1.79154027
      8.50338413e-25 -1.76028836 -9.14939562e-29 -1.02040708
      8.93565237e+22 -1.74312615 -1.11656094e+30 1.95759106</_>
    <_>
      1.6087321e-30 -1.52972329 1.4796884e-30 -1.89576876 6.12100905e-07
      1.78282809 .Nan -1.82875133 1.10304224e-36 1.8573035
      -9.78711006e-26 1.76784158</_>
    <_>
      4.53631176e+36 2.00887346 -8.58799316e-12 1.97045255
      8.50338413e-25 -1.76028836 1.58778671e-13 -1.78491986
      -1.07883989e+30 1.7746259 .Nan -1.92273259</_>
    <_>
      -53917056. 1.7544086 1.4796884e-30 -1.89576876 -4.59047912e-32
      1.89888763 .Nan -1.82875133 9.66467586e+29 1.75249219
      -9.78711006e-26 1.76784158</_>
    <_>
      4.90595542e-12 1.99923098 -8.46915961e+22 1.49703586
      7.22185457e-26 1.8682214 1.43869982e-38 1.88286471 -3.19485244e+33
      -1.75369954 -2.55952529e+38 -1.9368186</_>
    <_>
      -4.57077207e-19 -1.84008861 9.78597471e-19 -1.68121922
      -4.85271753e-11 -1.66734672 3.38231947e+37 -1.53122592
      1.78011496e-23 -1.81079209 -4.96135601e+30 1.92941892</_>
    <_>
      6.16129494 -1.76294804 9.78597471e-19 -1.68121922 -1.73145849e+15
      -1.63293672 1.01618167e-23 1.78563082 2.11833032e-19 -1.6289413
      1.06944443e+31 1.91533291</_>
    <_>
      -4.36004982e-37 -1.4278971 1.02887867e-20 -1.83709872
      -4.61993613e+36 1.59086597 -8.8064708e-23 -1.73576081
      6.88641095e-34 -1.78224587 -3.21370398e-34 -1.75917423</_>
    <_>
      -9.24689816e+14 1.81489944 3.61506646e+28 -1.55520475
      -2.60639242e-26 1.7649914 14.302824 -1.79542971 -7.65206813e+31
      1.34950316 .Nan -1.92273259</_>
    <_>
      -9.84647002e-15 1.77632916 9.88125266e+11 0.877423823
      1.61799916e+26 1.89741814 -8.32144998e+11 1.81190538 -95772072.
      -1.78938234 -3.30751755e+17 1.73874974</_>
    <_>
      -2.90771283e-07 -1.88647199 20.1106472 -1.86747098 -4.62701844e-14
      1.67675292 -8.31584089e-07 -1.84797895 .Nan -1.76797271
      -7.093985e-35 -1.78734636</_>
    <_>
      .Nan 1.86941719 -3.47419684e-12 1.26289308 -6.0300388e-33
      -1.8965565 93587400. -1.63867545 -0.0149191292 1.90807617
      -9.78711006e-26 1.76784158</_>
    <_>
      1.02621287e+21 2.01851606 -1.67462195e-13 1.71362031
      4.16580724e-13 1.8510164 0.000559703447 1.53406978 -1.00851258e-10
      1.71361327 .Nan -1.92273259</_>
    <_>
      -4.03106654e+37 1.38066518 -4.39499548e-10 -1.85228479
      -4.85271753e-11 -1.66734672 6345.89014 1.97219849 6.06502269e+18
      1.22063673 1.5380636e+26 1.82889128</_>
    <_>
      9.06478712e-11 1.79864275 .Nan 1.89062989 -5.57326469e+35
      -1.96653008 .Nan -1.82875133 2.48610717e-24 -1.92731977
      -9.78711006e-26 1.76784158</_>
    <_>
      -4.03106654e+37 1.38066518 -4.39499548e-10 -1.85228479
      -4.85271753e-11 -1.66734672 6345.89014 1.97219849 6.06502269e+18
      1.22063673 1.5380636e+26 1.82889128</_>
    <_>
      9.06478712e-11 1.79864275 .Nan 1.89062989 -5.57326469e+35
      -1.96653008 .Nan -1.82875133 2.48610717e-24 -1.92731977
      -9.78711006e-26 1.76784158</_>
    <_>
      5.69535116e+29 -1.80151832 -6.04998981e-39 1.62000704 15.9254999
      -1.87786162 -0.00876907818 1.80139554 0.202501372 1.79603565
      5.06995732e+31 1.88716078</_>
    <_>
      -1.43479406e-09 -1.93468487 -1.24193127e-06 -1.61594927
      -82.3724594 -1.82910824 7.75827456 -1.85323393 -1.07883989e+30
      1.7746259 -1.63927383e+25 1.87114942</_>
    <_>
      32057194. -1.66582978 -422766688. -1.81231666 1.09758114e-08
      -1.77816582 .Nan -1.82875133 2.43153513e-14 -1.79097927
      -9.78711006e-26 1.76784158</_>
    <_>
      6.16129494 -1.76294804 -1.78585659e-35 -1.35986269 -0.00398524338
      2.0952754 7.75827456 -1.85323393 -1.76318105e-09 1.5167644
      2.3016386 -1.91568959</_>
    <_>
      -4.57077207e-19 -1.84008861 1.4568959e+10 -1.48892045
      -4.62701844e-14 1.67675292 1.24411595e+29 -1.8164494
      -2.23153615e+36 -1.51869762 -7.0999892e-37 -1.87186277</_>
    <_>
      5.69535116e+29 -1.80151832 2.53989945e+25 -1.87882853
      -3.18908455e-10 1.02549922 -76180592. -1.8584888 -5.48797143e+17
      -1.72885299 -3.30751755e+17 1.73874974</_>
    <_>
      -7.00599925e+19 2.06672883 125.737564 1.87933576 -1.42856153e+23
      2.0264554 1.58778671e-13 -1.78491986 8.06078269e+34 1.93186128
      .Nan -1.92273259</_>
    <_>
      6.26665226e+10 -1.73732579 -5.0006606e-15 2.02740049
      -2.55372363e+14 -1.9638865 -9.44435669e-35 -1.82695925
      7.73295056e-12 1.76748943 .Nan -1.92273259</_>
    <_>
      90462032. -1.90575719 -3.05452307e+13 -1.91679382 48296932.
      1.4064523 2.24782869e+29 -1.75864518 -0.000873837096 -1.67176056
      -3.21370398e-34 -1.75917423</_>
    <_>
      -4.03106654e+37 1.38066518 6848.35156 -1.761168 -1.64756364e+12
      1.64234293 -133107984. -1.80068457 6.88641095e-34 -1.78224587
      -5.02331321e-24 -1.23678982</_>
    <_>
      1.36327537e-26 -1.06392741 -1.65336537 1.95906293 -3.80952867e+33
      -1.938079 -9.16650455e-21 -1.8374691 2.45156784e-26 1.67079401
      7.22781787e-27 -1.65566003</_>
    <_>
      -7.00599925e+19 2.06672883 3.88152988e+24 -1.74196374
      -5.65223545e-39 1.88021314 -1.29835287e+22 -1.81119442
      -1.27926808e-06 1.78176248 .Nan -1.92273259</_>
    <_>
      -8.30444995e+29 -1.6601851 -6.05215577e+32 1.97804558
      -6.09271164e+20 -1.955284 -5.22619858e-17 1.84868991 -46.4129143
      1.54531062 3.39593341e-26 -1.6274879</_>
    <_>
      4.30817633e+14 -1.64813614 1.93158412e+38 -1.3878274
      -1.84738817e-22 1.39304662 .Nan -1.82875133 -1.52901509e+18
      -1.88539517 -9.78711006e-26 1.76784158</_>
    <_>
      1.48338341e-33 -1.82080352 -2.93083032e+14 -1.77635407
      4.37334351e-35 -1.57205367 -6.80864356e-18 1.95643365
      8.93565237e+22 -1.74312615 2.14417327e-07 1.88011777</_>
    <_>
      0.000144330334 -1.85937381 9.78597471e-19 -1.68121922
      -4.85271753e-11 -1.66734672 5.35010959e+10 2.01423788 .Nan
      -1.76797271 2.38760839e+13 1.21396422</_>
    <_>
      -7.00599925e+19 2.06672883 -2.93083032e+14 -1.77635407
      8.80357856e+25 1.7994014 1.24411595e+29 -1.8164494 -1.07883989e+30
      1.7746259 .Nan -1.92273259</_>
    <_>
      9.06478712e-11 1.79864275 -4.82672206e-22 1.65063918
      -1.17627243e-34 1.79837775 6.41992328e-28 1.69735861
      4.85781847e+15 -1.61967206 -9.78711006e-26 1.76784158</_>
    <_>
      -0.987474203 1.59461379 1.02887867e-20 -1.83709872 .Nan 1.7821964
      -8.31584089e-07 -1.84797895 4.87524997e-31 -1.54724395
      3.39593341e-26 -1.6274879</_>
    <_>
      -9.84647002e-15 1.77632916 -2.377067e-34 1.99323177 -0.00398524338
      2.0952754 0.0224154815 2.06810093 -22595894. -1.70030677
      5.27335936e+29 1.97167718</_>
    <_>
      -9.84647002e-15 1.77632916 3.62873921e-22 1.79255474
      -1.64756364e+12 1.64234293 -0.00876907818 1.80139554
      4.32514539e-13 -1.8393383 5.06995732e+31 1.88716078</_>
    <_>
      -2.20159823e-29 1.64837718 1.3641705e+25 -1.79154027
      -1.35185097e-36 -1.70175672 -4.83000196e-32 2.0089829
      -1.59567586e-31 1.65652084 -1.06845839e-28 1.41617954</_>
    <_>
      -1.99323855e+29 1.72551775 9.78597471e-19 -1.68121922
      -3.18908455e-10 1.02549922 -8.32144998e+11 1.81190538 .Nan
      -1.76797271 -638.937744 1.57077825</_>
    <_>
      -1.8788223e+15 -1.78223312 3.73718244e-11 1.94387686 1.1603914e-18
      -1.90366912 2.41026132e+14 -1.3295095 -7.65206813e+31 1.34950316
      -3.2583973e-36 -1.84369063</_>
    <_>
      4.53631176e+36 2.00887346 -8.68786474e+32 2.25259614
      7.22185457e-26 1.8682214 -9.16650455e-21 -1.8374691
      -3.50273704e-14 -1.64321434 -638.937744 1.57077825</_>
    <_>
      -7.00599925e+19 2.06672883 125.737564 1.87933576 -1.42856153e+23
      2.0264554 1.58778671e-13 -1.78491986 8.06078269e+34 1.93186128
      .Nan -1.92273259</_>
    <_>
      7.31619235e-34 1.85346985 7.02756045e+10 1.97424912
      -1.64756364e+12 1.64234293 1.32751936e+15 -1.80593956
      1.52513086e-16 1.86026466 -3.2583973e-36 -1.84369063</_>
    <_>
      -6.6835214e-22 1.88352001 -325228768. 1.74399257 4.14969207e+12
      1.74557292 1.24411595e+29 -1.8164494 2.45156784e-26 1.67079401
      .Nan -1.92273259</_>
    <_>
      -1.04082621e-37 -1.61822975 20.1106472 -1.86747098 -1.64756364e+12
      1.64234293 8.80133843e-14 -1.84272408 .Nan -1.76797271
      -7.30938805e+27 1.75846088</_>
    <_>
      .Nan 1.86941719 -2.68589588e-28 1.89104676 5.60812829e-36
      -1.91988111 2.48223429e-15 -1.40146101 -6.36196559e+35 -1.90635741
      -9.78711006e-26 1.76784158</_>
    <_>
      1.38185743e-18 -1.54108918 -5.91439501e+35 -1.80672634
      -1.35185097e-36 -1.70175672 -7.36916251e+25 1.82241523
      3.81693687e+23 -1.83220172 -7.09323648e+18 1.68240547</_>
    <_>
      1.38185743e-18 -1.54108918 -1.24193127e-06 -1.61594927
      1.49513648e+38 1.71116292 .Nan 1.99847305 -1.07680464e-28
      -1.79651892 -1.11656094e+30 1.95759106</_>
    <_>
      .Nan 1.86941719 -2.72766159e+14 -1.74956846 -6.34888336e+12
      -1.681934 -1.97118454e+27 -1.58514404 4.45694853e+21 -1.83290374
      -9.78711006e-26 1.76784158</_>
    <_>
      1.34783468e+19 1.51747322 -4.44278531e-33 1.94008029
      -6.09271164e+20 -1.955284 1.49273833e-33 -1.59428513
      -8.19550426e+14 1.83885491 .Nan -1.92273259</_>
    <_>
      6.16129494 -1.76294804 -6.04998981e-39 1.62000704 5.08096143e+10
      1.52204609 1.16431562e+27 -1.71474111 .Nan -1.76797271 -638.937744
      1.57077825</_>
    <_>
      -9.24689816e+14 1.81489944 -5.9110801e+37 -1.65084684 48296932.
      1.4064523 7.88263196e+18 1.81716037 .Nan -1.76797271
      8.19928084e-11 -1.51728725</_>
    <_>
      -1.04082621e-37 -1.61822975 1.02887867e-20 -1.83709872 .Nan
      1.7821964 7.75827456 -1.85323393 0.835998893 1.4764365
      -3.19753616e+19 1.65423334</_>
    <_>
      8.53258725e+36 -1.94432747 -2.93083032e+14 -1.77635407
      4.16580724e-13 1.8510164 1.66123901e-29 -1.67270172 3.81693687e+23
      -1.83220172 -3.21370398e-34 -1.75917423</_>
    <_>
      6.26665226e+10 -1.73732579 7.02850628 1.93248725 -4.68400701e+10
      -2.00689888 1.58778671e-13 -1.78491986 -3.98244369e-21 1.68506706
      -7.093985e-35 -1.78734636</_>
    <_>
      0.000144330334 -1.85937381 -8.46915961e+22 1.49703586
      6.76373202e-06 -1.88646412 4.66334555e+24 1.55508947 .Nan
      -1.76797271 -3.19753616e+19 1.65423334</_>
    <_>
      0.000144330334 -1.85937381 2.53989945e+25 -1.87882853 48296932.
      1.4064523 -0.00113552413 1.48406065 .Nan -1.76797271
      -5.02331321e-24 -1.23678982</_>
    <_>
      8.53258725e+36 -1.94432747 1.34313504e-25 1.52889025
      -6.09271164e+20 -1.955284 6.74084469e-11 1.96168864 3.57433947e+12
      -1.71457994 -7.09323648e+18 1.68240547</_>
    <_>
      -1.8788223e+15 -1.78223312 6.56765394e+14 1.37554681
      -4.61993613e+36 1.59086597 -5.70024031e-30 1.2568059
      6.88641095e-34 -1.78224587 -4.99385214 -1.90160346</_>
    <_>
      3.17402734e-29 1.75704408 3.1888251e+13 2.26588416 -44.1375427
      -1.9810915 14.302824 -1.79542971 5.05609267e+09 1.82458186
      -7.0999892e-37 -1.87186277</_>
    <_>
      -1.04082621e-37 -1.61822975 -1.24193127e-06 -1.61594927
      -1.64756364e+12 1.64234293 -2.08110149e+16 -1.57326531
      1.11548886e-19 -1.35723627 2.38760839e+13 1.21396422</_>
    <_>
      1.48338341e-33 -1.82080352 1.02887867e-20 -1.83709872
      -3.18908455e-10 1.02549922 -2.14562636e+36 -1.76390004
      4.87524997e-31 -1.54724395 -1.53842766e-35 -1.8155185</_>
    <_>
      -8.30444995e+29 -1.6601851 -1.48843e-08 -1.88642156
      -1.64756364e+12 1.64234293 8.80133843e-14 -1.84272408
      6.88641095e-34 -1.78224587 -1.06845839e-28 1.41617954</_>
    <_>
      -0.987474203 1.59461379 1.3641705e+25 -1.79154027 4.37334351e-35
      -1.57205367 1.62432893e-27 -1.77441001 1.50036388e+13 -1.80365551
      1.55351894e-27 -1.68383217</_>
    <_>
      6.16129494 -1.76294804 9.78597471e-19 -1.68121922 -1.35185097e-36
      -1.70175672 -0.00876907818 1.80139554 -5.48797143e+17 -1.72885299
      -3.35959666e+26 1.81480515</_>
    <_>
      -3.51639624e+17 2.1631546 -4.44278531e-33 1.94008029
      2.19752746e-38 1.98344314 1.62432893e-27 -1.77441001
      -9.27598138e-22 1.84599149 -7.0999892e-37 -1.87186277</_>
    <_>
      -4.36004982e-37 -1.4278971 -2.377067e-34 1.99323177 -18769.668
      -2.02410388 1.58778671e-13 -1.78491986 -1.09356348e+13 -1.48030293
      .Nan -1.92273259</_>
    <_>
      1.38185743e-18 -1.54108918 1.4568959e+10 -1.48892045
      -4.61993613e+36 1.59086597 9.34719476e-28 -1.83221424
      8.93565237e+22 -1.74312615 1.55351894e-27 -1.68383217</_>
    <_>
      -4.57077207e-19 -1.84008861 -1.11813097e+36 -1.8940146
      4.37334351e-35 -1.57205367 0.000559703447 1.53406978
      -3.50273704e-14 -1.64321434 -3.30751755e+17 1.73874974</_>
    <_>
      -1.04082621e-37 -1.61822975 20.1106472 -1.86747098 -1.64756364e+12
      1.64234293 8.80133843e-14 -1.84272408 .Nan -1.76797271
      -7.30938805e+27 1.75846088</_>
    <_>
      1.38185743e-18 -1.54108918 3.61506646e+28 -1.55520475 -4.77548313
      -1.36265492 7.88263196e+18 1.81716037 .Nan -1.76797271
      1.5380636e+26 1.82889128</_>
    <_>
      -9.84647002e-15 1.77632916 7.02850628 1.93248725 6.76373202e-06
      -1.88646412 1.32751936e+15 -1.80593956 -3.55677698e+32 1.97824883
      0.488882989 -1.94386172</_>
    <_>
      3.17402734e-29 1.75704408 9.78597471e-19 -1.68121922
      -3.18908455e-10 1.02549922 0.13732639 -1.69372141 -3.19485244e+33
      -1.75369954 -4.99385214 -1.90160346</_>
    <_>
      -8.30444995e+29 -1.6601851 1.3641705e+25 -1.79154027
      4.37334351e-35 -1.57205367 -1.74122141e+28 2.01161027 -2.57962751
      1.74215949 -4.96135601e+30 1.92941892</_>
    <_>
      -0.0255324654 1.87663198 -375542.375 1.904387 7.45520842e-21
      -1.87146401 .Nan -1.82875133 1.59596603e-15 -1.93780088
      -9.78711006e-26 1.76784158</_>
    <_>
      6.16129494 -1.76294804 -1.57583113e-11 1.80774081 .Nan 1.7821964
      1.36713876e+14 2.04839492 5.05609267e+09 1.82458186
      -4.88178564e-09 1.95054805</_>
    <_>
      5.69535116e+29 -1.80151832 2.57381529e+23 1.90970802
      2.82935806e-12 -1.89506662 1.24411595e+29 -1.8164494
      -1.07883989e+30 1.7746259 3.39593341e-26 -1.6274879</_>
    <_>
      4.90595542e-12 1.99923098 -6.32819184e+31 1.86848533
      1.61799916e+26 1.89741814 1.62432893e-27 -1.77441001
      2.35811039e+31 2.34606242 -1.05317557 -1.9297756</_>
    <_>
      -2.20159823e-29 1.64837718 -1.24193127e-06 -1.61594927
      -2.86591272e+27 -1.79469824 4.29114869e+18 1.87496459
      1.21513656e-20 -1.57579017 1.04910738e-08 1.93646204</_>
    <_>
      -1.04082621e-37 -1.61822975 -9.77948639e+11 2.12990689
      -4.84784736e+14 -1.81190324 -2396009. -1.64117205 -4.95217052e-17
      1.75321627 7.10446645e-36 -1.82960463</_>
    <_>
      -5.58707433e+24 -1.87682939 -6.32819184e+31 1.86848533 -44.1375427
      -1.9810915 1.62432893e-27 -1.77441001 1.11548886e-19 -1.35723627
      -3.19753616e+19 1.65423334</_>
    <_>
      437519.531 -1.95397007 6.56765394e+14 1.37554681 -1.35185097e-36
      -1.70175672 -1.0092993e-14 1.64259398 6.88641095e-34 -1.78224587
      -3.19753616e+19 1.65423334</_>
    <_>
      -1.8788223e+15 -1.78223312 1.1972942e-05 2.16407585 -18769.668
      -2.02410388 -1.51848076e-06 -1.79017472 -63752240. 2.14238954 .Nan
      -1.92273259</_>
    <_>
      6.7958781e-19 -1.6987555 -2.93083032e+14 -1.77635407
      -1.64756364e+12 1.64234293 -1.05707345e-30 1.78037584 -22595894.
      -1.70030677 -1.58559284e+27 1.78663301</_>
    <_>
      5.69535116e+29 -1.80151832 1911.60791 -1.71159148 -4.62701844e-14
      1.67675292 -1.49747676e+12 1.75410116 2.11833032e-19 -1.6289413
      2.35689987e+30 1.94350505</_>
    <_>
      -1.57698395e-26 1.97994578 3.45104396e-21 1.90211499
      8.80357856e+25 1.7994014 1.58778671e-13 -1.78491986 2.36850179e-37
      1.80317223 7.22781787e-27 -1.65566003</_>
    <_>
      -2.20159823e-29 1.64837718 -8.46915961e+22 1.49703586 2.53474569
      1.8338114 1.07617861e-37 1.77512097 -2.46471863e-30 2.35498309
      8.19928084e-11 -1.51728725</_>
    <_>
      1.36327537e-26 -1.06392741 -1.24193127e-06 -1.61594927
      -1.35185097e-36 -1.70175672 9.34719476e-28 -1.83221424
      3.57433947e+12 -1.71457994 -7.31257712e+25 1.84297729</_>
    <_>
      -2.00219774 1.68694746 -3.05452307e+13 -1.91679382 -3.18908455e-10
      1.02549922 -9.16650455e-21 -1.8374691 0.835998893 1.4764365
      3.46741811e+25 1.85706341</_>
    <_>
      -61569504. 1.92209029 -2.05102488e+34 1.76218235 5.61163548e+16
      -1.50323367 9.34719476e-28 -1.83221424 4.87524997e-31 -1.54724395
      2.3016386 -1.91568959</_>
    <_>
      6.16129494 -1.76294804 1.3641705e+25 -1.79154027 4.33799133e+15
      -1.73616672 3967.6604 2.06153226 -3.50273704e-14 -1.64321434
      -3.2583973e-36 -1.84369063</_>
    <_>
      1.36327537e-26 -1.06392741 -2.26615633e-31 -1.82191253
      -4.61993613e+36 1.59086597 -5.49394364e+24 1.9879632 3.1442085e-10
      -1.60433638 -1.42311118e+20 1.6260612</_>
    <_>
      3.17402734e-29 1.75704408 7.02850628 1.93248725 1.49782842e-37
      -1.77749336 -1.51848076e-06 -1.79017472 7.73295056e-12 1.76748943
      3.48941745e-28 -1.7120043</_>
    <_>
      -4.57077207e-19 -1.84008861 -1.48843e-08 -1.88642156
      5.08096143e+10 1.52204609 6.72420149e-32 1.51305008 6.88641095e-34
      -1.78224587 2.38760839e+13 1.21396422</_>
    <_>
      1.34783468e+19 1.51747322 9.88125266e+11 0.877423823
      8.80357856e+25 1.7994014 7.75827456 -1.85323393 -95772072.
      -1.78938234 -1.53842766e-35 -1.8155185</_>
    <_>
      .Nan 1.86941719 3.91350369e-10 -1.8748492 1.09758114e-08
      -1.77816582 1.63210275e+29 -1.011379 -1.54738613e-12 1.79441667
      -9.78711006e-26 1.76784158</_>
    <_>
      0.000144330334 -1.85937381 1911.60791 -1.71159148 -4.85271753e-11
      -1.66734672 -9.44435669e-35 -1.82695925 -3.50273704e-14
      -1.64321434 -1.06845839e-28 1.41617954</_>
    <_>
      1.38185743e-18 -1.54108918 -2.93083032e+14 -1.77635407
      -3.18908455e-10 1.02549922 8.80133843e-14 -1.84272408
      -0.00365217379 -1.76083612 -3.30751755e+17 1.73874974</_>
    <_>
      -9.84647002e-15 1.77632916 -3.4613216e+29 2.04258657
      8.50338413e-25 -1.76028836 -2.14562636e+36 -1.76390004
      -3.79124758e-32 1.81744528 -2.11269818e-38 -1.89456046</_>
    <_>
      1.48338341e-33 -1.82080352 6848.35156 -1.761168 4.09939395e+32
      1.88881564 48161.3633 1.86445475 -0.000873837096 -1.67176056
      -2.74928016e-06 2.08436561</_>
    <_>
      90462032. -1.90575719 -1.11813097e+36 -1.8940146 -1.35185097e-36
      -1.70175672 1.40083262e+22 1.179533 -2.23153615e+36 -1.51869762
      -1.01388643e-07 1.89420378</_>
    <_>
      9.47672063e+19 1.98958838 1.263205e+27 -1.63566077 -2.60639242e-26
      1.7649914 9.34719476e-28 -1.83221424 -2.57962751 1.74215949
      1.49345682e-36 -1.85777676</_>
    <_>
      -2.22868151e-19 1.87275493 -4.39499548e-10 -1.85228479
      4.09939395e+32 1.88881564 7.75827456 -1.85323393 4.32514539e-13
      -1.8393383 3.48941745e-28 -1.7120043</_>
    <_>
      -0.987474203 1.59461379 -6.04998981e-39 1.62000704 48296932.
      1.4064523 -5.6141972e+22 -1.43633354 5.62897773e-09 -1.65748751
      -5.02331321e-24 -1.23678982</_>
    <_>
      -1.99323855e+29 1.72551775 -1.48843e-08 -1.88642156 .Nan 1.7821964
      -1.17364559e+36 -1.82170427 4.32514539e-13 -1.8393383
      4.71764763e+20 -1.42188597</_>
    <_>
      -2.90771283e-07 -1.88647199 1.4568959e+10 -1.48892045
      -1.73145849e+15 -1.63293672 1.31235329e-05 -1.61530483
      -1.07680464e-28 -1.79651892 -7.31257712e+25 1.84297729</_>
    <_>
      6.26665226e+10 -1.73732579 9.88125266e+11 0.877423823
      -4.85271753e-11 -1.66734672 0.000559703447 1.53406978
      1.31933268e-21 1.41934407 3.48941745e-28 -1.7120043</_>
    <_>
      -1.04082621e-37 -1.61822975 -8.35109815e-35 1.68324804
      5.61163548e+16 -1.50323367 -14923.4951 1.88549209 -95772072.
      -1.78938234 1.55351894e-27 -1.68383217</_>
    <_>
      6.16129494 -1.76294804 -5.9110801e+37 -1.65084684 8.80357856e+25
      1.7994014 -14923.4951 1.88549209 -22595894. -1.70030677
      1.16361717e+29 1.99984932</_>
    <_>
      -2.20159823e-29 1.64837718 -4.39499548e-10 -1.85228479
      -4.62701844e-14 1.67675292 7.30750896e-25 1.95117879 -95772072.
      -1.78938234 -2.33693388e+31 1.90124679</_>
    <_>
      6.16129494 -1.76294804 2.53989945e+25 -1.87882853 -4.77548313
      -1.36265492 9.34719476e-28 -1.83221424 3.57433947e+12 -1.71457994
      -638.937744 1.57077825</_>
    <_>
      6.26665226e+10 -1.73732579 -8.46915961e+22 1.49703586
      -5.65223545e-39 1.88021314 -9.16650455e-21 -1.8374691
      -1.85808507e-35 2.06745577 3.39593341e-26 -1.6274879</_>
    <_>
      -5.58707433e+24 -1.87682939 699.912231 -1.90160775 4.33799133e+15
      -1.73616672 -2.08110149e+16 -1.57326531 3.81693687e+23 -1.83220172
      -638.937744 1.57077825</_>
    <_>
      -0.987474203 1.59461379 -2.26615633e-31 -1.82191253
      -3.18908455e-10 1.02549922 3.8824727e+09 -1.51020622
      3.95315872e+30 -0.811228096 -3.30751755e+17 1.73874974</_>
    <_>
      -3.57100872e-12 2.08601403 -8.35109815e-35 1.68324804
      -4.62701844e-14 1.67675292 -1.29835287e+22 -1.81119442
      2.36850179e-37 1.80317223 -1.53842766e-35 -1.8155185</_>
    <_>
      1.38185743e-18 -1.54108918 -4.14805061e-31 -1.90920079
      -4.62701844e-14 1.67675292 2.51863824e-14 1.94461012 -22595894.
      -1.70030677 -3.19753616e+19 1.65423334</_>
    <_>
      -1.8788223e+15 -1.78223312 -1.78585659e-35 -1.35986269
      8.50338413e-25 -1.76028836 5.02237751e-10 1.8539449 3.57433947e+12
      -1.71457994 4.71764763e+20 -1.42188597</_>
    <_>
      -4.36004982e-37 -1.4278971 -3.12924631e+10 1.83811307
      -1.73145849e+15 -1.63293672 -2.14562636e+36 -1.76390004
      2.45156784e-26 1.67079401 .Nan -1.92273259</_>
    <_>
      0.000144330334 -1.85937381 1.02887867e-20 -1.83709872
      -1.35185097e-36 -1.70175672 5.40214402e+31 1.99321818
      5.62897773e-09 -1.65748751 4.77843116e-08 1.90828991</_>
    <_>
      14720.5859 1.76325548 1.4796884e-30 -1.89576876 7.45520842e-21
      -1.87146401 -0.149161845 -1.77834618 -676145. 1.8153789
      -9.78711006e-26 1.76784158</_>
    <_>
      1.86836115e-13 1.73227692 -4.77340736e+13 -1.99081802
      1.11754707e+21 1.8911128 .Nan -1.82875133 1.38609208e-19
      2.00240636 -9.78711006e-26 1.76784158</_>
    <_>
      1.38185743e-18 -1.54108918 1.4568959e+10 -1.48892045
      8.50338413e-25 -1.76028836 0.000559703447 1.53406978 3.1442085e-10
      -1.60433638 2.38760839e+13 1.21396422</_>
    <_>
      1.85430322e+22 1.94137549 699.912231 -1.90160775 -4.62701844e-14
      1.67675292 7.75827456 -1.85323393 6.88641095e-34 -1.78224587
      -3.19753616e+19 1.65423334</_>
    <_>
      437519.531 -1.95397007 -325228768. 1.74399257 29434242. -2.0155015
      9.34719476e-28 -1.83221424 1.40821073e-33 -1.88928366
      7.22781787e-27 -1.65566003</_>
    <_>
      2.24011814e-26 -1.96361268 1911.60791 -1.71159148 -3.18908455e-10
      1.02549922 -2.08110149e+16 -1.57326531 -1.07680464e-28 -1.79651892
      2.35689987e+30 1.94350505</_>
    <_>
      -5.58707433e+24 -1.87682939 9.88125266e+11 0.877423823
      -2.86591272e+27 -1.79469824 1.58778671e-13 -1.78491986
      1.78011496e-23 -1.81079209 -7.093985e-35 -1.78734636</_>
    <_>
      6.16129494 -1.76294804 -2.93083032e+14 -1.77635407 4.14969207e+12
      1.74557292 3967.6604 2.06153226 -1.09356348e+13 -1.48030293
      7.73759448e-29 -1.74017644</_>
    <_>
      -8.30444995e+29 -1.6601851 -2.93083032e+14 -1.77635407
      -4.62701844e-14 1.67675292 -0.490849882 1.71090806 136.732086
      -1.68603373 -4.88178564e-09 1.95054805</_>
    <_>
      1.48338341e-33 -1.82080352 -1.11373417e+34 1.92489409
      -3.80952867e+33 -1.938079 -133107984. -1.80068457 3.1442085e-10
      -1.60433638 -2.55952529e+38 -1.9368186</_>
    <_>
      -4.36004982e-37 -1.4278971 -2.26615633e-31 -1.82191253
      5.61163548e+16 -1.50323367 -9.16650455e-21 -1.8374691
      -0.00365217379 -1.76083612 1.5380636e+26 1.82889128</_>
    <_>
      1.48338341e-33 -1.82080352 0.00025331034 1.55926251 8.50338413e-25
      -1.76028836 6.72420149e-32 1.51305008 -1.07680464e-28 -1.79651892
      -7.093985e-35 -1.78734636</_>
    <_>
      -4.57077207e-19 -1.84008861 1911.60791 -1.71159148 -3.18908455e-10
      1.02549922 7.75827456 -1.85323393 6.88641095e-34 -1.78224587
      1.55351894e-27 -1.68383217</_>
    <_>
      1.36327537e-26 -1.06392741 1.02887867e-20 -1.83709872
      -1.73145849e+15 -1.63293672 -9.44435669e-35 -1.82695925
      -2.81652807e-18 -1.82506514 -7.0999892e-37 -1.87186277</_>
    <_>
      -2.40223001e+26 1.63496184 -9.36543062e-25 -1.92911935 .Nan
      -1.9432056 -85.8028107 -1.95268583 2.26495072e-08 1.62921095
      -9.78711006e-26 1.76784158</_>
    <_>
      6.16129494 -1.76294804 3.88152988e+24 -1.74196374 -4.77548313
      -1.36265492 8.80133843e-14 -1.84272408 6.88641095e-34 -1.78224587
      -4.88178564e-09 1.95054805</_>
    <_>
      6.7958781e-19 -1.6987555 -2.26615633e-31 -1.82191253
      -3.18908455e-10 1.02549922 -9.14939562e-29 -1.02040708
      2.11833032e-19 -1.6289413 4.71764763e+20 -1.42188597</_>
    <_>
      6.7958781e-19 -1.6987555 -161.696625 -1.92818344 -3.18908455e-10
      1.02549922 -9.20967747e-11 1.93278646 -2.23153615e+36 -1.51869762
      -638.937744 1.57077825</_>
    <_>
      -4.57077207e-19 -1.84008861 -2.93083032e+14 -1.77635407
      -4.85271753e-11 -1.66734672 5.02237751e-10 1.8539449 -46.4129143
      1.54531062 -13422.5928 1.51443398</_>
    <_>
      2.80623984e+29 1.83418465 -1.65336537 1.95906293 -2.86591272e+27
      -1.79469824 1.62432893e-27 -1.77441001 -9.27598138e-22 1.84599149
      .Nan -1.92273259</_>
    <_>
      -9.24689816e+14 1.81489944 6.08555916e-17 2.18685508
      -4.85271753e-11 -1.66734672 -133107984. -1.80068457 1.27977251e+20
      1.85312808 2.3016386 -1.91568959</_>
    <_>
      -4.03106654e+37 1.38066518 2.53989945e+25 -1.87882853
      -1.64756364e+12 1.64234293 1.26482957e+33 1.76986599
      -2.81652807e-18 -1.82506514 -3.35959666e+26 1.81480515</_>
    <_>
      3.31945144e+35 -1.41789746 8.97058807e-29 -1.78980505
      1.01214757e-21 -1.74413288 .Nan -1.82875133 -2.8199358e+33
      1.95000064 -9.78711006e-26 1.76784158</_>
    <_>
      6.7958781e-19 -1.6987555 -8.46915961e+22 1.49703586
      -1.73145849e+15 -1.63293672 1.07617861e-37 1.77512097
      6.88641095e-34 -1.78224587 4.71764763e+20 -1.42188597</_>
    <_>
      1.02621287e+21 2.01851606 2.3022633e+11 2.1830585 8.80357856e+25
      1.7994014 -9.44435669e-35 -1.82695925 3.95315872e+30 -0.811228096
      -638.937744 1.57077825</_>
    <_>
      -1.78250032e+19 1.65265548 -9.60783358e-24 1.9394052
      -1.0608311e-27 1.62905979 .Nan -1.82875133 2.48610717e-24
      -1.92731977 -9.78711006e-26 1.76784158</_>
    <_>
      -9.10993828e-31 1.94740653 3.25709308e-22 1.8587352 1.46021129e-09
      -1.65083468 .Nan -1.82875133 10643.9961 -1.8119415 -9.78711006e-26
      1.76784158</_>
    <_>
      -9.24689816e+14 1.81489944 0.00025331034 1.55926251
      -1.64756364e+12 1.64234293 -76180592. -1.8584888 6.88641095e-34
      -1.78224587 -1.53842766e-35 -1.8155185</_>
    <_>
      -1.18170969e-28 1.35540116 -1.70196644e-35 -1.55397081
      2.7399832e+34 -1.71303344 .Nan -1.82875133 -1.52901509e+18
      -1.88539517 -9.78711006e-26 1.76784158</_>
    <_>
      1.38185743e-18 -1.54108918 1.3641705e+25 -1.79154027
      -1.64756364e+12 1.64234293 -7.89372777e+27 1.67412353
      -2.81652807e-18 -1.82506514 2.38760839e+13 1.21396422</_>
    <_>
      4.67255212e-24 -1.91539979 -1.11813097e+36 -1.8940146
      -3.18908455e-10 1.02549922 5.65561306e-32 1.97482598
      1.50036388e+13 -1.80365551 7.10446645e-36 -1.82960463</_>
    <_>
      -5.28044933e+29 -1.78753614 .Nan -1.91953099 4.53540906e-06
      1.66015923 -1.42246222e-06 1.79088604 -2.8199358e+33 1.95000064
      -9.78711006e-26 1.76784158</_>
    <_>
      -1.43479406e-09 -1.93468487 -2.93083032e+14 -1.77635407 48296932.
      1.4064523 8.80133843e-14 -1.84272408 -95772072. -1.78938234
      7.22781787e-27 -1.65566003</_>
    <_>
      1.36327537e-26 -1.06392741 -4.39499548e-10 -1.85228479
      4.14969207e+12 1.74557292 -8.31584089e-07 -1.84797895 .Nan
      -1.76797271 -1.06845839e-28 1.41617954</_>
    <_>
      -6.42417266e-38 1.47136235 2025.79675 -1.909109 .Nan -1.9432056
      2.79099703 -1.5179373 -2.35087783e-11 1.89759505 -9.78711006e-26
      1.76784158</_>
    <_>
      6.7958781e-19 -1.6987555 -2.93083032e+14 -1.77635407
      5.61163548e+16 -1.50323367 -1.68602904e-36 -1.66744673 -22595894.
      -1.70030677 794904.375 2.26226377</_>
    <_>
      -2.40223001e+26 1.63496184 -9.36543062e-25 -1.92911935 .Nan
      -1.9432056 -85.8028107 -1.95268583 2.26495072e-08 1.62921095
      -9.78711006e-26 1.76784158</_>
    <_>
      -110950.008 1.68804276 3.04118023e+16 -1.87951028 5.85981362e-34
      -1.33649695 -2.16217658e-19 -1.87707818 -1.54738613e-12 1.79441667
      -9.78711006e-26 1.76784158</_>
    <_>
      6.26665226e+10 -1.73732579 22.553587 2.09953475 -7.07247368e-12
      -1.9982965 -3.3641398e-29 1.74769258 1.64550981e+35 1.78889906
      .Nan -1.92273259</_>
    <_>
      1.38185743e-18 -1.54108918 -5.86668101e+12 1.89452183
      -4.68400701e+10 -2.00689888 -76180592. -1.8584888 .Nan -1.76797271
      -3.30751755e+17 1.73874974</_>
    <_>
      -1.09588963e+27 2.25479007 -1.57583113e-11 1.80774081
      2.32035359e+26 2.01785302 1.32751936e+15 -1.80593956
      -1.00851258e-10 1.71361327 .Nan -1.92273259</_>
    <_>
      4.90595542e-12 1.99923098 -1.43969829e-22 2.19824457
      4.16580724e-13 1.8510164 -9.61020553e-17 1.79088569
      -1.09356348e+13 -1.48030293 -638.937744 1.57077825</_>
    <_>
      2.80623984e+29 1.83418465 3.88152988e+24 -1.74196374 .Nan
      1.7821964 -7.36916251e+25 1.82241523 -22595894. -1.70030677
      3.41293985e+27 1.77254701</_>
    <_>
      0.000144330334 -1.85937381 -4.44278531e-33 1.94008029 -18769.668
      -2.02410388 -7.20822231e+21 -1.86899865 -0.00365217379 -1.76083612
      -5.02331321e-24 -1.23678982</_>
    <_>
      1.38185743e-18 -1.54108918 4.71267783e+21 1.65287578
      8.50338413e-25 -1.76028836 -76180592. -1.8584888 3.1442085e-10
      -1.60433638 8.22424311e-39 -1.90864658</_>
    <_>
      -1.8788223e+15 -1.78223312 -2.05102488e+34 1.76218235
      -4.85271753e-11 -1.66734672 7.75827456 -1.85323393 1.11548886e-19
      -1.35723627 -1.05317557 -1.9297756</_>
    <_>
      -4.03106654e+37 1.38066518 6848.35156 -1.761168 .Nan 1.7821964
      1.24411595e+29 -1.8164494 -0.00365217379 -1.76083612
      -2.33693388e+31 1.90124679</_>
    <_>
      1.34783468e+19 1.51747322 9.78597471e-19 -1.68121922
      -2.60639242e-26 1.7649914 -1.09482779e+11 1.91964912
      -1.07680464e-28 -1.79651892 -7.0999892e-37 -1.87186277</_>
    <_>
      -2.78039424e-05 1.93192458 -2.12717097e+14 1.63396382
      -1.08094026e+18 1.57092083 .Nan -1.82875133 4.85781847e+15
      -1.61967206 -9.78711006e-26 1.76784158</_>
    <_>
      -1.15530375e+33 -1.56511045 6.2850728e-07 -1.92078173
      1.11754707e+21 1.8911128 9.96638576e+20 1.8580929 -6.74604876e+15
      1.92903841 -9.78711006e-26 1.76784158</_>
    <_>
      -15819.418 2.07637143 9.78597471e-19 -1.68121922 4.14969207e+12
      1.74557292 5.35010959e+10 2.01423788 -3.98244369e-21 1.68506706
      .Nan -1.92273259</_>
    <_>
      6.7958781e-19 -1.6987555 3.61506646e+28 -1.55520475
      -3.18908455e-10 1.02549922 -5.49394364e+24 1.9879632
      -3.19485244e+33 -1.75369954 .Nan -1.92273259</_>
    <_>
      -5.28044933e+29 -1.78753614 -0.0236966778 -1.56731105
      1.01214757e-21 -1.74413288 2.06739298e+33 -1.91068161
      1.66152066e-35 1.96048188 -9.78711006e-26 1.76784158</_>
    <_>
      0.000144330334 -1.85937381 2.53989945e+25 -1.87882853 48296932.
      1.4064523 -0.00113552413 1.48406065 .Nan -1.76797271
      -5.02331321e-24 -1.23678982</_>
    <_>
      -2.20159823e-29 1.64837718 -1.11813097e+36 -1.8940146
      -2.60639242e-26 1.7649914 8.80133843e-14 -1.84272408 .Nan
      -1.76797271 1.55351894e-27 -1.68383217</_>
    <_>
      0.000144330334 -1.85937381 -8.35109815e-35 1.68324804
      5.61163548e+16 -1.50323367 -9.44435669e-35 -1.82695925
      2.11833032e-19 -1.6289413 -5.02331321e-24 -1.23678982</_>
    <_>
      1.48338341e-33 -1.82080352 1.33655769e+24 -1.93198001 .Nan
      1.7821964 -76180592. -1.8584888 -5.48797143e+17 -1.72885299
      -1.53842766e-35 -1.8155185</_>
    <_>
      -6.83770797e+36 -1.76984251 -4.1340525e+11 -1.912444
      -1.42170319e-28 1.75172865 .Nan -1.82875133 -5.18621096e-29
      1.87663281 -9.78711006e-26 1.76784158</_>
    <_>
      -2.06122821e-37 -1.76099575 -1.59737476e-30 1.85540009
      1.72231471e-16 1.97663617 1.84021466e-25 1.35973251 4.45694853e+21
      -1.83290374 2.32717999e-29 -1.96877372</_>
    <_>
      -4.15350979e-30 2.19208241 3.88152988e+24 -1.74196374 11683320.
      1.92322564 1.24411595e+29 -1.8164494 -1.00851258e-10 1.71361327
      .Nan -1.92273259</_>
    <_>
      90462032. -1.90575719 -6.32819184e+31 1.86848533 -1.54712961e+27
      -1.9466815 -1.51848076e-06 -1.79017472 1.21513656e-20 -1.57579017
      -1.53842766e-35 -1.8155185</_>
    <_>
      0.000144330334 -1.85937381 -1.65336537 1.95906293 -1.7725868e-05
      -1.989694 -7.20822231e+21 -1.86899865 -1.07680464e-28 -1.79651892
      8.22424311e-39 -1.90864658</_>
    <_>
      5.44984063e-25 1.83403003 -7.87345837e+36 1.45234907 5.6977347e-27
      -1.48014605 .Nan -1.82875133 -3.0811178e+17 -1.74810946
      -9.78711006e-26 1.76784158</_>
    <_>
      1.48338341e-33 -1.82080352 9.78597471e-19 -1.68121922
      -1.73145849e+15 -1.63293672 1.31235329e-05 -1.61530483
      4.32514539e-13 -1.8393383 7.73759448e-29 -1.74017644</_>
    <_>
      1.31640433e-37 -1.54741693 -3.06138088e-38 -2.01895761
      1.01214757e-21 -1.74413288 .Nan -1.82875133 0.0583349988
      2.04433084 -9.78711006e-26 1.76784158</_>
    <_>
      1.36327537e-26 -1.06392741 -8.35109815e-35 1.68324804
      -3.51234659e+29 2.0092504 1.3982027e+11 1.89074707 3.57433947e+12
      -1.71457994 -1.24870448e-05 2.02802134</_>
    <_>
      -2.40223001e+26 1.63496184 -1.02857289e+35 -1.99165177
      -1.12222462e+11 -1.55227172 .Nan -1.82875133 3.42039845e-15
      2.01288748 -9.78711006e-26 1.76784158</_>
    <_>
      -4.3210077e-29 -1.83619368 -1.69246295e-32 -1.83482838
      -1.42170319e-28 1.75172865 .Nan -1.82875133 5.53565387e-32
      -1.77001703 -9.78711006e-26 1.76784158</_>
    <_>
      4.53631176e+36 2.00887346 -6.32819184e+31 1.86848533 6.7440991e+19
      1.90602064 .Nan 1.96957099 -5.89279097e-37 2.26577616
      -1.63927383e+25 1.87114942</_>
    <_>
      -8.30680976e-17 -1.9086777 2.30004332e-37 1.62896132
      -9.32767369e-31 2.02328515 -1.87064727e-34 1.90014982
      4.85781847e+15 -1.61967206 2.32717999e-29 -1.96877372</_>
    <_>
      -1.50908326e-38 -1.89611459 -8.46915961e+22 1.49703586
      5.08096143e+10 1.52204609 -2.60961759e-08 -1.6306622
      4.32514539e-13 -1.8393383 -3.21370398e-34 -1.75917423</_>
    <_>
      -61569504. 1.92209029 -6.04998981e-39 1.62000704 .Nan 1.7821964
      1.58778671e-13 -1.78491986 -5.26696679e+29 1.91758811 .Nan
      -1.92273259</_>
    <_>
      -8.79243455e+20 1.91644263 -5.37808323e-16 1.78369617
      2.0345703e+35 -1.84036458 1.07554239e+26 -1.84555304
      -7.21090418e-21 -1.87482822 -9.78711006e-26 1.76784158</_>
    <_>
      -53917056. 1.7544086 1.56999824e+29 -1.95830119 1.01214757e-21
      -1.74413288 -2.93146617e+14 -1.93588412 -2.8199358e+33 1.95000064
      -9.78711006e-26 1.76784158</_>
    <_>
      -7.94360206e-28 1.89211392 5.19568657e+31 1.73401582 2.0345703e+35
      -1.84036458 -6.6103032e+34 -1.70588219 2.48610717e-24 -1.92731977
      -9.78711006e-26 1.76784158</_>
    <_>
      -4.15350979e-30 2.19208241 1.3641705e+25 -1.79154027
      1.49513648e+38 1.71116292 -1.25645468e-17 1.89862943
      6.88641095e-34 -1.78224587 -3.2583973e-36 -1.84369063</_>
    <_>
      5.07031075e-07 1.50337481 -226017.031 1.95858181 2.28437143e-17
      -1.97430503 3.52850116e+30 1.5008899 2.43153513e-14 -1.79097927
      -9.78711006e-26 1.76784158</_>
    <_>
      -6.76761758e-10 1.72343004 5.19568657e+31 1.73401582
      4.93601581e-29 1.87556314 1.63210275e+29 -1.011379 -1.38100982
      0.984998703 -9.78711006e-26 1.76784158</_>
    <_>
      6.16129494 -1.76294804 -1.78585659e-35 -1.35986269 5.61163548e+16
      -1.50323367 1.66123901e-29 -1.67270172 .Nan -1.76797271
      -638.937744 1.57077825</_>
    <_>
      -1.43479406e-09 -1.93468487 0.726090908 1.822927 -3.80952867e+33
      -1.938079 8.80133843e-14 -1.84272408 .Nan -1.76797271 10.7688541
      -1.88751745</_>
    <_>
      1.85430322e+22 1.94137549 -4.39499548e-10 -1.85228479
      8.80357856e+25 1.7994014 1.32751936e+15 -1.80593956 2.11833032e-19
      -1.6289413 7.10446645e-36 -1.82960463</_>
    <_>
      4.67255212e-24 -1.91539979 9.88125266e+11 0.877423823
      -1.35185097e-36 -1.70175672 14.302824 -1.79542971 -6.45770741e-39
      -1.87501049 2.38760839e+13 1.21396422</_>
    <_>
      -8.30444995e+29 -1.6601851 9.78597471e-19 -1.68121922
      1.49762668e+13 1.8166064 4.57547391e+20 1.72667289 1.78011496e-23
      -1.81079209 -5.02331321e-24 -1.23678982</_>
    <_>
      -8.30444995e+29 -1.6601851 -1.24193127e-06 -1.61594927
      4.37334351e-35 -1.57205367 0.000559703447 1.53406978
      -6.10658796e+28 -1.84647477 4.71764763e+20 -1.42188597</_>
    <_>
      1.48338341e-33 -1.82080352 -8.46915961e+22 1.49703586
      1.1603914e-18 -1.90366912 86379.8906 1.80665052 .Nan -1.76797271
      -1.548158e+18 1.71057761</_>
    <_>
      -2.22868151e-19 1.87275493 1.02887867e-20 -1.83709872
      -2.60639242e-26 1.7649914 7.75827456 -1.85323393 -3.50273704e-14
      -1.64321434 2.38760839e+13 1.21396422</_>
    <_>
      1.34783468e+19 1.51747322 1911.60791 -1.71159148 -4.77548313
      -1.36265492 1.58778671e-13 -1.78491986 -2.08024042e-10 -1.89998841
      -3.2583973e-36 -1.84369063</_>
    <_>
      -1.99323855e+29 1.72551775 7.02850628 1.93248725 -4.68400701e+10
      -2.00689888 1.32751936e+15 -1.80593956 -2.57962751 1.74215949
      -4.99385214 -1.90160346</_>
    <_>
      1.34783468e+19 1.51747322 -5.9110801e+37 -1.65084684 6.7440991e+19
      1.90602064 1.24411595e+29 -1.8164494 -22595894. -1.70030677
      -1.42311118e+20 1.6260612</_>
    <_>
      90462032. -1.90575719 9.78597471e-19 -1.68121922 -2.60639242e-26
      1.7649914 6.72420149e-32 1.51305008 6.88641095e-34 -1.78224587
      -3.19753616e+19 1.65423334</_>
    <_>
      0.000144330334 -1.85937381 9.78597471e-19 -1.68121922 11683320.
      1.92322564 0.000559703447 1.53406978 -2.81652807e-18 -1.82506514
      -7.09323648e+18 1.68240547</_>
    <_>
      6.26665226e+10 -1.73732579 3.88152988e+24 -1.74196374
      -4.84784736e+14 -1.81190324 2.24782869e+29 -1.75864518
      4.32514539e-13 -1.8393383 -1.63927383e+25 1.87114942</_>
    <_>
      6.16129494 -1.76294804 -8.46915961e+22 1.49703586 -1.73145849e+15
      -1.63293672 -8.8064708e-23 -1.73576081 -0.00365217379 -1.76083612
      4.71764763e+20 -1.42188597</_>
    <_>
      -1.18170969e-28 1.35540116 -4.1340525e+11 -1.912444
      -1.08094026e+18 1.57092083 -1.07478904e-31 1.82448947
      -2.8199358e+33 1.95000064 -9.78711006e-26 1.76784158</_>
    <_>
      -8.30444995e+29 -1.6601851 20.1106472 -1.86747098 -4.61993613e+36
      1.59086597 -9.14939562e-29 -1.02040708 1.11548886e-19 -1.35723627
      4.77843116e-08 1.90828991</_>
    <_>
      6.7958781e-19 -1.6987555 20.1106472 -1.86747098 -4.77548313
      -1.36265492 -14923.4951 1.88549209 588.039124 -1.77510929
      -1.58559284e+27 1.78663301</_>
    <_>
      5.69535116e+29 -1.80151832 -1.67462195e-13 1.71362031
      5.61163548e+16 -1.50323367 -8.8064708e-23 -1.73576081
      1.78011496e-23 -1.81079209 2.14417327e-07 1.88011777</_>
    <_>
      -4.03106654e+37 1.38066518 -2.26615633e-31 -1.82191253
      1.61799916e+26 1.89741814 1.24411595e+29 -1.8164494
      -3.19485244e+33 -1.75369954 -3.35959666e+26 1.81480515</_>
    <_>
      -4.03106654e+37 1.38066518 -1.78585659e-35 -1.35986269
      -2.60639242e-26 1.7649914 9.63254578e-08 1.64784896
      -3.19485244e+33 -1.75369954 -1.06845839e-28 1.41617954</_>
    <_>
      -8.30444995e+29 -1.6601851 -8.58799316e-12 1.97045255
      -1.7725868e-05 -1.989694 8.80133843e-14 -1.84272408
      -7.65206813e+31 1.34950316 7.22781787e-27 -1.65566003</_>
    <_>
      -4.36004982e-37 -1.4278971 -5.86668101e+12 1.89452183
      8.50338413e-25 -1.76028836 -7.20822231e+21 -1.86899865
      -2.28776209e+18 -1.81792855 4.71764763e+20 -1.42188597</_>
    <_>
      -4.57077207e-19 -1.84008861 -1.48843e-08 -1.88642156
      5.08096143e+10 1.52204609 6.72420149e-32 1.51305008 6.88641095e-34
      -1.78224587 2.38760839e+13 1.21396422</_>
    <_>
      -4.57077207e-19 -1.84008861 1911.60791 -1.71159148 -4.77548313
      -1.36265492 9.34719476e-28 -1.83221424 588.039124 -1.77510929
      -1.53842766e-35 -1.8155185</_>
    <_>
      6.16129494 -1.76294804 -2.93083032e+14 -1.77635407 8.50338413e-25
      -1.76028836 -9.44435669e-35 -1.82695925 -3.50273704e-14
      -1.64321434 -3.2583973e-36 -1.84369063</_>
    <_>
      1.38185743e-18 -1.54108918 3.88152988e+24 -1.74196374
      -1.35185097e-36 -1.70175672 1.3982027e+11 1.89074707
      8.93565237e+22 -1.74312615 -7.09323648e+18 1.68240547</_>
    <_>
      -1.04082621e-37 -1.61822975 -1.24193127e-06 -1.61594927
      4.16580724e-13 1.8510164 -9.16650455e-21 -1.8374691 8.93565237e+22
      -1.74312615 -3.19753616e+19 1.65423334</_>
    <_>
      -1.78250032e+19 1.65265548 1.67658344e-23 -1.91411161
      -1.08094026e+18 1.57092083 .Nan -1.82875133 1.66152066e-35
      1.96048188 -9.78711006e-26 1.76784158</_>
    <_>
      -2.22868151e-19 1.87275493 -8.35109815e-35 1.68324804
      -2.60639242e-26 1.7649914 4.66334555e+24 1.55508947 4.87524997e-31
      -1.54724395 0.488882989 -1.94386172</_>
    <_>
      -2.78883155e+22 -1.92504227 -5.86668101e+12 1.89452183
      6.76373202e-06 -1.88646412 -1.74277426e-34 -1.76915503 .Nan
      -1.76797271 -638.937744 1.57077825</_>
    <_>
      -8.30444995e+29 -1.6601851 -4.44278531e-33 1.94008029 -107167088.
      -1.972489 -0.00113552413 1.48406065 0.835998893 1.4764365
      10.7688541 -1.88751745</_>
    <_>
      -1.78250032e+19 1.65265548 -2.24603887e+21 1.65230668
      7.43439019e-19 -2.02872896 .Nan -1.82875133 -1.00294608e+27
      -1.89587629 -9.78711006e-26 1.76784158</_>
    <_>
      -3.51639624e+17 2.1631546 3.45104396e-21 1.90211499 6.51612043
      2.08667302 1.49273833e-33 -1.59428513 5.84697704e+37 1.992522 .Nan
      -1.92273259</_>
    <_>
      -1.04082621e-37 -1.61822975 6848.35156 -1.761168 4.37334351e-35
      -1.57205367 1.58778671e-13 -1.78491986 -3.19485244e+33 -1.75369954
      8.19928084e-11 -1.51728725</_>
    <_>
      -6.93260723e-15 -1.8008064 2025.79675 -1.909109 -1.36527561e+17
      -1.91210616 -6.37724434e-32 -1.89387989 -5.18621096e-29 1.87663281
      -9.78711006e-26 1.76784158</_>
    <_>
      6.7958781e-19 -1.6987555 -4.84436713e-10 2.06916237
      -4.68400701e+10 -2.00689888 1.24411595e+29 -1.8164494
      -1.27926808e-06 1.78176248 .Nan -1.92273259</_>
    <_>
      1.34783468e+19 1.51747322 -4.39499548e-10 -1.85228479
      5.61163548e+16 -1.50323367 -8083.17578 1.94329631 -1.68209233e-08
      -1.4232105 -1.38691546e-26 1.87659621</_>
    <_>
      -9.24689816e+14 1.81489944 3.88152988e+24 -1.74196374 2.53474569
      1.8338114 8.80133843e-14 -1.84272408 -3.50273704e-14 -1.64321434
      2.3016386 -1.91568959</_>
    <_>
      -2.00219774 1.68694746 1.4568959e+10 -1.48892045 4.09939395e+32
      1.88881564 -1.51848076e-06 -1.79017472 -5.48797143e+17 -1.72885299
      8.19928084e-11 -1.51728725</_>
    <_>
      0.000144330334 -1.85937381 -4.39499548e-10 -1.85228479
      -1.35185097e-36 -1.70175672 -9.16650455e-21 -1.8374691
      8.93565237e+22 -1.74312615 -5.02331321e-24 -1.23678982</_>
    <_>
      -8.97671509e+25 -1.58280408 .Nan -1.94662845 6.12100905e-07
      1.78282809 .Nan -1.82875133 -2.8199358e+33 1.95000064
      -9.78711006e-26 1.76784158</_>
    <_>
      2.80623984e+29 1.83418465 1.03076152e-33 1.96665609 -82.3724594
      -1.82910824 9.34719476e-28 -1.83221424 0.202501372 1.79603565
      3.70364763e-12 -1.57363153</_>
    <_>
      20935562. 1.99827576 -0.000210444719 1.85039747 1.46683955e+20
      -1.88878167 .Nan -1.82875133 -4.02343905e+18 -1.40394807
      -9.78711006e-26 1.76784158</_>
    <_>
      7.31619235e-34 1.85346985 -5.91439501e+35 -1.80672634
      5.61163548e+16 -1.50323367 8.80133843e-14 -1.84272408
      -3.19485244e+33 -1.75369954 1.5380636e+26 1.82889128</_>
    <_>
      1.34783468e+19 1.51747322 20.1106472 -1.86747098 4.37334351e-35
      -1.57205367 -9.16650455e-21 -1.8374691 -22595894. -1.70030677
      -638.937744 1.57077825</_>
    <_>
      6.16129494 -1.76294804 1.4568959e+10 -1.48892045 4.16580724e-13
      1.8510164 4.0322386e+34 1.73718274 0.0114017287 -1.86788452
      2.38760839e+13 1.21396422</_>
    <_>
      32057194. -1.66582978 8.81898051e-26 -1.88993239 5.6977347e-27
      -1.48014605 3.62091393e-28 1.89174902 6.82999682e-18 1.98144412
      -9.78711006e-26 1.76784158</_>
    <_>
      1.38185743e-18 -1.54108918 2.53989945e+25 -1.87882853
      -1.64756364e+12 1.64234293 -3.53858991e-25 1.57610917
      -1.52596954e-06 -1.2361027 -1.58559284e+27 1.78663301</_>
    <_>
      -1.04082621e-37 -1.61822975 1.4568959e+10 -1.48892045
      6.76373202e-06 -1.88646412 -9.16650455e-21 -1.8374691
      -2.23153615e+36 -1.51869762 -3.2583973e-36 -1.84369063</_>
    <_>
      -8.30444995e+29 -1.6601851 20.1106472 -1.86747098 -1.73145849e+15
      -1.63293672 5.02237751e-10 1.8539449 8.93565237e+22 -1.74312615
      4.71764763e+20 -1.42188597</_>
    <_>
      1.07430864e+12 -1.31924593 1.05417167e-29 -1.58732152
      -2.12302323e-36 -1.79371548 -5.20644002e+11 -1.76154447
      4.20041276e+27 1.67113543 -9.78711006e-26 1.76784158</_>
    <_>
      1.48338341e-33 -1.82080352 -1.24193127e-06 -1.61594927
      -3.18908455e-10 1.02549922 -1.17364559e+36 -1.82170427
      -1.07680464e-28 -1.79651892 -5.02331321e-24 -1.23678982</_>
    <_>
      8.63467635e+29 1.62611508 -0.641392887 -1.89993751 -1.9178296e+16
      1.69125855 .Nan -1.82875133 -3.51229963e-30 1.77345443
      -9.78711006e-26 1.76784158</_>
    <_>
      -2.85716407e-36 2.29336047 -5.9110801e+37 -1.65084684
      1.08575356e-12 2.12108302 -2.14562636e+36 -1.76390004
      5.05609267e+09 1.82458186 3.48941745e-28 -1.7120043</_>
    <_>
      4.53631176e+36 2.00887346 1911.60791 -1.71159148 1.61799916e+26
      1.89741814 -5.6141972e+22 -1.43633354 -31106.8613 1.81030869
      -4.99385214 -1.90160346</_>
    <_>
      8.53258725e+36 -1.94432747 -6.32819184e+31 1.86848533
      -2.34357914e-24 -1.86351824 1.32751936e+15 -1.80593956 .Nan
      -1.76797271 3.48941745e-28 -1.7120043</_>
    <_>
      8.53258725e+36 -1.94432747 -2.93083032e+14 -1.77635407
      4.16580724e-13 1.8510164 1.66123901e-29 -1.67270172 3.81693687e+23
      -1.83220172 -3.21370398e-34 -1.75917423</_>
    <_>
      -1.63183622e+35 1.59184289 9.54097612e-34 -1.84983623
      2.29224169e+22 2.00773549 93587400. -1.63867545 -3.51229963e-30
      1.77345443 -9.78711006e-26 1.76784158</_>
    <_>
      6.16129494 -1.76294804 -2.93083032e+14 -1.77635407 -3.18908455e-10
