<?xml version="1.0"?>
<opencv_storage>
<opencv_ml_svm>
  <format>3</format>
  <svmType>C_SVC</svmType>
  <kernel>
    <type>RBF</type>
    <gamma>0.5</gamma></kernel>
  <C>1.</C>
  <term_criteria><iterations>1000</iterations></term_criteria>
  <var_count>4</var_count>
  <class_count>3</class_count>
  <class_labels type_id="opencv-matrix">
    <rows>3</rows>
    <cols>1</cols>
    <dt>i</dt>
    <data>
      0 1 2</data></class_labels>
  <sv_total>96</sv_total>
  <support_vectors>
    <_>
      -4.20448089e+37 -1.75929427 -2.61829211e-19 1.93685782</_>
    <_>
      1.122655e-32 -1.91055083 -1.17995971e+21 -1.91412199</_>
    <_>
      5.6282071e+10 -1.85017025 -5.34128124e-11 1.82516348</_>
    <_>
      2.18520153e-32 2.03121042 -2.08589168e-13 -1.49991512</_>
    <_>
      -3.54574715e-34 1.9164269 -2.57568683e-33 1.93099439</_>
    <_>
      2.03734357e-23 -1.8928771 -6.02070165e+17 1.46289062</_>
    <_>
      1.122655e-32 -1.91055083 690266.688 -1.93055618</_>
    <_>
      -2.87265898e-13 -1.54867387 0.000138845615 1.96578324</_>
    <_>
      1.65080492e-36 -1.89633441 2.23480399e+36 -1.89768791</_>
    <_>
      2.00264016e-23 -1.70800483 -1.26513925e+27 -1.88132107</_>
    <_>
      56769.1758 1.68234932 3.29700587e+16 0.862190247</_>
    <_>
      5.6282071e+10 -1.85017025 0.000138845615 1.96578324</_>
    <_>
      1.122655e-32 -1.91055083 2.23480399e+36 -1.89768791</_>
    <_>
      5.7183019e+10 1.91004252 -8.14544639e-24 1.66892409</_>
    <_>
      9.25228779e+35 1.88799405 -2.57568683e-33 1.93099439</_>
    <_>
      3.03711445e+27 1.79362524 -6.02070165e+17 1.46289062</_>
    <_>
      -2.58290642e+25 1.87255526 2.945758e-29 1.82264769</_>
    <_>
      5.7183019e+10 1.91004252 -6.02070165e+17 1.46289062</_>
    <_>
      -254.53418 1.78725672 1.30744996e+10 1.6980859</_>
    <_>
      -7.52141123e+26 1.98577237 3.43767686e+33 -1.77194083</_>
    <_>
      -3.54574715e-34 1.9164269 -1.0389174e+18 1.85551584</_>
    <_>
      8.12660407e-26 1.71608269 -5.34128124e-11 1.82516348</_>
    <_>
      -3.80355363e+21 1.85833883 -2.57568683e-33 1.93099439</_>
    <_>
      3.03711445e+27 1.79362524 -8.14544639e-24 1.66892409</_>
    <_>
      2.59789318e+12 1.71078217 1.30744996e+10 1.6980859</_>
    <_>
      -60.3074036 1.94033444 -2.08589168e-13 -1.49991512</_>
    <_>
      -4.20448089e+37 -1.75929427 -7.33493166e+10 1.99470854</_>
    <_>
      1.65080492e-36 -1.89633441 3.52490046e-26 -1.88125384</_>
    <_>
      2.10911593e+20 -1.87773108 -2.08589168e-13 -1.49991512</_>
    <_>
      1.40533174e-34 -1.90344262 -1.17995971e+21 -1.91412199</_>
    <_>
      5.6282071e+10 -1.85017025 2.10055333e+37 1.76731277</_>
    <_>
      1.65080492e-36 -1.89633441 6.29472125e+17 -1.85463941</_>
    <_>
      -2.16904113e-32 -1.92316902 -8.14544639e-24 1.66892409</_>
    <_>
      -2.87265898e-13 -1.54867387 3.43767686e+33 -1.77194083</_>
    <_>
      56.6831093 1.56910157 1.87086812e-06 1.50822592</_>
    <_>
      6.58612365e-08 1.97062647 -1.90163918e-31 -1.67818022</_>
    <_>
      239.349304 -1.93831503 -6.02070165e+17 1.46289062</_>
    <_>
      -4.79107064e-18 1.56482959 -5.34128124e-11 1.82516348</_>
    <_>
      2.59789318e+12 1.71078217 3.07698063e+32 1.75691116</_>
    <_>
      -2.26713043e+11 -1.908023 -5.34128124e-11 1.82516348</_>
    <_>
      -2.91937651e+37 -1.88211787 -1.17995971e+21 -1.91412199</_>
    <_>
      1.122655e-32 -1.91055083 3.52490046e-26 -1.88125384</_>
    <_>
      -5.32698826e+19 1.87975049 2.10055333e+37 1.76731277</_>
    <_>
      9.25228779e+35 1.88799405 -0.00809700694 1.89812613</_>
    <_>
      -2.67525268e+36 1.7633332 -5.87384856e-36 -1.91024649</_>
    <_>
      -1796223.25 1.80147314 -1.0389174e+18 1.85551584</_>
    <_>
      -4.79107064e-18 1.56482959 -2.08589168e-13 -1.49991512</_>
    <_>
      -0.0395026281 1.77304029 2.945758e-29 1.82264769</_>
    <_>
      -2.91937651e+37 -1.88211787 3.52490046e-26 -1.88125384</_>
    <_>
      8.12660407e-26 1.71608269 -1.90163918e-31 -1.67818022</_>
    <_>
      0.00125344656 1.65391648 1.87086812e-06 1.50822592</_>
    <_>
      -5.05524353e-24 -1.33502424 -8.41313357e-15 -1.82979155</_>
    <_>
      -1.23478211e+10 1.81568956 -1.0389174e+18 1.85551584</_>
    <_>
      6.74241036e-08 1.65549874 -2.08589168e-13 -1.49991512</_>
    <_>
      2.18520153e-32 2.03121042 3.43767686e+33 -1.77194083</_>
    <_>
      -1.07408966e-22 1.95907617 1.51184348e+13 1.88169205</_>
    <_>
      1.63639743e-05 -1.64742088 -2.08589168e-13 -1.49991512</_>
    <_>
      -2.59942482e-07 -1.96860695 -2.08589168e-13 -1.49991512</_>
    <_>
      7.80568754e-29 -1.92476726 -1.17995971e+21 -1.91412199</_>
    <_>
      2.00264016e-23 -1.70800483 3.18801305e-21 -1.93917191</_>
    <_>
      -1.00997403e-30 -1.25844479 -4.36526307e-07 -1.6305964</_>
    <_>
      -0.0156169794 1.3873235 -8.14544639e-24 1.66892409</_>
    <_>
      -0.0395026281 1.77304029 2.945758e-29 1.82264769</_>
    <_>
      -5.32698826e+19 1.87975049 -6.02070165e+17 1.46289062</_>
    <_>
      56769.1758 1.68234932 -1.19349727e-06 1.63234937</_>
    <_>
      -4.20448089e+37 -1.75929427 -5.34128124e-11 1.82516348</_>
    <_>
      1.122655e-32 -1.91055083 3.52490046e-26 -1.88125384</_>
    <_>
      1.63639743e-05 -1.64742088 3.43767686e+33 -1.77194083</_>
    <_>
      -254.53418 1.78725672 1.51184348e+13 1.88169205</_>
    <_>
      5.7183019e+10 1.91004252 -6.02070165e+17 1.46289062</_>
    <_>
      -1.23478211e+10 1.81568956 -2.57568683e-33 1.93099439</_>
    <_>
      -5.32698826e+19 1.87975049 2.10055333e+37 1.76731277</_>
    <_>
      9.25228779e+35 1.88799405 9.1973084e+13 1.96386266</_>
    <_>
      2.00264016e-23 -1.70800483 3.18801305e-21 -1.93917191</_>
    <_>
      -7.5541845e-10 1.18803585 2.67183594e-07 -1.50471997</_>
    <_>
      -4.20448089e+37 -1.75929427 -2.08589168e-13 -1.49991512</_>
    <_>
      -3.33665193e+18 1.82391715 -8.14544639e-24 1.66892409</_>
    <_>
      -1.23478211e+10 1.81568956 1.51184348e+13 1.88169205</_>
    <_>
      -5.05524353e-24 -1.33502424 -8.41313357e-15 -1.82979155</_>
    <_>
      8.12660407e-26 1.71608269 935105408. -1.99702263</_>
    <_>
      6.74241036e-08 1.65549874 -2.08589168e-13 -1.49991512</_>
    <_>
      1.20295826e+20 1.73921502 -1.19349727e-06 1.63234937</_>
    <_>
      3.03711445e+27 1.79362524 -8.14544639e-24 1.66892409</_>
    <_>
      -5.43718773e+17 1.84412241 -2.57568683e-33 1.93099439</_>
    <_>
      2.10911593e+20 -1.87773108 -5.34128124e-11 1.82516348</_>
    <_>
      239.349304 -1.93831503 -8.14544639e-24 1.66892409</_>
    <_>
      -5.05524353e-24 -1.33502424 3.43767686e+33 -1.77194083</_>
    <_>
      -1.23478211e+10 1.81568956 -1.57613827e+29 1.94742846</_>
    <_>
      1.63639743e-05 -1.64742088 -8.41313357e-15 -1.82979155</_>
    <_>
      2.66969728e-11 1.62548363 1.87086812e-06 1.50822592</_>
    <_>
      -0.0156169794 1.3873235 -2.08589168e-13 -1.49991512</_>
    <_>
      -1.23478211e+10 1.81568956 2.945758e-29 1.82264769</_>
    <_>
      -4.79107064e-18 1.56482959 -1.90163918e-31 -1.67818022</_>
    <_>
      2.10911593e+20 -1.87773108 2.10055333e+37 1.76731277</_>
    <_>
      -2.67525268e+36 1.7633332 -8.41313357e-15 -1.82979155</_>
    <_>
      -254.53418 1.78725672 2.945758e-29 1.82264769</_></support_vectors>
  <decision_functions>
    <_>
      <sv_count>73</sv_count>
      <rho>-0.78913208051323247</rho>
      <alpha>
        0.21088211764018733 0.11396107775280351 0.10658659274520677
        0.2108885079629127 0.21085186957334251 0.21088861517369922
        0.17135683620097575 0.21085186957334245 0.10530571933185673
        0.039503639209799657 0.15641354424222992 0.21086201469868721
        0.21087010813665802 0.21088372981449682 0.2108833651607202
        0.21088861517369917 0.21085503399707262 1. 0.21004892538542386
        0.030758820552016175 0.2108757873373418 0.2108492757946252
        0.086076001514930556 0.21084927579462509 0.21085507835868794
        0.21086201469868726 0.21085622645528612 0.21088683156872701 1.
        0.054532522220987867 0.21088123354578203 0.99762336539398144
        0.21088130012923395 0.16909812229045229 0.0059420148959326569
        0.21085494127431587 0.21085626011900432 0.25723319165003217
        0.066145074044380692 0.21089170071000346 0.21088367195441515
        0.21086532084258441 0.21004672157166865 1. 0.14427737080282713
        0.21085191550575944 0.21085224431747568 0.10683799349554673 1.
        0.21088288315651738 1. 0.10463058270389153 0.011397638627432982
        0.21086308650160895 0.2108570590117973 0.208960502957168 1. -1.
        -1. -1. -1. -1. -1. -1. -1. -1. -0.68279821157084197 -1. -1. -1.
        -1. -1. -1.</alpha>
      <index>
        95 1 2 5 6 68 8 10 11 12 14 16 18 20 22 24 26 27 28 29 30 31 32
        34 36 38 39 40 41 43 45 47 48 50 0 52 55 57 58 81 83 77 84 74 7
        93 72 91 89 87 60 70 62 85 64 65 66 9 63 61 88 92 73 59 75 56 49
        37 33 23 79 17 80</index></_>
    <_>
      <sv_count>74</sv_count>
      <rho>-0.64327821763484005</rho>
      <alpha>
        0.35671172055369654 0.23066030864072218 0.18154789278762701
        0.77030845847209073 0.35669780270212109 0.35668798435701465
        0.35672775285584785 0.29233551200709651 0.35678419627636621
        0.17687884659898173 0.064423677458927076 0.33444904032648093
        0.35677075454041723 0.35674893198816809 0.35672371717102708
        0.35678419627636626 0.35675330043637027 0.35675429831601913 1.
        0.3553179881333649 0.001065037854315054 0.35672143552093749
        0.35676823221859699 0.18358278206419443 0.35672889290425575
        0.35673114158566349 0.35672956651557397 0.35675236220662959
        0.35675275133943785 0.26429813392109153 0.022316505279270205
        0.35673929838454549 0.35669909339813988 0.1752071937485965
        0.3567017508330031 0.35673929838454538 0.12501263618469238
        0.35675485471001256 0.35667368402427402 0.35675564505438451
        0.35534348933189197 1. 0.19128375371265965 0.35672535757443358
        0.35672134782793607 0.18276084017740529 0.64440741658648704
        0.35675485471001261 1. 0.17494935905174624 0.3567682322185971
        0.35677075454041723 0.18256872591384882 -1. -1. -1. -1.
        -0.98989414570518708 -1. -0.86522954457996781 -1.
        -0.81582698944965215 -1. -0.83102567728088894
        -0.65335322191469092 -1. -0.17199784794935832 -1. -1. -1. -1.
        -0.46864710052998504 -0.81487628026657011 -1.</alpha>
      <index>
        95 1 2 4 5 6 68 8 10 11 12 14 16 18 20 22 24 26 27 28 29 30 31
        32 34 36 38 39 40 41 43 45 48 0 52 55 58 81 83 77 84 74 7 93 72
        91 89 87 60 70 85 64 65 19 82 78 76 71 69 67 54 86 46 44 42 90
        35 25 21 15 13 3 94 51</index></_>
    <_>
      <sv_count>37</sv_count>
      <rho>0.37713964602897498</rho>
      <alpha>
        1. 1. 1. 1. 1. 0.99994258333235264 0.33699649431560158 1. 1. 1.
        1. 1. 1. 1. 1. 1. -0.62286035397102724 -1. -1.
        -0.62286035397102579 -0.62286035397102546 -1. -1.
        -0.62112095150001834 -0.36755915967873876 -0.64576949086360114
        -1. -0.31193415136960623 -1. -1. -0.62286035397102457 -1.
        -0.62286035397102357 -0.62286035397102346 -0.34145904903944135
        -0.31193415137039893 -1.</alpha>
      <index>
        9 63 61 88 92 73 59 75 56 49 37 33 23 79 17 80 19 82 78 76 71 69
        67 54 53 86 46 44 90 35 25 21 15 13 3 94 51</index></_></decision_functions></opencv_ml_svm>
</opencv_storage>
